SVM-light Version V6.02
0 # kernel type
3 # kernel parameter -d 
1 # kernel parameter -g 
1 # kernel parameter -s 
1 # kernel parameter -r 
empty# kernel parameter -u 
89527 # highest feature index 
6250 # number of training documents 
4189 # number of support vectors plus 1 
-0.0484699 # threshold b, each following line is a SV (starting with alpha*y)
-0.0012658871448739921882625791837995 1:6 2:3 3:2 4:3 5:2 10:2 12:5 16:1 17:1 18:1 23:1 27:5 30:1 31:1 32:1 41:1 49:1 54:1 85:1 99:1 104:1 106:1 141:2 217:1 220:1 253:1 345:1 355:1 452:1 458:1 475:1 583:1 627:1 747:1 792:1 839:1 856:1 1017:1 1107:1 1167:1 1218:1 1290:1 1491:1 1666:1 1719:1 1720:1 2005:1 2728:1 3073:1 3193:1 3220:1 5975:1 6832:1 19025:1 #
-0.001196428049332055182363276912838 1:12 2:14 3:8 4:5 5:7 6:3 7:5 8:4 9:3 10:6 11:2 12:2 13:2 14:1 15:3 16:1 17:1 19:3 21:1 22:4 23:1 26:1 28:3 31:1 32:2 33:1 34:1 37:3 38:1 50:1 53:2 54:2 57:1 61:1 62:1 63:2 72:1 75:1 81:1 88:1 89:1 91:1 92:2 95:1 107:1 110:1 111:2 120:1 122:2 123:1 134:1 137:1 140:1 147:2 150:2 166:1 173:1 180:1 182:1 184:1 188:1 194:1 197:1 213:1 216:1 224:1 226:1 229:1 233:1 239:1 241:1 247:1 254:1 258:1 280:1 287:1 300:1 301:1 305:1 309:1 312:1 314:1 322:1 357:1 359:1 374:1 381:2 383:1 413:1 421:1 425:1 438:1 444:4 449:1 475:1 477:1 496:1 505:1 524:1 552:1 557:2 567:1 595:1 618:1 670:1 692:1 782:1 814:1 846:1 893:1 911:1 943:1 957:2 1004:1 1060:1 1123:1 1130:1 1132:1 1170:1 1219:1 1314:1 1390:1 1396:1 1522:1 1565:1 1615:1 1871:1 2061:1 2138:1 2161:1 2188:1 2241:1 2293:1 2438:1 2443:1 2533:1 2662:1 2685:1 2806:1 2852:1 2999:1 3049:1 3122:1 3318:1 3647:1 4102:2 4744:1 5225:1 5279:1 7026:1 7939:1 9674:1 9721:1 10326:1 10509:1 11024:1 11320:1 12616:1 13496:1 13827:1 15750:4 24459:1 26432:1 27177:1 54414:1 58538:1 69160:1 #
0.0012658871448739921882625791837995 1:11 2:6 3:13 4:5 5:7 6:9 7:3 8:5 9:2 10:3 11:7 12:1 13:2 15:2 17:3 19:4 20:4 21:1 23:9 25:2 26:2 29:1 30:4 32:2 33:2 34:1 35:3 36:1 37:1 38:6 40:2 42:1 43:1 44:3 46:2 47:1 49:3 50:1 53:1 58:1 60:1 63:2 64:1 65:1 67:1 70:2 71:2 75:1 77:1 79:1 80:1 85:1 90:1 91:1 95:1 102:1 108:1 109:2 113:1 119:3 121:1 139:1 144:2 151:1 152:1 158:1 166:1 168:1 170:1 174:1 175:2 178:1 190:1 192:1 197:1 206:1 212:1 217:2 225:1 231:2 244:1 245:1 254:1 258:1 262:2 281:2 297:1 300:1 309:1 314:1 326:1 334:1 341:1 359:1 397:2 429:1 449:1 480:1 490:1 495:1 518:1 528:1 573:1 575:1 591:1 645:1 674:1 680:1 681:1 694:1 701:1 707:1 711:1 828:1 835:1 836:1 873:2 893:1 941:3 949:1 957:1 968:1 1019:1 1074:1 1075:1 1184:3 1273:1 1310:1 1448:1 1453:1 1456:2 1516:1 1540:1 1630:1 1649:2 1751:1 1810:2 1822:1 1827:1 2624:1 3062:1 3142:1 3397:1 4049:1 4191:1 4618:3 5207:1 5441:1 5568:1 5978:3 6136:1 6555:1 7579:1 8425:1 9325:1 9593:1 10076:2 11317:1 12295:1 12655:1 16736:1 17250:1 17770:1 24679:1 35082:1 45875:1 55694:1 61748:1 66851:1 #
-0.0012658871448739921882625791837995 1:6 2:4 3:1 4:2 5:4 6:2 7:2 8:1 9:1 10:4 11:2 12:1 13:1 14:2 16:3 17:1 18:1 19:1 21:1 23:3 25:1 26:1 27:1 28:1 29:1 33:1 34:1 36:1 38:1 40:1 42:1 43:1 44:1 46:2 47:2 53:1 54:1 56:2 67:1 70:1 73:1 75:1 77:1 81:1 86:1 88:2 91:2 95:1 111:1 114:1 123:1 126:1 132:1 139:1 144:2 150:1 151:1 158:1 185:1 198:1 202:1 211:1 231:1 268:1 304:1 314:1 319:1 353:2 372:1 390:1 398:1 422:1 436:2 501:1 518:1 571:1 628:1 661:1 669:1 825:1 939:1 1053:1 1063:1 1262:1 1451:1 1565:1 1592:1 1926:1 1957:1 2620:2 3185:1 3512:1 4499:1 4667:1 6180:1 7654:1 8083:1 8116:1 8995:1 11201:3 11878:1 13686:1 16429:1 22462:1 71364:1 78430:1 #
-0.0012658871448739921882625791837995 5:1 9:1 25:1 36:1 65:1 74:1 111:1 204:1 270:1 345:1 882:1 1212:1 1674:1 16782:1 #
0.0012658871448739921882625791837995 1:23 2:11 3:7 4:9 5:4 6:4 7:1 8:2 9:1 11:1 12:1 13:4 14:2 15:1 18:3 19:1 20:1 22:1 25:1 26:1 29:1 31:1 33:1 34:1 35:3 36:1 44:1 46:1 50:3 54:2 59:1 64:1 71:2 74:1 79:1 88:1 90:2 96:1 99:1 103:1 116:1 124:1 137:2 152:2 153:1 156:1 162:1 168:1 185:1 195:1 200:1 207:2 219:1 224:1 236:1 251:1 268:1 271:1 273:1 278:1 281:1 289:2 317:1 325:1 341:1 361:1 365:1 375:1 402:1 411:1 419:1 449:1 461:1 485:1 556:1 560:1 564:1 598:1 611:1 625:1 642:1 676:1 698:1 700:1 711:1 716:1 730:1 790:1 798:1 819:1 831:1 835:1 958:1 968:1 988:1 1073:1 1083:1 1116:1 1127:1 1128:1 1139:1 1205:1 1208:1 1219:1 1230:1 1231:1 1233:1 1235:1 1263:1 1367:1 1425:1 1462:1 1536:1 1629:1 1651:1 1662:1 1688:1 1711:1 1795:1 1897:1 1922:1 1933:1 2038:1 2045:1 2116:1 2322:1 2334:1 2391:1 2395:1 2399:1 2656:1 2736:1 2782:1 2914:1 2917:1 2951:1 3059:1 3102:1 3252:1 3287:1 3445:1 3566:1 3665:1 3700:1 3742:1 3808:1 3811:2 3862:1 3988:1 4403:1 4544:1 4783:1 4897:1 5058:1 5147:1 5269:1 5873:1 5881:1 6351:1 6447:1 6496:1 7206:1 7757:1 8058:1 8253:1 8627:1 8749:1 9856:1 9913:1 10419:1 10812:1 10875:1 11022:1 11100:1 11637:1 14758:1 19412:1 19427:1 21621:1 22650:1 22723:1 36479:1 54924:1 64039:1 69678:1 75345:1 #
0.0012658871448739921882625791837995 1:18 2:4 3:8 4:9 5:7 6:2 7:1 8:3 10:3 11:5 12:2 13:6 14:4 15:2 16:2 17:3 18:2 19:1 21:1 22:4 23:1 24:1 25:1 26:3 29:1 30:1 31:1 32:1 33:1 34:2 36:1 37:1 38:1 39:2 40:1 44:3 45:1 46:1 47:1 48:2 49:1 52:1 54:2 64:2 72:2 73:1 76:1 78:2 81:2 96:1 102:1 103:1 109:1 120:1 127:1 133:1 134:1 135:1 144:1 147:1 150:1 154:1 155:1 157:1 163:1 165:1 180:1 181:1 188:1 189:1 195:1 206:1 220:1 227:1 229:2 233:1 242:1 249:1 250:1 267:1 313:3 360:1 391:1 401:1 408:1 423:1 426:1 440:1 443:1 507:1 508:1 514:1 590:1 592:1 638:1 659:1 664:1 667:1 680:1 707:1 714:1 734:1 791:1 828:1 862:1 884:1 897:1 958:1 1002:1 1217:1 1220:1 1249:1 1316:1 1362:1 1410:1 1755:1 1771:1 1820:1 1974:1 2136:1 2166:1 2214:1 2258:1 2330:1 2333:1 2352:1 2362:1 2368:1 2414:2 2684:1 2736:1 2768:1 2770:1 3077:1 3150:1 3397:1 3569:2 3649:1 3702:1 3904:1 4341:1 4709:1 4920:1 5213:1 5275:1 5370:1 5482:1 5662:1 6404:1 6694:1 6820:1 7048:1 7107:1 7173:1 7462:1 7596:1 8394:1 9682:2 9732:1 9980:1 11039:1 11086:1 12208:1 12577:1 12976:1 13594:1 13766:1 13909:1 14307:1 14605:1 14878:1 15197:1 16349:1 17278:1 18501:1 19538:1 21182:1 22271:1 22987:1 24157:1 24488:1 27063:1 36671:1 39545:1 39887:1 46817:1 49418:1 60350:1 62555:1 65352:1 #
0.0012658871448739921882625791837995 1:5 2:2 3:2 4:2 5:1 7:3 8:2 10:1 11:1 12:1 17:2 18:1 19:1 20:1 22:1 25:2 27:3 30:1 41:1 48:1 49:1 53:1 60:2 66:1 69:1 74:1 78:1 85:1 96:1 118:1 119:1 125:1 133:1 137:1 157:1 158:1 168:2 188:1 202:1 207:1 259:1 263:1 299:1 315:1 322:1 419:1 469:1 478:1 545:1 577:1 1094:1 1132:1 1358:1 3173:1 3358:1 3860:1 3888:1 3976:1 4031:1 6237:2 8251:1 18594:1 23844:1 #
0.00081491482746622609725783981104996 1:3 2:7 3:2 4:4 5:2 6:1 7:1 8:2 10:2 14:1 17:1 20:1 21:1 26:2 27:2 28:3 29:1 30:1 35:2 39:2 43:1 52:4 58:1 63:1 72:1 77:1 81:1 100:1 104:1 111:1 130:1 133:1 143:1 157:1 158:1 160:1 172:1 176:1 179:1 201:1 205:1 208:1 227:1 229:1 230:1 262:1 289:1 296:1 320:1 343:1 389:1 424:1 473:1 545:1 597:1 604:1 618:1 737:1 818:1 957:1 1035:1 1184:1 1208:1 1255:1 1471:1 2019:1 2861:1 4158:1 4183:1 4184:1 4374:1 5094:1 5961:1 6137:1 6726:1 7365:1 7602:1 8129:1 8144:1 8455:1 9772:1 15194:1 16023:1 16132:1 16320:1 20487:1 #
0.0012658871448739921882625791837995 1:8 2:1 3:1 4:1 5:3 6:2 7:3 8:2 9:4 11:2 13:2 15:1 19:1 20:2 21:3 23:3 27:1 28:1 32:1 33:1 37:1 45:1 47:1 53:1 61:1 67:2 77:2 79:1 85:2 91:1 92:1 104:3 106:1 116:1 119:1 122:1 143:1 145:1 154:1 176:1 244:1 258:1 260:1 289:1 317:1 371:1 544:1 618:1 620:1 636:1 645:1 775:3 801:1 970:1 1144:1 1264:1 1327:1 1573:1 1624:2 1640:1 1804:2 1928:1 2119:1 2235:1 2262:1 2639:1 2812:1 2832:1 2996:1 4519:2 4668:1 7629:1 8122:1 21624:1 26697:1 #
-0.0012658871448739921882625791837995 1:78 2:31 3:15 4:25 5:10 6:9 7:11 8:21 9:7 10:8 11:5 12:13 13:7 14:11 15:8 17:3 19:4 20:1 21:1 23:5 24:1 25:4 26:1 27:1 29:1 30:4 31:5 32:3 33:2 34:3 35:4 36:1 37:5 38:2 40:6 41:1 42:2 43:1 44:1 45:1 48:1 49:2 50:3 51:1 53:1 54:1 56:4 58:1 59:3 60:2 62:2 63:3 64:4 66:2 68:7 70:1 71:2 72:2 73:1 74:2 75:1 79:1 80:6 81:2 84:1 85:2 88:1 90:1 91:1 96:2 98:4 99:2 101:1 102:3 103:1 108:1 109:4 110:2 112:1 119:11 127:2 129:3 130:1 134:1 136:1 139:1 141:2 142:1 145:1 148:1 150:2 151:3 152:1 154:1 156:1 157:1 161:1 162:2 164:4 165:2 168:1 169:1 171:2 173:1 185:1 189:1 195:3 196:1 200:10 202:1 206:3 210:3 212:2 213:1 215:1 218:1 239:1 244:1 246:1 247:3 248:2 249:1 250:1 252:1 253:1 254:1 255:1 262:4 263:1 270:1 277:2 279:2 281:2 287:2 295:1 299:2 303:1 309:1 321:1 324:2 326:2 329:2 330:1 333:1 334:1 338:1 349:1 358:1 363:1 364:1 371:5 378:1 380:2 385:1 393:2 394:1 395:1 398:2 402:2 404:1 406:1 411:1 420:2 425:2 431:1 436:1 445:1 446:2 447:1 450:1 451:2 462:2 468:3 470:1 472:1 481:1 482:3 484:1 493:1 500:1 515:1 521:1 523:1 528:1 537:1 543:1 550:1 554:1 555:1 560:1 567:1 574:1 575:2 579:1 581:1 587:1 588:1 596:1 597:1 623:2 628:1 651:1 665:1 679:1 688:1 689:1 706:1 721:1 730:1 732:1 734:1 746:1 753:1 762:1 771:1 772:1 780:1 789:1 793:1 799:1 833:1 835:1 839:1 841:2 850:1 878:1 882:1 893:2 919:1 945:1 949:1 954:1 963:1 973:1 982:2 993:1 996:1 1014:1 1015:1 1017:1 1018:1 1025:2 1045:1 1057:1 1060:1 1062:1 1119:1 1138:1 1164:1 1173:1 1175:1 1198:1 1223:1 1233:1 1236:1 1271:1 1279:1 1282:1 1302:1 1324:1 1409:1 1433:1 1438:1 1487:1 1505:2 1539:2 1555:1 1556:1 1562:1 1603:2 1612:1 1635:1 1640:1 1695:1 1711:1 1731:1 1754:1 1783:1 1827:1 1835:1 1888:1 1900:1 1925:2 1928:1 1937:1 1981:1 2006:1 2019:1 2052:4 2078:1 2118:1 2133:1 2165:1 2262:1 2265:1 2342:1 2363:1 2441:1 2478:1 2518:1 2532:1 2590:1 2687:2 2718:1 2735:1 2743:1 2785:1 2809:1 2858:1 2870:1 2878:1 2915:1 2977:1 3004:7 3083:1 3084:1 3104:1 3107:1 3141:1 3215:2 3298:1 3326:1 3338:1 3342:1 3408:1 3501:1 3511:1 3513:1 3608:1 3735:1 3749:1 3790:1 3859:3 3944:1 3949:1 4039:1 4073:1 4207:1 4258:1 4271:1 4349:1 4457:1 4564:1 4748:1 4851:1 5006:1 5093:1 5130:1 5138:1 5143:1 5206:1 5227:1 5788:1 5833:1 6057:1 6414:1 6448:1 6517:1 6750:1 6786:1 6794:1 6864:1 7076:1 7172:1 7358:1 7523:1 8101:1 8680:1 9278:1 9596:1 9794:1 9821:2 9843:1 10595:3 10699:1 11027:1 12901:1 13322:1 13642:1 14493:1 14648:1 15192:2 15567:1 15571:1 16041:1 16109:1 17594:1 18762:1 19098:1 19534:1 19774:1 20440:1 22471:1 22674:1 23145:1 23307:1 24747:1 25227:1 26475:1 27687:1 28442:1 28781:5 28815:1 30472:1 31014:1 31325:1 34053:1 36195:1 38400:1 39723:1 42039:1 43931:1 44559:1 47723:1 49173:2 53392:1 64570:1 65573:1 69397:1 89161:1 #
-0.00088646948480001347414614087938389 1:9 2:4 3:6 5:8 6:3 7:7 8:3 9:3 10:2 11:2 12:1 15:2 17:3 18:3 22:1 23:3 25:1 26:1 29:1 30:2 31:1 34:1 38:1 42:1 48:1 49:2 51:2 53:1 56:2 64:1 65:1 66:1 69:1 86:2 97:1 110:1 127:1 128:3 130:1 133:1 134:1 136:1 138:1 139:1 145:1 162:1 172:1 176:1 179:1 181:1 183:1 193:1 214:1 215:1 216:1 222:1 223:1 235:1 300:1 309:1 313:4 315:1 326:1 329:1 340:1 347:1 357:1 360:1 445:3 446:1 476:1 537:1 555:1 580:1 584:1 592:1 594:1 616:1 627:1 628:1 677:1 703:1 728:1 757:1 765:1 799:1 870:1 913:1 944:1 966:1 1075:2 1167:1 1183:1 1231:1 1315:1 1343:1 1508:1 1731:1 1787:1 1934:1 2253:3 2677:1 2891:1 3750:2 3875:1 4250:3 7190:1 7898:1 8700:1 12363:1 14400:1 23272:1 25351:1 33973:1 37307:2 #
0.0012658871448739921882625791837995 1:2 2:6 3:1 4:3 5:4 6:5 7:6 8:4 9:10 10:6 12:6 16:5 17:1 21:1 25:1 27:2 28:8 29:3 32:1 34:2 36:2 37:2 41:2 45:2 46:2 48:3 49:2 53:3 54:1 58:1 65:2 68:1 74:1 75:1 77:1 88:1 100:1 101:2 110:1 114:1 115:1 119:1 120:1 144:1 147:1 152:2 155:1 159:2 165:1 167:4 169:1 172:1 186:1 228:1 234:1 256:1 307:2 318:1 345:1 362:1 367:1 388:2 410:2 452:1 460:1 468:1 511:3 570:3 572:1 613:1 826:1 952:1 1035:1 1070:1 1131:1 1437:2 2484:1 3036:1 3928:1 15551:1 #
0.0012658871448739921882625791837995 1:4 2:8 3:9 4:6 5:7 6:4 7:7 8:1 9:9 10:7 11:6 12:2 15:3 17:4 18:6 20:1 24:1 25:1 26:3 28:9 29:2 31:1 33:1 34:1 35:1 36:2 37:2 42:2 44:2 45:1 49:4 50:1 53:4 54:1 55:2 56:3 58:1 62:2 63:3 65:2 66:1 68:1 69:1 70:1 74:1 75:1 78:2 80:2 82:1 83:1 84:1 87:1 92:1 101:1 102:1 110:1 111:1 113:1 114:1 115:2 123:1 126:1 132:1 137:1 138:2 139:1 140:2 147:1 150:1 158:1 186:1 193:1 194:1 198:1 205:1 213:1 214:2 215:1 219:1 224:1 225:1 236:1 238:1 244:1 249:3 260:2 262:1 267:1 283:1 287:1 313:1 314:1 335:1 343:1 366:1 369:1 378:1 388:1 389:1 411:1 412:2 415:1 429:1 438:1 448:1 450:1 453:1 467:1 475:1 586:1 607:1 657:1 696:1 705:1 751:1 858:1 862:1 987:1 1177:1 1334:1 1467:1 1545:1 1729:1 1735:1 2222:1 2425:1 4116:1 5280:1 5650:1 8607:1 10008:1 22125:1 23186:1 #
-0.0012658871448739921882625791837995 1:2 2:1 3:1 4:1 6:1 17:1 20:2 23:1 29:1 35:2 48:1 49:1 53:2 62:1 109:1 173:1 194:1 215:1 284:1 341:1 526:1 1187:1 1800:1 1834:1 2752:1 7211:1 7816:1 9841:1 10296:1 11216:1 15730:1 17083:1 21929:1 27569:1 28912:1 #
0.0012658871448739921882625791837995 1:65 2:19 3:10 4:28 5:16 6:6 7:4 8:11 9:1 10:5 11:17 12:15 13:2 14:1 15:4 17:2 18:2 19:3 20:3 22:5 23:3 24:6 25:2 26:4 27:3 29:8 30:4 31:5 32:2 33:6 35:1 38:2 40:5 41:1 48:3 49:1 50:2 51:1 53:3 56:3 58:1 59:7 61:5 63:1 65:1 66:1 67:1 68:11 70:1 71:1 73:1 77:1 79:2 80:1 81:1 83:2 85:5 88:1 90:2 92:2 93:1 94:1 99:1 106:1 109:1 117:2 123:1 125:2 128:1 129:1 131:1 138:1 144:3 151:2 154:1 156:2 157:1 158:1 166:1 175:6 177:1 187:1 196:1 197:1 204:1 212:1 217:1 218:1 227:2 228:1 231:1 236:2 238:1 249:1 289:2 304:1 313:2 324:2 326:1 346:1 375:1 378:1 384:1 396:2 397:4 408:1 412:2 441:1 442:2 460:1 469:1 480:1 484:1 491:1 502:1 503:2 521:1 549:1 580:1 588:1 591:1 613:1 631:1 664:2 676:2 683:1 686:1 697:1 723:1 727:1 741:1 755:1 781:1 790:1 792:1 793:1 795:1 798:2 808:1 819:1 844:1 845:1 893:1 934:1 943:1 996:1 1022:1 1052:2 1095:1 1102:1 1113:1 1127:2 1176:1 1199:1 1233:1 1234:1 1260:1 1297:2 1345:1 1346:2 1492:3 1500:1 1501:1 1591:1 1608:1 1637:3 1657:1 1700:1 1715:1 1727:1 1744:4 1777:1 1810:3 1865:1 1942:1 2060:3 2134:1 2283:1 2298:1 2319:1 2395:1 2397:1 2442:1 2451:3 2510:1 2516:2 2561:1 2612:1 2639:1 2736:1 2918:1 2996:1 3049:2 3069:1 3308:2 3341:3 3445:1 3458:1 3463:1 3547:1 3636:7 3638:1 3781:1 4123:1 4152:1 4481:1 4490:6 4575:1 4631:1 4716:1 4995:1 5006:1 5187:1 5415:1 5484:1 5704:1 5730:1 5845:1 5856:3 5867:1 5991:1 6015:2 6064:1 6181:1 6266:1 6286:1 6327:2 6550:1 6745:2 6810:1 6853:2 6882:1 6991:1 7100:1 7315:1 7726:1 8054:1 8544:1 8791:1 9636:1 9705:1 9995:1 10656:1 10840:1 10898:1 11175:2 11209:2 11262:1 11520:1 11597:1 12124:1 13125:1 13415:1 13535:1 13563:3 14579:2 15424:1 16750:1 17058:1 17579:1 18382:1 19071:1 19986:1 20644:1 21268:1 21594:1 22159:1 22374:1 22944:1 23378:1 23546:1 25169:1 26554:1 30698:1 35979:1 38342:1 38523:1 38892:1 40865:1 42624:1 42872:2 51204:1 57692:1 58792:1 58916:1 62059:1 73641:1 77190:1 78050:1 86404:1 #
-0.0012658871448739921882625791837995 1:4 2:4 3:2 4:1 5:6 6:6 7:5 8:1 10:2 11:1 13:3 14:1 17:1 19:3 20:1 22:1 26:3 27:2 31:1 32:3 35:1 39:2 43:1 52:1 56:2 57:2 60:2 62:1 66:1 73:1 77:1 79:1 80:2 83:1 93:1 99:1 113:1 117:2 121:1 142:1 165:1 169:2 186:1 192:1 194:1 215:1 219:2 252:1 257:1 266:1 289:1 291:2 292:1 330:1 370:1 404:1 409:1 420:1 437:2 449:1 453:1 484:1 656:1 673:1 711:1 755:1 762:1 796:1 881:1 883:1 1138:1 1177:1 1221:1 1279:1 1301:2 1408:1 1739:1 1797:1 1836:1 1892:1 1953:2 2059:1 2192:1 2223:1 2445:1 2490:1 2555:1 2562:1 2658:1 2704:1 2718:1 2753:1 2788:1 2821:1 2832:1 2942:1 3034:1 3057:1 3243:1 3693:1 3699:1 3767:1 3772:1 4288:1 4468:1 4778:1 4846:1 5893:1 6202:1 6300:1 6724:1 7765:1 7904:1 9138:1 9370:1 10628:7 10948:1 12341:1 13503:1 15188:1 15763:1 16983:1 24653:1 26273:1 29090:1 45564:1 61373:1 70194:1 #
0.0012658871448739921882625791837995 1:20 2:12 3:5 4:9 5:12 6:1 7:2 8:8 9:7 10:5 11:1 12:3 13:5 14:4 15:2 17:4 18:4 19:3 20:1 23:3 26:2 27:2 28:2 29:2 30:1 31:2 32:1 33:1 34:3 36:2 39:2 47:1 48:1 51:1 56:2 58:2 60:1 61:2 62:1 63:1 65:1 68:2 69:1 70:4 76:1 78:1 83:1 84:1 86:1 88:1 91:1 97:1 101:1 103:1 117:1 120:1 121:1 131:1 142:1 153:1 175:1 194:1 200:1 204:2 207:1 226:1 234:1 245:1 253:1 267:1 277:1 278:1 279:1 286:1 295:3 302:1 328:1 337:1 357:3 362:1 365:1 381:1 399:1 404:1 414:1 468:1 481:1 489:2 518:1 544:1 546:1 584:1 606:1 723:1 761:1 768:1 789:1 797:1 800:2 807:1 820:1 826:1 842:1 867:1 910:1 945:1 1007:1 1067:1 1102:1 1113:1 1130:2 1145:1 1183:2 1249:1 1269:1 1403:1 1508:1 1597:1 1609:1 1634:1 1658:1 1694:1 1784:1 1849:1 2137:1 2241:1 2295:1 2358:1 2493:2 2719:1 2784:1 2833:1 2898:1 2931:1 3014:1 3042:1 3050:2 3426:1 3427:1 3466:1 3522:1 3616:6 3650:1 3998:1 4011:1 4473:1 4905:1 5261:1 6001:1 6053:1 6311:1 6585:1 7215:3 7490:1 7562:1 8252:1 9839:1 11007:1 11483:1 11765:1 12044:1 14369:1 14922:1 15734:1 15951:1 17744:1 24089:1 24208:1 32642:1 #
-0.0012658871448739921882625791837995 1:4 2:1 3:1 4:1 5:3 6:1 8:2 9:1 10:4 11:1 12:2 13:1 16:3 17:2 20:1 23:1 25:2 30:1 31:2 38:1 48:1 55:1 58:2 66:1 74:2 85:1 91:1 107:1 143:1 192:1 242:1 304:1 333:1 347:1 384:1 522:1 567:1 656:1 814:1 963:1 1551:1 1925:1 2065:1 2249:1 2421:1 2751:1 3053:1 4039:1 4710:1 7915:1 9066:1 26685:1 #
-0.0012658871448739921882625791837995 1:14 2:9 3:5 4:3 5:5 6:8 7:5 8:1 9:1 10:2 11:4 12:1 13:6 14:3 15:2 17:1 18:1 23:3 26:2 27:2 31:4 32:2 35:1 39:1 40:1 41:1 42:1 44:4 45:2 49:1 52:2 58:2 60:1 61:1 67:1 71:1 72:1 76:1 79:1 80:1 82:1 91:1 97:1 98:1 99:1 106:2 111:1 113:1 121:1 124:1 127:1 129:1 132:1 137:1 141:1 148:2 150:1 165:1 173:1 207:2 216:1 226:1 247:3 265:1 278:1 285:1 293:1 313:1 331:1 336:1 337:1 394:1 397:1 406:1 420:1 429:1 496:1 517:1 526:1 572:1 577:1 618:1 622:1 638:1 709:1 735:2 750:1 796:1 803:1 817:1 820:1 949:1 965:1 967:1 1084:1 1090:1 1095:1 1135:1 1260:1 1279:1 1445:1 1447:1 1588:1 1625:1 1784:1 1839:3 1852:1 2141:1 2189:1 2215:1 2232:2 2423:2 2607:1 2632:1 2659:1 2782:1 3316:1 3790:1 4859:1 5666:1 5855:1 6155:1 6439:1 6505:1 6582:1 6645:1 7280:1 7453:1 7530:1 8438:2 9474:1 9921:1 9990:2 10242:1 11156:2 12117:1 12204:1 12294:1 15043:1 15269:1 15542:1 15585:1 16070:1 20745:1 26312:2 33251:1 36005:2 39656:2 44121:1 57359:1 89011:1 #
0.0012658871448739921882625791837995 1:9 2:4 3:7 4:10 5:5 7:6 8:3 9:8 10:3 12:4 13:2 14:1 16:5 18:1 19:4 25:1 26:1 27:2 30:3 32:1 34:2 40:2 41:1 50:1 51:1 53:1 55:1 56:1 59:3 61:2 64:1 65:1 66:4 67:1 68:3 76:1 81:1 88:2 90:1 92:2 106:1 108:1 111:1 114:1 115:1 119:1 122:2 130:1 131:2 137:1 142:3 148:1 150:1 166:1 180:1 233:1 236:1 253:1 305:1 307:1 313:1 326:1 352:1 361:1 364:1 373:1 385:1 471:2 516:1 523:1 542:1 572:1 596:1 648:1 675:1 719:1 732:1 784:1 848:1 849:1 994:2 1010:1 1011:1 1108:2 1253:1 1716:1 1951:1 2004:1 2481:1 2594:1 3012:1 3379:1 3631:1 3975:1 3981:1 4060:1 4420:1 5092:1 5175:1 5844:1 6495:1 7050:1 7236:1 7259:1 7388:1 9331:1 9487:1 10275:1 10522:1 14227:1 15498:1 15595:1 20587:1 27402:1 37518:1 44973:1 #
0.00032600193351601614109164239962979 1:9 2:10 3:13 4:4 5:11 6:14 7:5 8:6 10:4 11:4 12:3 13:3 14:1 15:3 16:3 17:5 19:2 21:3 22:10 24:5 25:3 26:2 27:2 30:1 31:1 32:2 33:1 36:3 37:1 38:4 40:1 42:1 43:2 44:1 46:2 48:2 49:1 51:1 54:1 60:1 61:2 64:1 65:1 67:1 69:1 70:1 74:1 77:1 79:2 84:1 85:1 87:2 91:1 98:2 99:2 100:3 104:2 106:2 111:2 116:1 127:2 131:2 133:1 137:1 139:1 140:2 143:2 156:1 160:1 168:2 170:1 191:1 205:1 206:1 208:1 213:1 215:1 216:2 222:1 229:1 240:1 243:1 247:1 249:1 254:1 280:1 291:2 294:1 310:1 312:1 333:2 347:1 355:1 365:1 420:1 422:1 441:1 448:1 452:1 478:1 523:1 537:1 581:1 618:1 646:1 656:1 660:1 675:1 683:2 716:1 742:1 768:1 788:1 791:1 808:1 812:1 818:1 824:1 865:1 905:1 917:1 918:1 949:1 1002:1 1014:1 1172:1 1216:1 1228:1 1320:1 1423:4 1484:1 1508:1 1560:1 1655:1 1835:1 1887:1 1978:1 2019:1 2149:1 2181:4 2238:1 2282:1 2303:1 2379:1 2425:1 2449:1 2585:1 2812:1 2940:2 2952:2 3064:1 3180:1 3218:1 3241:1 3453:2 3562:1 3687:1 3697:1 3698:1 3722:1 3877:1 4128:1 4221:1 4224:1 4264:1 5086:1 5166:1 5552:1 5838:3 6302:1 6408:1 6624:1 6724:1 6917:1 8104:1 8108:1 8132:2 8250:1 8929:1 9166:1 9435:1 10495:1 10968:1 11094:1 11184:1 12361:1 15173:1 15345:1 16521:1 16794:1 18240:1 21881:1 23369:1 24964:1 25188:1 29017:1 29379:1 29551:1 30759:1 33185:1 34401:3 36326:1 38149:1 63764:1 67856:1 #
-0.0012658871448739921882625791837995 1:3 2:3 3:1 4:1 5:2 6:1 7:3 9:3 10:1 11:2 12:1 13:1 14:1 17:1 18:3 20:1 29:1 38:1 46:1 49:1 60:1 62:1 63:3 65:1 73:1 89:1 101:1 123:1 128:1 139:1 155:1 163:1 179:1 207:2 209:1 242:1 249:1 260:1 262:1 352:1 366:1 453:1 757:1 819:1 1133:1 1322:1 1395:1 2861:1 3578:1 #
0.0012658871448739921882625791837995 1:7 2:6 3:5 4:2 5:3 6:1 7:3 8:3 9:3 10:2 11:3 12:3 13:1 14:1 15:1 16:1 21:2 24:1 33:1 34:1 36:1 37:2 40:2 43:1 55:1 57:2 64:1 67:1 68:2 69:1 77:1 80:2 93:1 104:1 132:1 138:1 142:1 150:1 156:1 195:1 199:1 224:1 232:1 244:1 278:1 298:1 315:1 320:1 328:1 341:1 343:1 357:1 367:1 380:1 393:1 406:1 434:1 446:1 457:1 468:1 471:1 496:1 618:1 629:1 715:1 733:2 744:1 777:1 858:1 888:1 897:1 917:1 945:1 1114:1 1129:1 1139:1 1189:1 1255:2 1282:1 1451:1 1561:1 1583:2 1874:1 2217:1 2242:1 2446:1 2554:2 3420:1 3486:1 4680:1 5308:1 7036:2 11537:1 13660:1 15674:1 32847:1 46950:1 #
-0.0008823294696854678750841394219151 1:59 2:39 3:14 4:13 5:18 6:12 7:8 8:15 9:1 10:3 11:2 12:4 13:7 14:11 15:16 17:4 19:7 20:3 22:8 23:3 24:12 25:1 26:4 27:2 29:1 30:4 31:11 32:2 33:6 34:1 35:1 38:2 41:1 42:1 43:1 45:7 47:2 48:3 49:1 51:3 53:1 54:3 58:2 59:2 60:1 61:1 66:1 68:2 73:1 75:2 81:1 84:1 85:2 87:6 88:1 92:1 94:1 97:2 99:10 106:2 107:1 109:1 113:1 115:1 120:1 123:3 125:4 127:1 129:2 130:3 132:1 134:1 135:2 138:1 142:1 145:1 147:2 148:1 149:1 151:1 154:1 156:2 162:1 166:1 168:1 184:2 191:1 196:1 200:2 206:13 212:2 215:1 216:2 217:2 226:1 227:5 238:1 245:1 257:3 258:1 259:1 266:2 270:1 274:2 282:1 283:1 299:1 304:1 315:2 326:1 327:1 329:1 332:2 350:1 362:1 369:1 377:2 385:1 392:1 393:5 396:1 400:3 406:2 420:2 430:1 433:1 445:1 451:3 459:1 521:1 543:1 549:1 550:1 604:3 625:1 637:1 639:1 653:6 672:2 682:1 691:3 702:1 703:1 704:1 718:2 745:11 752:1 779:1 791:2 801:1 815:1 824:1 866:1 910:1 921:1 927:1 934:1 975:3 985:2 989:1 1020:3 1028:1 1105:1 1116:1 1142:1 1169:1 1199:1 1216:1 1304:1 1360:1 1400:1 1420:1 1460:2 1473:1 1518:5 1521:2 1550:1 1640:1 1670:2 1697:1 1724:2 1812:1 1825:1 1836:1 1850:1 1863:2 1872:1 1942:1 1956:1 1998:1 2003:1 2038:2 2054:1 2139:7 2168:2 2238:1 2258:1 2324:2 2448:2 2540:2 2552:1 2561:2 2588:1 2819:1 2822:1 2869:1 2910:1 2960:2 2984:1 2985:1 3009:1 3100:3 3141:1 3159:3 3253:1 3270:1 3329:1 3332:1 3358:2 3398:1 3421:4 3462:1 3506:1 3542:3 3601:1 3619:4 3684:8 3800:1 3830:1 3945:1 3995:1 4034:4 4052:1 4056:2 4065:2 4118:1 4142:2 4144:1 4182:1 4187:1 4208:1 4254:1 4255:1 4263:1 4412:1 4440:1 4540:1 4664:1 4745:3 4778:2 4788:1 4822:2 4836:6 4850:1 4873:1 4919:3 4927:1 4995:1 5234:1 5411:1 5516:1 5530:1 5535:1 5836:2 5867:1 5982:1 5984:2 6017:2 6074:1 6144:1 6271:1 6323:12 6377:1 6413:1 6480:1 6585:1 6677:1 6834:1 7007:4 7160:1 7288:1 7289:1 7598:1 7675:1 7685:1 7930:1 8315:1 8407:2 8533:1 8610:1 8702:2 8729:1 8768:11 8956:3 9032:3 9057:1 9363:2 9381:3 9517:1 9661:3 10256:2 10272:1 10604:3 10617:2 10889:2 11058:4 11379:14 11601:1 11796:4 11989:2 12273:1 12562:5 13089:2 13831:1 14008:1 14124:2 14211:1 14526:17 14608:1 15085:1 15318:1 15903:2 16052:2 16279:2 16590:1 16723:1 16836:3 17001:1 17219:1 17501:1 17517:1 17655:2 17849:1 18202:2 19514:8 19731:1 19742:1 20041:2 20330:2 20480:1 21209:1 21634:1 22070:1 22161:5 22529:1 22559:1 22775:1 23041:2 23311:1 23844:1 23937:5 24175:1 24253:1 24322:1 24581:1 25022:2 25163:1 25307:2 25429:1 25705:2 26301:1 26358:2 26708:1 26760:1 27572:1 28279:1 29241:1 30766:3 32834:1 34301:2 34966:1 35154:1 37892:2 38412:2 38689:3 42013:1 43633:2 45553:1 45731:2 47330:2 48261:1 48858:2 49305:1 55055:1 58243:1 58296:1 58601:1 60364:1 62051:1 62353:1 64424:1 65728:1 78236:1 81453:1 82819:1 83896:1 #
0.00069061426040465886695002284412226 1:5 2:3 3:2 4:10 6:3 8:1 9:6 10:8 11:1 12:3 13:7 16:11 17:2 21:2 23:4 26:2 29:1 34:1 43:2 46:2 49:2 52:1 53:1 62:1 63:2 69:2 72:1 77:2 79:1 82:1 83:1 84:6 90:1 95:1 98:1 100:2 110:2 120:1 133:2 136:6 144:2 145:2 149:2 152:1 156:2 191:1 199:2 223:2 227:1 231:2 232:1 236:1 252:1 283:1 286:1 372:1 388:2 446:1 482:1 505:1 517:1 532:1 658:2 706:1 763:1 849:8 1108:4 1168:1 1276:1 1432:1 1491:2 1692:1 1889:3 2186:1 2336:1 2396:1 2709:1 2813:2 4264:1 5882:1 6262:1 6415:1 6516:2 8887:1 9119:2 21844:1 28683:3 31427:1 36908:2 67705:1 #
-0.0012658871448739921882625791837995 1:22 2:9 3:6 4:14 5:9 6:4 7:2 8:11 9:4 10:1 11:5 13:10 14:2 15:4 16:1 17:3 18:1 20:1 23:4 24:2 25:2 27:2 29:1 30:2 31:2 32:1 34:1 37:1 39:1 40:2 41:1 42:1 44:2 45:1 50:4 51:1 52:1 53:1 54:1 55:1 57:2 59:2 60:1 61:1 62:3 65:1 70:1 71:2 73:2 74:1 76:1 79:1 81:2 82:1 84:2 85:1 86:1 98:1 99:2 100:1 107:1 109:1 110:1 112:2 113:2 115:1 117:1 146:2 151:1 170:1 175:1 179:1 180:1 181:1 184:1 204:2 206:1 217:1 225:1 230:1 233:1 237:1 267:1 275:1 277:2 295:1 298:1 306:1 312:1 324:2 326:1 332:1 333:1 335:1 342:2 349:1 356:1 361:1 365:1 403:1 408:1 432:1 443:1 512:1 534:2 537:1 554:1 571:1 572:1 578:1 598:1 606:1 620:1 641:1 646:2 664:1 724:1 769:1 783:1 799:1 830:1 844:3 860:1 870:1 872:1 874:1 887:1 890:1 892:1 904:1 958:1 994:1 1041:1 1079:2 1139:1 1141:1 1167:1 1184:1 1201:1 1276:1 1321:1 1326:1 1338:1 1368:1 1373:1 1408:1 1435:1 1457:1 1465:1 1521:1 1545:1 1546:1 1579:1 1625:1 1655:1 1888:1 1908:1 1914:1 1941:1 1961:1 1962:1 1977:1 1985:3 1988:1 2147:1 2223:1 2305:1 2328:1 2347:1 2545:1 2603:1 2774:1 2792:1 3126:1 3163:1 3169:1 3246:1 3260:1 3456:1 3513:1 3522:1 3575:1 3580:1 3637:1 3677:1 3745:1 4134:1 4760:1 4765:1 5204:1 6297:1 6416:1 6537:1 6871:1 7136:1 7147:1 7252:1 7368:1 7961:1 8325:1 8670:2 8754:1 8873:1 9501:1 10213:1 10753:1 10793:1 10844:1 11545:1 12146:1 12204:1 12505:1 12523:1 12789:1 13105:1 13186:1 13216:1 13268:1 13980:2 14686:1 14951:1 14954:2 15191:1 15409:1 16284:1 17446:1 19364:1 19614:1 19729:1 20554:1 22893:1 23225:1 23706:2 27169:1 27283:1 27999:1 30078:1 31265:1 32296:1 32898:1 36385:1 37802:1 37875:1 38531:1 38551:1 39376:1 40380:1 40820:1 52437:1 58850:1 65378:1 68068:1 71456:1 76806:1 87224:1 #
-0.0012658871448739921882625791837995 1:4 2:1 3:6 4:2 5:4 7:5 8:4 9:8 11:4 12:4 14:1 16:3 17:9 19:3 20:1 22:4 23:2 24:3 26:2 27:1 29:1 30:1 34:1 36:1 37:4 38:1 41:3 45:1 48:1 49:3 51:2 55:2 61:1 62:2 63:1 65:2 66:1 69:1 73:2 77:1 78:1 80:1 83:1 84:2 85:2 97:3 100:3 110:1 113:1 115:1 116:2 118:1 127:1 128:1 137:2 140:2 141:1 144:2 150:1 151:1 155:2 161:3 165:2 167:1 171:1 178:1 184:1 196:1 214:2 217:1 221:2 222:2 226:1 233:1 234:1 256:1 261:1 266:1 267:1 273:1 283:1 313:1 328:1 376:1 380:1 391:1 392:1 413:1 414:1 422:1 427:1 452:1 475:1 498:1 500:1 518:1 536:1 587:1 629:1 630:1 634:1 657:1 767:2 786:1 787:1 807:1 809:1 848:1 1135:1 1157:1 1435:3 1446:1 1769:1 1774:1 1782:1 1837:1 1895:1 2191:1 2266:1 2424:1 2559:1 2667:1 2856:1 2907:1 3169:1 3455:1 4084:1 4264:1 5197:1 6128:1 6457:1 9979:1 10707:1 11721:1 12830:1 13712:1 28475:1 31347:1 #
-0.0012658871448739921882625791837995 1:4 2:1 7:1 9:3 12:1 13:2 14:1 28:4 31:1 32:1 46:1 47:2 66:1 67:1 88:1 94:1 98:1 133:1 145:1 231:1 270:1 361:1 403:1 1156:1 1163:1 2291:1 2660:1 5176:1 6851:1 67004:1 #
0.00087345296915539182881771385069669 1:15 2:13 3:3 4:3 5:6 6:2 7:2 8:3 13:5 15:3 17:1 18:1 19:1 20:1 22:1 23:3 24:1 25:1 31:1 32:1 33:1 34:1 36:1 37:1 39:1 44:1 57:1 61:1 64:2 72:1 81:1 82:1 88:1 90:1 92:1 135:1 138:1 144:1 149:1 153:1 158:2 163:1 165:1 173:1 174:1 180:1 182:1 185:1 190:1 197:2 210:2 221:1 231:1 248:1 354:1 381:1 387:1 396:1 418:1 430:1 443:1 455:1 479:1 493:2 555:1 564:1 569:1 664:1 712:1 784:1 807:1 829:5 852:1 873:1 877:1 880:1 931:1 1012:1 1029:1 1080:3 1145:1 1150:1 1278:2 1330:1 1399:1 1422:2 1482:4 1516:1 1536:1 1561:2 1687:1 1729:1 1953:1 2002:1 2022:1 2043:1 2080:1 2301:1 2861:1 2941:1 2982:2 3006:1 3030:1 3076:2 3087:2 3163:1 3203:2 3334:1 3751:1 3767:1 3891:1 4446:3 4612:1 4809:3 4879:1 5628:1 5699:2 5753:1 5794:1 5870:1 5928:1 5979:1 6334:2 6960:1 6970:1 6984:2 7185:1 7219:1 7630:1 8428:1 8588:1 9028:1 9042:4 9146:2 9781:2 9806:1 10628:1 10849:1 10905:1 12351:1 12411:1 12609:1 12715:1 13344:1 15135:1 15773:1 16443:1 16522:2 18044:1 18437:1 20459:1 21168:2 21913:2 23674:1 26824:2 29345:1 29458:1 33370:1 36303:1 50152:1 56391:1 58152:1 #
0.0012658871448739921882625791837995 1:5 2:1 3:5 4:7 5:1 6:5 8:4 9:1 10:4 12:2 14:2 15:3 16:1 17:1 19:1 22:2 24:3 25:1 27:3 31:1 32:1 33:1 34:1 37:1 38:1 40:1 42:1 45:1 47:1 49:1 62:1 63:1 72:2 76:2 84:1 86:1 87:1 92:1 97:1 98:2 100:1 103:1 105:1 108:1 125:1 136:1 146:1 155:1 165:1 189:1 190:1 198:1 206:1 208:1 209:1 211:1 220:1 224:3 261:1 284:1 285:1 289:1 290:1 312:1 321:1 322:1 328:1 385:1 438:1 440:1 442:2 467:1 636:1 733:2 904:1 982:3 1077:1 1142:1 1261:1 1369:2 1398:1 1420:1 1471:1 1599:2 1937:1 2100:1 2285:1 2460:1 2514:1 2587:1 2603:1 2776:1 3358:1 3771:1 3948:1 3970:1 5533:1 6139:1 6712:5 7908:1 14640:1 28485:1 31218:1 33070:1 66869:1 73271:1 #
-0.0012658871448739921882625791837995 1:5 2:4 4:5 5:7 7:4 9:4 10:1 11:4 12:1 13:1 15:4 17:1 18:1 19:1 23:1 25:2 26:1 27:1 32:1 40:2 42:2 48:1 50:1 53:1 64:1 69:2 73:1 80:1 83:1 89:1 98:1 102:1 105:1 107:2 108:1 127:1 132:1 143:1 163:1 198:1 233:1 234:1 260:1 319:1 334:1 373:1 397:1 401:1 410:2 444:1 612:1 710:1 938:1 1067:1 1084:1 1159:1 1273:1 1285:1 1310:1 1353:1 1485:1 1751:1 1802:1 1943:1 2094:1 2120:1 2307:1 2768:1 2803:1 2965:1 3077:1 3148:1 3656:1 3746:1 4432:1 4489:1 5278:1 7562:1 8577:1 9352:1 12977:1 13540:1 13697:1 14616:1 14797:1 23039:1 35713:1 #
-0.0012658871448739921882625791837995 1:62 2:21 3:23 4:41 5:22 6:15 7:14 8:18 9:2 10:4 11:8 12:5 13:9 14:8 15:11 16:3 17:5 18:5 19:4 20:1 21:3 22:3 23:1 24:7 25:5 26:5 27:5 29:1 30:2 31:4 32:4 33:2 34:1 35:2 36:2 37:3 38:1 39:2 40:6 41:1 42:2 44:3 45:4 48:1 50:2 51:3 53:3 54:1 55:1 56:1 57:3 59:1 60:2 61:1 62:1 64:9 66:2 67:1 68:1 71:1 73:2 74:2 77:2 78:1 79:1 81:1 82:1 86:1 88:3 91:2 94:1 97:2 98:1 99:1 103:1 104:1 105:3 106:1 109:2 111:1 114:1 116:3 123:2 125:1 126:1 128:1 130:1 131:1 133:6 135:1 136:1 137:1 140:1 142:1 145:1 150:1 152:1 158:1 160:2 161:2 167:1 168:1 171:2 172:1 174:1 175:1 182:3 186:1 188:6 190:2 192:3 195:1 197:1 201:5 205:1 207:1 209:3 212:1 213:2 215:1 216:1 220:1 225:1 229:1 233:3 235:1 236:3 240:1 243:1 249:1 253:1 255:1 261:1 263:1 287:1 293:1 294:1 297:1 302:1 309:1 314:1 321:3 322:1 325:1 336:1 343:1 349:1 352:1 357:1 358:3 365:1 366:1 382:9 385:1 386:1 393:2 412:1 421:1 426:2 429:1 430:1 439:1 461:1 479:1 499:1 514:2 523:2 538:1 542:1 569:1 573:1 578:1 596:1 604:1 608:1 610:1 624:2 627:2 643:1 647:1 651:1 664:1 665:1 679:1 681:1 682:1 683:1 696:1 711:1 730:1 744:2 751:1 753:1 805:1 810:1 816:1 821:2 836:1 849:2 852:1 856:1 862:1 870:1 872:1 873:1 874:1 902:1 915:1 918:1 927:1 928:1 953:1 988:1 989:1 990:1 994:1 1009:1 1040:1 1045:2 1049:1 1050:1 1054:2 1119:2 1129:1 1155:2 1168:1 1170:1 1182:1 1184:1 1190:1 1211:1 1249:1 1350:1 1437:1 1501:1 1504:1 1513:2 1525:1 1528:1 1591:1 1601:1 1605:1 1609:1 1629:1 1648:1 1703:1 1744:1 1802:1 1846:1 1875:5 1882:1 1894:1 1951:1 1958:1 1968:1 1995:1 1996:2 2027:1 2038:1 2093:5 2177:2 2206:1 2214:1 2238:1 2318:1 2361:2 2370:1 2394:1 2424:1 2540:1 2580:1 2665:1 2730:1 2748:1 2755:1 2757:1 2836:1 2860:1 2884:1 2885:1 2972:1 2973:1 3064:1 3071:2 3340:2 3351:1 3393:1 3410:2 3435:1 3463:1 3499:1 3512:2 3626:1 3656:1 3916:1 4006:1 4090:1 4109:1 4220:1 4368:1 4379:1 4388:1 4417:3 4425:1 4754:1 4872:1 4881:1 4930:1 4993:1 5087:1 5307:1 5331:1 5384:1 5387:1 5419:1 5543:1 5573:1 5764:1 5777:1 5851:1 5957:1 6028:1 6078:1 6108:1 6224:1 6293:1 6708:1 6711:1 6729:1 6736:1 6750:1 6954:1 7008:1 7250:1 7277:1 7391:1 7430:1 7437:1 7452:1 7556:1 7589:1 7656:5 7658:3 7709:1 7861:1 7935:1 8086:1 8302:1 8345:1 8556:1 8593:1 8779:1 8787:1 8828:1 9035:1 9131:1 9158:1 9180:1 9407:1 9771:1 9797:1 9837:1 9961:1 10040:1 10159:1 10442:4 11084:1 11123:3 11497:1 11570:1 11689:1 11784:2 12099:1 12314:1 12333:1 12722:1 12941:1 13010:1 13146:1 13961:1 14266:1 14293:1 14385:1 14651:1 14673:1 14863:1 14864:1 14950:1 15285:1 15400:1 15916:1 15971:1 16554:2 16852:1 17146:1 17254:1 17755:1 17810:1 17824:1 17829:2 18378:1 18690:1 18773:1 19385:1 19407:1 19480:3 19491:1 19811:4 20550:1 21746:1 21752:1 21960:1 22127:1 22220:1 22405:1 22604:1 22827:1 22967:1 23197:1 24162:1 25613:1 25878:1 25918:1 26856:1 27023:1 27297:1 27861:1 29978:1 30199:1 30777:1 31118:1 32760:1 33006:2 33754:1 34315:1 34594:1 35047:1 37383:1 37847:1 40875:2 58286:1 62425:1 67158:1 67895:1 71238:1 77540:1 78429:1 #
-0.0012658871448739921882625791837995 1:6 2:6 3:14 4:3 5:8 6:5 7:17 8:4 9:10 10:6 11:4 12:4 13:3 14:1 15:2 16:4 17:5 19:2 20:4 21:5 23:2 24:1 25:4 26:4 27:3 30:3 32:3 33:1 35:1 36:3 38:2 39:4 40:4 41:1 42:3 43:4 47:3 49:1 51:1 54:2 55:1 58:1 60:1 61:1 64:1 67:1 69:2 76:1 77:3 79:1 80:1 81:1 83:2 84:1 86:1 88:1 90:2 94:1 103:1 104:1 106:1 107:1 108:1 117:1 121:2 123:1 126:1 134:1 135:1 139:1 140:1 144:2 145:1 147:1 148:1 149:1 155:1 160:1 162:3 163:1 166:1 169:1 176:1 186:1 189:1 198:1 205:1 206:1 208:1 213:2 217:2 223:1 229:2 231:1 232:1 234:2 237:1 242:2 243:1 256:1 264:1 267:2 274:1 275:1 293:1 343:1 379:1 386:1 417:1 432:1 457:1 472:1 491:1 503:1 508:1 515:2 524:1 536:1 537:1 546:1 571:1 657:3 664:1 666:2 682:1 699:1 702:1 708:1 717:2 758:2 766:1 832:1 858:1 896:2 919:1 950:1 968:1 1005:1 1033:1 1108:2 1179:1 1224:1 1283:1 1294:1 1360:1 1369:1 1447:1 1451:1 1519:1 1526:1 1532:1 1544:1 2227:1 2370:1 2402:1 2408:1 2455:1 2633:1 2688:1 2716:1 2728:1 2741:1 2789:1 2949:1 3138:1 3159:1 3715:1 3845:1 3854:1 3920:1 3940:1 4264:1 4395:1 4427:1 4841:1 4878:1 5491:2 6500:1 7425:1 7464:1 8964:1 9970:1 10589:1 12715:1 13764:1 13949:1 15220:1 18204:1 27434:1 30040:1 33007:1 58448:1 60587:1 62648:1 74650:1 84363:1 #
0.0012658871448739921882625791837995 1:1 2:4 3:4 4:1 5:1 6:3 7:4 10:4 11:4 15:2 16:5 17:1 18:1 19:1 20:2 21:7 23:1 25:2 26:1 27:2 37:2 38:1 42:1 43:4 44:2 46:1 48:1 49:1 50:1 56:1 63:1 71:1 74:1 77:1 79:1 83:1 98:1 107:1 108:1 113:1 122:1 170:1 177:1 198:1 211:1 239:1 279:1 286:1 313:1 320:1 380:1 438:1 456:1 463:1 570:1 616:1 617:1 618:1 658:1 681:1 743:1 858:1 909:1 968:1 1004:1 1067:1 1308:1 1314:1 1543:1 2100:1 2329:1 2355:1 3057:1 3275:2 4648:1 6671:2 13458:1 15464:1 40997:1 #
0.0012658871448739921882625791837995 1:2 2:6 4:1 5:1 6:5 7:2 8:2 9:2 10:4 12:1 13:1 15:3 16:5 17:2 18:1 20:1 22:1 23:1 25:4 26:1 40:3 42:1 48:1 49:2 50:1 56:1 61:1 62:1 74:2 80:1 84:2 91:1 96:3 101:1 113:1 114:1 140:1 167:1 182:1 220:1 221:2 241:1 254:1 261:1 301:1 315:1 317:1 336:1 337:1 341:1 345:1 360:1 403:1 412:1 427:1 468:1 554:1 602:1 611:1 668:2 721:1 794:1 871:2 873:1 880:1 915:1 1081:1 1188:1 1239:1 1312:1 1356:1 1543:1 1565:1 1799:1 2845:1 3022:1 4137:1 4140:1 4393:1 5166:2 5345:1 5700:1 6364:1 6825:1 7531:1 7595:1 11031:1 11134:1 11193:2 11365:1 12669:1 12719:2 13582:1 18319:1 26138:2 30125:1 35479:1 36559:1 46961:1 47288:1 56533:1 61671:1 69743:1 82454:1 #
-0.0012658871448739921882625791837995 1:7 2:1 3:3 4:5 5:1 6:4 8:1 10:2 11:2 14:3 15:1 16:2 17:2 19:1 21:2 23:1 26:1 27:2 28:1 30:1 31:3 32:1 33:1 42:1 51:2 56:2 58:1 61:1 71:1 77:1 79:1 86:1 93:2 99:1 102:1 124:1 128:1 131:1 141:1 145:1 152:1 159:1 169:1 182:2 204:1 206:1 243:1 304:1 340:1 349:1 357:1 396:1 440:1 469:1 714:1 716:1 720:1 722:2 938:1 1045:1 1218:1 1518:1 1595:2 1616:1 2049:1 2066:1 2090:1 2355:1 2471:1 2504:1 2511:1 2676:1 2740:1 2877:1 3400:1 3446:1 3720:1 4692:1 5182:1 5313:1 7000:1 10041:1 10570:1 11008:1 12352:1 13631:1 14911:1 15152:1 18744:1 67763:1 84323:1 #
0.0012658871448739921882625791837995 1:22 2:11 3:7 4:5 5:7 6:7 7:12 8:4 9:3 10:2 11:7 13:3 14:2 15:1 17:2 19:2 20:2 21:1 25:2 26:4 28:4 29:2 30:2 34:5 36:2 38:2 41:6 45:1 46:2 47:1 48:2 51:1 54:3 55:1 56:1 57:1 59:2 67:1 70:2 72:1 75:3 79:1 81:1 82:1 83:1 95:1 101:1 102:1 106:1 110:1 112:1 115:1 119:5 121:1 127:1 129:3 132:1 134:1 135:2 136:1 139:1 142:1 143:3 149:1 150:2 158:1 160:1 161:1 168:1 169:1 171:1 173:1 174:1 177:1 178:1 183:1 186:2 187:1 204:1 205:1 207:1 209:1 218:1 221:2 242:3 256:1 262:1 266:2 276:1 277:1 280:1 284:1 288:1 290:1 320:1 343:1 347:1 349:1 406:1 408:5 411:2 425:1 427:1 463:1 472:1 544:1 619:2 623:1 630:1 689:1 722:1 731:1 745:1 760:1 767:1 806:1 819:1 851:1 856:1 921:1 941:1 956:1 971:2 1144:1 1212:3 1215:1 1217:1 1234:1 1251:1 1263:1 1295:1 1559:1 1574:1 1851:1 2092:1 2219:2 2685:1 2801:1 3067:1 3112:1 3290:1 3323:1 3369:1 3679:1 3739:1 3771:1 3892:1 4025:1 4037:1 4613:3 4687:1 5305:1 5309:1 5760:2 5800:1 7142:1 7477:1 7488:1 7754:1 7858:1 8981:1 10072:1 12127:1 16863:1 16919:1 17434:1 21361:1 23239:1 38486:1 55740:1 77774:1 #
-0.0012658871448739921882625791837995 1:16 2:5 3:8 4:1 5:13 6:9 7:1 8:6 9:5 10:3 11:3 13:3 15:1 16:2 17:3 18:2 20:4 22:6 23:1 24:7 25:4 26:3 27:2 31:2 38:1 44:3 48:1 49:2 50:1 51:1 53:3 58:2 60:1 65:2 67:1 71:1 75:1 78:1 85:1 87:1 95:1 96:1 97:1 99:1 100:1 104:1 105:1 108:2 116:2 121:1 122:1 129:1 132:1 137:3 159:1 160:1 171:1 176:1 181:1 185:1 187:1 189:1 196:1 204:1 222:1 232:1 234:2 237:1 241:1 242:1 243:1 249:1 294:1 301:1 323:1 340:1 350:1 372:1 383:1 390:1 393:1 397:1 429:1 445:1 481:1 497:2 503:1 509:1 511:1 540:1 592:1 602:1 607:1 638:1 679:1 781:1 832:1 934:1 944:2 954:1 995:1 1001:2 1039:1 1059:1 1083:1 1145:1 1276:1 1278:1 1292:1 1396:2 1591:3 2002:2 2011:1 3239:1 3944:1 4187:1 4388:1 4799:1 6130:1 6635:2 6735:1 7434:1 7656:1 7810:1 9281:1 9976:1 10560:1 15508:1 19205:1 22503:1 23690:1 84028:1 #
-0.0012658871448739921882625791837995 1:55 2:38 3:26 4:35 5:20 6:24 7:6 8:16 9:9 10:6 11:13 12:4 13:10 14:3 15:3 16:4 17:13 18:1 19:1 20:10 21:3 22:9 23:7 24:7 25:5 26:4 27:4 29:1 30:5 31:5 32:3 33:2 34:5 35:4 36:7 37:2 38:3 39:4 41:1 43:3 44:2 45:7 46:1 49:3 50:3 51:1 52:1 53:1 54:1 55:1 56:3 58:1 59:2 60:7 62:1 64:2 65:1 66:2 67:1 69:1 70:2 71:8 72:1 73:2 74:3 77:3 79:6 80:1 82:2 84:1 85:2 88:2 91:2 92:1 93:1 95:1 96:3 97:1 98:2 99:1 100:1 102:1 103:4 104:2 107:7 109:2 111:2 113:1 115:2 117:1 118:3 119:2 120:1 121:5 122:1 124:1 127:2 128:1 131:2 132:1 133:4 135:2 136:4 145:1 153:1 156:1 158:1 160:1 162:2 163:3 172:1 173:1 180:1 185:1 195:2 197:1 199:1 200:1 201:1 204:1 213:1 217:2 219:2 220:1 222:3 226:1 228:1 229:1 230:2 231:3 237:1 240:2 244:1 246:2 247:1 255:1 257:1 258:1 265:1 272:1 278:1 285:2 286:2 289:3 294:2 295:1 296:2 298:1 301:1 302:2 303:2 304:2 306:1 310:1 317:2 323:3 326:2 327:1 329:1 340:1 346:2 360:2 368:1 379:2 381:1 393:1 398:3 404:1 408:2 412:1 420:1 423:2 455:1 457:2 462:1 467:1 470:2 472:1 474:1 485:1 490:1 491:1 499:1 501:1 503:2 521:1 527:1 546:1 553:2 554:1 560:1 567:1 570:1 573:1 591:1 606:1 621:1 623:1 631:9 636:2 644:1 658:1 667:3 669:1 691:1 698:1 720:1 753:1 778:1 779:2 790:1 794:1 861:2 871:1 891:17 898:1 905:1 918:1 939:1 946:1 953:1 960:1 967:2 968:1 982:1 985:1 987:1 1000:1 1002:1 1007:1 1036:1 1038:1 1041:1 1063:1 1074:1 1098:1 1136:1 1148:1 1159:1 1161:1 1162:3 1177:1 1204:3 1231:1 1242:1 1252:2 1268:2 1293:1 1313:1 1317:1 1397:1 1398:6 1402:1 1406:1 1411:1 1473:1 1476:1 1489:1 1516:1 1545:1 1565:3 1604:1 1608:1 1609:1 1628:1 1657:1 1660:1 1689:1 1723:1 1744:1 1784:1 1790:1 1795:1 1856:1 1865:1 1889:1 1903:1 1934:1 1938:1 1991:1 1995:2 1997:2 2003:1 2016:1 2020:1 2021:1 2057:1 2065:1 2092:1 2110:1 2154:1 2244:1 2266:1 2280:1 2322:1 2330:1 2504:2 2516:1 2537:2 2553:1 2639:1 2672:1 2732:1 2766:1 2867:1 2936:1 2946:1 2966:12 3054:1 3061:1 3070:2 3119:1 3131:1 3167:2 3236:1 3395:1 3501:1 3515:1 3664:1 3748:7 3859:1 3863:2 3974:1 4090:1 4149:1 4217:1 4248:3 4251:1 4277:1 4375:1 4387:1 4417:1 4420:1 4547:1 4591:1 4651:1 4716:1 4812:1 4820:1 4987:3 5027:1 5219:1 5864:1 6031:1 6199:1 6263:1 6357:1 6445:1 6577:1 6627:1 6841:1 6864:1 6991:2 6997:1 7135:1 7875:1 7921:1 8630:1 8909:1 8968:1 9265:1 9414:1 9425:1 9943:1 10017:1 10260:1 10544:1 10552:1 10815:1 10880:1 10965:1 11133:1 11151:1 11568:1 12101:1 12184:1 12203:1 13669:1 14256:1 14292:1 14580:1 14755:1 15176:1 15331:1 15697:1 15768:1 16195:1 16374:2 16437:1 16458:1 16810:1 17034:1 17054:1 19318:1 19392:1 19719:1 19950:1 20235:1 22511:1 23089:1 23352:1 27274:1 27475:1 28928:5 28931:1 29271:1 29513:1 32832:1 34186:1 35046:1 35567:1 36581:1 37364:1 37961:1 38100:1 39402:2 44253:2 58168:1 84738:1 84915:1 87007:1 #
0.0012658871448739921882625791837995 1:1 2:2 3:5 4:7 5:7 6:8 7:3 8:2 9:1 10:6 11:1 13:3 14:1 16:2 17:1 18:1 20:1 21:3 23:1 28:1 29:1 32:1 38:7 43:1 44:1 45:1 49:1 50:1 51:1 59:1 70:1 72:1 73:1 91:1 97:1 107:1 112:1 115:1 130:1 135:1 174:1 177:1 251:1 257:1 263:1 305:1 361:1 363:1 405:1 409:1 462:1 464:2 515:1 517:1 521:1 602:1 623:1 690:1 744:3 803:1 830:1 840:1 859:1 905:1 909:1 955:1 1033:1 1085:2 1088:2 1154:1 1401:1 1555:1 1880:1 2031:1 2187:1 2313:1 2409:1 2532:1 2805:1 3639:1 4819:1 6298:3 8938:3 10204:1 12682:1 12966:1 26136:1 39086:1 42303:1 58777:1 #
-0.0012658871448739921882625791837995 1:1 2:1 3:2 4:1 5:1 7:1 8:1 13:4 15:1 23:1 26:1 32:1 33:2 34:1 42:1 46:1 47:1 50:1 54:1 57:1 64:1 72:1 78:1 81:1 96:1 106:1 130:1 131:1 186:1 193:1 208:1 257:1 409:2 486:1 488:1 572:1 690:1 837:1 1386:1 1417:1 1496:1 2080:1 2135:1 2872:1 3109:1 3219:1 3266:1 3340:1 5400:1 5470:1 5695:1 10248:1 14101:1 15586:1 19526:1 21478:1 21529:1 80884:1 #
0.0012658871448739921882625791837995 1:18 2:13 3:6 4:9 5:14 6:9 7:3 8:10 9:9 10:14 11:11 12:4 13:6 14:9 15:3 16:7 17:5 18:2 20:4 21:10 22:6 24:7 25:6 26:5 27:2 29:1 30:2 32:3 33:1 36:2 37:3 38:1 40:4 41:2 42:2 43:7 44:1 48:1 49:2 50:4 54:3 55:4 56:1 57:2 58:1 59:1 60:1 61:3 63:2 64:1 65:1 68:2 71:2 73:1 75:1 80:3 83:2 85:1 87:3 88:1 89:1 91:1 92:4 93:1 97:1 98:1 101:3 103:3 104:1 105:1 108:2 110:4 111:1 115:1 116:2 119:1 121:1 122:1 123:5 126:2 140:1 143:2 145:1 146:1 148:2 158:1 159:1 161:3 163:1 165:1 168:1 171:1 174:3 183:1 190:2 193:2 196:1 197:1 202:2 208:1 212:1 222:1 229:2 230:3 246:1 251:2 252:1 253:1 256:1 265:2 267:1 277:3 284:1 311:1 318:3 320:1 325:1 334:1 335:1 341:1 343:1 348:2 355:1 358:1 368:1 370:1 372:1 378:1 390:2 393:2 397:1 401:1 420:1 433:1 435:1 450:1 451:1 462:2 482:1 508:1 510:1 513:1 544:1 570:1 599:1 601:1 602:1 620:1 633:1 663:1 670:1 673:1 697:2 708:1 709:1 716:4 717:1 723:1 727:2 731:1 737:1 779:1 788:2 798:1 837:1 881:2 933:1 936:1 950:1 953:1 961:1 970:1 1005:1 1016:1 1077:2 1094:1 1101:1 1167:1 1168:1 1223:1 1244:1 1275:1 1290:1 1326:1 1341:1 1345:1 1413:1 1461:1 1475:1 1485:1 1517:1 1541:1 1550:1 1665:1 1682:1 1713:1 1771:1 1862:1 1943:1 1956:2 2090:1 2175:1 2234:1 2250:2 2329:1 2398:2 2480:1 2534:1 2556:1 2577:2 2593:1 2610:2 2672:1 2709:1 2722:2 2726:1 2766:1 2895:1 2944:6 2945:1 2973:1 2980:1 3078:1 3085:3 3128:1 3399:1 3437:1 3564:1 3704:1 3775:2 3777:1 4228:1 4543:1 4569:1 4733:1 4921:1 5207:1 5280:1 5372:1 5864:1 5947:1 6126:2 6467:1 6502:2 6593:1 6879:1 7003:2 7028:1 7150:1 7282:1 7359:1 7753:1 8213:2 8515:1 8597:1 8789:1 9912:1 9954:1 10421:1 10572:1 11602:1 11935:2 11995:1 12738:1 14571:1 14655:1 15426:1 17808:1 18323:1 18328:1 19191:1 19488:1 21592:1 22409:1 22875:1 23814:1 39516:1 40878:1 43640:1 58745:1 58795:1 72690:1 79832:1 80522:1 81774:1 #
0.0012658871448739921882625791837995 1:39 2:19 3:13 4:16 5:17 6:5 7:6 8:8 9:4 10:5 11:5 12:2 13:2 14:4 15:5 17:4 19:7 20:3 21:1 23:4 25:1 26:1 27:2 29:3 30:1 31:6 32:4 33:1 34:5 35:4 38:1 40:1 41:2 42:2 43:2 45:2 46:1 48:2 50:4 53:1 54:1 55:1 56:1 57:2 60:1 62:2 64:9 68:3 69:3 70:1 71:2 74:1 76:6 83:1 91:1 92:1 94:3 96:2 99:1 102:1 104:1 114:1 120:1 127:1 131:2 132:1 137:2 138:1 141:2 142:1 144:1 146:1 147:1 154:1 157:1 158:1 170:2 182:1 186:1 191:4 192:1 197:4 202:1 225:1 235:1 236:1 249:1 268:1 272:1 281:1 287:1 289:1 319:1 321:1 327:1 332:1 335:1 342:1 367:1 370:1 383:1 384:1 386:1 392:1 398:2 409:3 410:1 417:1 422:1 442:4 443:1 451:1 469:2 470:1 473:1 478:1 480:1 489:1 491:1 511:2 514:3 566:1 577:1 620:2 631:2 636:1 648:1 688:1 747:2 773:2 774:2 789:1 795:2 823:1 827:1 843:3 846:1 847:1 915:3 918:1 947:1 1020:1 1031:1 1084:1 1131:1 1221:1 1249:1 1252:1 1282:1 1397:1 1501:1 1502:1 1506:1 1508:1 1570:1 1680:1 1719:1 1966:1 1986:1 1989:1 2070:2 2088:1 2104:1 2192:1 2203:1 2222:1 2282:1 2390:1 2751:2 2768:1 2819:1 2838:1 2979:1 3109:1 3222:1 3257:2 3462:2 3677:1 3705:1 3897:1 3928:1 3992:1 4060:1 4132:2 4444:1 4529:1 4726:1 4799:1 4847:1 4878:1 4909:1 5607:1 5929:2 5933:2 6186:1 6362:1 6402:1 6410:1 6548:1 6674:4 6786:2 6860:1 6923:1 7154:1 7251:1 7295:1 7315:1 8015:1 8125:1 9107:1 9229:1 9645:1 9911:2 10115:1 10368:1 11461:1 11616:1 12096:1 12290:2 12611:1 13498:1 16484:1 16867:1 17113:3 17690:1 18032:1 18127:1 18214:1 18727:1 20344:1 20848:1 21004:1 21470:1 21515:1 22716:1 25744:3 25930:3 29471:1 31272:1 33932:1 33945:1 34022:1 35242:1 38330:1 41385:1 41481:1 45072:1 67118:1 72379:1 74961:1 87598:1 #
0.0012658871448739921882625791837995 1:10 2:7 3:4 4:3 5:6 7:1 8:2 10:1 11:2 12:5 13:1 15:1 17:1 19:2 20:1 27:2 29:2 31:1 35:1 40:1 46:1 50:2 64:1 66:1 68:1 71:2 72:2 77:1 79:1 81:1 85:1 93:1 94:1 99:1 105:1 113:1 127:1 132:1 151:2 154:1 157:1 187:1 191:1 279:1 288:1 292:2 344:1 353:1 365:1 375:1 396:1 437:1 555:1 560:1 616:1 624:1 691:1 705:1 736:1 741:2 789:1 846:1 882:1 990:2 1060:1 1069:1 1194:1 1219:1 1238:1 1285:1 1386:1 1390:1 1391:1 1481:1 1482:1 1531:1 1536:1 1889:1 1904:1 1920:2 2307:1 2516:1 2851:1 3182:1 3706:1 3996:1 4382:1 5619:1 6061:1 7720:1 7996:1 9506:1 12936:1 14870:1 17423:1 20412:1 20832:1 31368:1 31997:1 88013:1 #
-0.0012658871448739921882625791837995 1:3 2:1 3:2 4:1 5:5 6:3 7:3 9:2 10:1 14:1 15:1 16:2 20:3 21:4 23:1 26:3 27:1 43:1 51:1 55:1 59:2 68:1 70:2 75:2 78:1 83:2 87:3 88:1 118:1 121:1 124:1 126:1 165:1 167:1 172:1 174:1 178:1 205:3 209:1 210:3 218:1 240:1 252:1 254:1 297:1 343:2 389:1 416:1 473:1 500:2 508:3 509:1 531:3 652:1 745:1 819:1 821:1 876:1 988:1 1051:1 1149:1 1540:1 1558:1 1752:1 2275:1 2470:1 2798:1 2838:1 2889:1 3139:1 3169:1 5381:1 7638:1 11731:1 13021:2 13331:1 15948:1 16527:1 48754:1 #
0.0012658871448739921882625791837995 1:3 2:4 3:4 4:3 5:3 6:1 7:3 8:3 10:3 12:1 14:2 15:1 17:1 18:2 20:1 26:1 29:2 31:1 35:2 38:1 49:2 53:2 60:1 62:1 64:1 75:2 81:1 82:2 85:1 94:1 103:1 113:2 128:1 130:2 147:1 175:1 191:1 192:1 220:1 230:1 244:1 266:1 278:1 441:1 492:1 521:1 586:1 627:1 737:2 763:1 768:2 863:2 1003:1 1067:1 1550:1 2027:1 2552:1 2834:1 3271:1 4837:1 6395:1 8731:2 11307:1 11556:2 #
0.0012658871448739921882625791837995 2:3 3:2 4:2 5:3 6:3 7:5 8:1 9:2 10:3 11:5 12:5 16:1 17:2 25:1 27:1 28:1 37:3 38:2 45:2 46:1 49:1 50:1 53:2 55:1 56:1 68:1 74:1 83:1 90:1 91:1 97:1 100:1 112:1 118:1 136:1 147:2 161:1 163:2 171:1 181:1 190:1 200:2 211:1 228:1 277:1 278:1 284:1 315:1 375:1 381:1 382:1 405:1 412:1 418:1 437:1 454:1 457:1 533:1 581:1 635:1 650:1 969:1 1255:1 1329:1 1381:1 1667:1 1701:1 2033:1 2086:1 2834:1 3346:1 4504:1 5052:1 5937:1 6214:2 13139:1 18126:1 23027:1 37534:1 #
-0.0012658871448739921882625791837995 1:15 2:7 3:10 4:13 5:7 6:4 7:2 8:10 11:3 13:2 14:3 16:1 17:3 18:1 19:2 20:1 21:1 22:2 23:2 24:4 26:1 27:3 29:2 30:3 31:1 33:3 36:1 37:2 40:1 41:1 43:1 45:2 46:1 48:1 51:1 54:1 57:1 60:3 61:1 62:1 63:3 64:2 70:2 71:1 73:1 75:1 79:2 82:1 85:1 89:1 93:1 94:2 103:1 113:1 120:1 124:1 135:1 137:1 139:2 141:1 142:1 147:1 150:1 170:1 177:1 180:1 181:2 184:1 187:1 192:1 201:1 207:1 216:1 217:1 218:1 224:1 225:1 235:1 242:1 246:2 255:1 258:1 262:1 263:1 270:1 275:1 282:1 289:2 290:1 292:1 299:1 301:1 327:1 335:1 377:1 420:1 426:1 448:1 500:1 509:1 528:1 589:1 621:1 622:1 623:1 638:1 678:1 697:1 704:1 714:1 718:1 747:1 751:1 754:1 759:3 773:1 954:1 1038:1 1045:2 1077:1 1237:1 1266:1 1277:1 1312:1 1453:1 1537:2 1646:1 1740:1 1745:1 1795:1 1846:1 1856:2 1952:1 2051:2 2298:1 2360:1 2518:1 2612:1 2622:1 2670:1 2718:1 3039:1 3196:1 3342:1 3421:1 3515:1 3524:1 3569:1 3764:1 4277:1 5075:1 5278:1 6008:1 6591:2 6850:1 7112:1 8330:1 8783:1 9947:2 10140:1 10431:1 11204:1 11744:1 20874:1 26444:1 27260:1 29299:1 45524:1 47887:1 #
-0.0012658871448739921882625791837995 1:4 2:3 3:5 5:3 6:3 7:4 9:6 10:1 11:1 14:1 15:1 16:2 17:2 18:1 19:1 21:5 25:4 27:1 28:8 29:2 32:5 40:1 42:2 43:2 45:1 46:2 53:1 56:1 59:1 66:1 69:1 71:1 72:2 82:1 85:1 88:1 89:2 90:2 94:1 100:1 102:1 108:1 120:2 127:1 129:2 132:1 139:1 140:1 149:1 173:1 223:1 225:1 234:1 244:1 251:1 344:1 372:1 375:1 394:1 399:1 411:1 414:1 467:1 479:1 529:1 584:1 593:1 633:1 642:1 653:1 700:1 754:1 894:1 992:1 1059:1 1222:1 1881:1 2205:1 2343:1 2397:1 2592:1 3116:1 3230:1 3841:4 4166:1 4484:1 4800:1 5790:1 5822:1 14277:1 20483:1 21845:1 50548:1 #
-0.0012658871448739921882625791837995 1:19 2:8 3:8 4:8 5:13 6:7 7:10 8:4 9:7 10:6 11:6 12:3 13:2 14:7 15:3 17:7 18:1 19:6 20:6 21:3 22:3 23:2 24:1 25:5 26:2 27:4 28:12 29:3 30:2 31:3 33:2 36:3 39:3 40:3 41:2 42:1 43:2 46:1 48:1 49:2 50:1 51:3 52:2 53:1 54:1 55:3 56:2 58:1 61:2 63:1 65:1 66:1 69:1 70:1 74:2 77:1 79:1 80:1 82:1 83:1 86:1 88:1 94:1 95:1 100:1 101:1 102:1 103:2 104:1 105:1 106:2 109:1 113:1 115:1 116:1 117:1 118:1 123:2 129:1 132:2 137:2 140:1 141:1 142:2 143:1 144:2 147:1 150:1 151:1 154:1 163:1 165:1 168:2 176:1 181:1 187:1 191:1 192:2 194:2 200:1 202:1 205:1 214:1 217:1 234:1 235:1 242:1 255:1 267:1 273:1 274:1 293:1 298:1 315:1 329:3 336:1 344:2 361:1 362:1 380:2 384:1 392:1 451:1 457:1 467:1 479:2 491:1 496:1 500:1 510:1 515:1 530:1 562:2 574:1 583:1 599:1 603:1 612:1 670:1 687:1 722:2 782:1 803:1 804:1 807:1 820:1 839:1 850:1 852:2 868:1 883:1 901:1 942:1 1005:1 1010:2 1096:1 1186:1 1380:1 1398:1 1437:1 1441:1 1566:1 1579:1 1587:1 1677:1 1770:1 1834:1 1883:1 1898:1 1931:1 1934:1 1967:1 1997:2 2055:1 2203:1 2301:1 2412:1 2580:1 2581:1 2665:1 2758:2 2815:1 2824:1 2826:1 3023:1 3137:1 3204:1 3590:1 3760:1 3820:1 4232:1 4469:1 4631:1 4781:1 5246:1 5289:1 5340:1 5574:1 5708:1 5772:1 6010:1 6023:1 7276:1 7537:1 8058:1 8306:1 8528:1 10248:1 10430:1 11559:1 11995:1 12070:1 12306:1 13716:1 14417:2 14825:1 16303:1 16550:1 16996:1 17517:1 18303:1 20110:2 22272:1 27406:1 29506:1 32695:1 37364:1 39328:1 46512:1 53179:1 #
-0.0012658871448739921882625791837995 1:3 2:2 3:2 4:2 5:2 6:1 7:2 8:1 9:4 10:4 11:1 12:3 13:1 14:2 15:2 17:3 18:1 19:1 22:3 24:1 26:1 30:1 31:1 40:1 42:1 44:1 51:1 58:1 61:1 69:1 73:1 78:1 82:1 92:1 96:1 101:1 124:1 125:1 140:1 143:1 148:2 154:1 157:1 159:1 171:1 204:1 212:1 214:1 251:1 328:1 344:1 352:1 355:1 377:1 422:1 478:1 572:1 574:1 611:1 642:1 957:1 996:1 1174:1 1268:1 1539:1 2032:3 2183:1 2616:1 3403:1 3697:1 5212:1 8826:1 11999:1 14062:1 14787:1 50066:1 #
0.0012658871448739921882625791837995 1:2 2:6 3:3 5:6 6:2 7:4 9:8 10:3 12:2 17:2 22:1 28:1 30:1 34:1 36:2 37:2 40:2 41:2 42:1 43:2 44:1 45:1 46:1 49:2 57:1 58:1 59:3 62:2 63:1 65:2 66:1 70:1 73:1 75:1 78:1 79:1 83:2 86:3 87:1 90:1 96:2 97:2 106:1 111:2 119:2 120:1 137:1 139:1 142:2 143:1 148:2 149:1 163:1 173:1 190:1 193:1 199:1 233:1 246:1 276:1 277:1 287:4 288:1 304:1 314:1 355:1 364:2 366:1 374:1 410:1 425:1 438:2 456:1 488:1 570:1 574:1 602:1 609:1 612:1 635:1 636:1 694:1 766:1 826:1 876:1 929:1 1144:1 1527:1 1536:1 1626:1 1815:1 2068:1 2072:1 2120:1 2408:1 2817:1 2837:1 3511:2 5188:1 5591:1 6610:1 6665:1 6980:1 7394:1 8151:1 10733:1 11151:1 12114:1 12725:1 12865:1 15128:1 17432:1 31652:1 59323:1 #
0.0012658871448739921882625791837995 1:7 2:1 3:5 4:3 5:1 6:2 7:1 9:3 10:1 12:2 16:1 17:1 19:1 21:1 24:1 25:1 29:1 30:1 31:1 36:1 37:1 40:1 41:1 43:2 45:1 46:1 63:1 65:2 68:1 69:1 79:1 81:1 86:1 100:1 108:1 119:1 120:1 128:1 143:1 159:1 173:1 177:1 196:2 206:1 208:1 221:1 232:1 252:1 272:1 320:1 327:1 328:2 329:1 349:1 363:1 410:1 519:1 567:1 583:1 612:1 618:1 627:1 640:1 713:1 743:1 786:1 798:1 825:1 864:1 893:1 913:1 926:1 938:1 1084:1 1142:1 1165:1 1369:2 2338:1 2858:1 3377:2 3600:1 5300:1 5690:1 7784:2 8433:2 16414:2 16918:1 32863:1 58619:1 66499:1 #
0.0012658871448739921882625791837995 1:14 2:9 3:5 4:3 5:5 6:6 7:2 8:7 10:2 12:1 14:1 17:1 19:3 22:1 24:6 25:1 26:1 27:1 28:3 29:2 30:3 31:3 32:1 33:1 34:1 42:1 43:2 45:2 46:2 47:1 48:1 50:1 54:1 57:1 60:1 64:2 65:1 69:1 70:1 71:1 74:1 79:1 80:1 87:1 90:1 91:1 96:1 104:1 105:1 106:1 109:2 116:1 129:1 135:1 143:1 151:1 156:1 164:1 187:1 202:1 227:1 231:1 233:1 238:1 247:1 250:1 315:1 342:1 344:1 350:1 402:1 413:1 419:1 443:1 483:1 512:1 522:1 535:1 536:1 540:1 547:1 616:1 671:1 714:1 720:1 734:1 768:1 799:1 847:1 863:1 955:1 990:1 1006:1 1029:1 1031:1 1076:3 1147:1 1150:2 1169:1 1217:1 1283:1 1387:1 1410:1 1449:1 1489:1 1523:1 1542:1 1653:1 1705:3 1710:1 1717:1 1756:1 1793:1 1813:1 1979:1 2193:1 2205:1 2296:1 2594:1 2676:1 2680:1 2728:1 2917:1 2957:1 2990:1 3113:1 3174:3 3197:1 3208:1 3358:1 3453:1 3830:1 3865:1 3987:1 4045:1 4129:1 4347:1 4481:1 4564:1 4722:1 4918:1 4940:1 5166:1 5466:1 5500:1 5688:1 5721:2 5746:1 6126:1 6368:1 6451:1 6608:1 6759:1 6774:1 7025:1 8359:1 8392:1 8782:1 9277:4 10024:1 11113:2 11293:1 11499:1 11534:1 12390:1 14016:1 14910:1 15166:1 15223:1 15392:1 16102:1 16328:1 17993:1 18214:1 19378:1 22675:1 24314:1 26931:1 28096:1 28404:1 48844:1 55250:1 58635:1 60413:1 63530:1 66020:1 78793:1 81127:1 83273:1 #
-0.0012658871448739921882625791837995 1:11 2:4 3:8 4:3 5:5 6:6 7:4 8:2 9:1 10:2 11:3 12:1 13:2 14:2 15:1 17:2 18:4 19:2 20:1 22:1 23:1 27:1 29:1 30:1 36:2 39:8 44:3 46:1 52:6 53:1 62:1 63:1 74:1 80:1 83:1 87:1 89:1 94:1 97:1 99:1 104:1 113:1 116:1 117:2 128:1 129:1 130:1 139:1 141:1 142:1 143:1 145:1 162:1 164:1 169:3 171:1 173:1 181:1 196:1 204:1 242:1 257:1 259:1 261:1 273:1 276:1 288:1 305:1 335:1 338:1 348:1 374:1 392:1 401:1 411:1 420:1 445:1 476:1 485:1 561:1 699:3 706:1 811:1 828:1 861:1 864:1 968:1 1028:1 1116:1 1162:1 1236:1 1259:2 1429:2 1684:1 1707:1 1750:1 1880:1 2131:1 2224:1 2262:2 2581:1 2821:2 2835:2 2986:1 3404:1 3421:1 3600:1 4714:1 4728:1 4735:2 4890:1 4928:1 5057:3 5748:1 7848:1 11464:1 11880:1 30312:1 33244:1 49620:1 60079:1 #
-0.0012658871448739921882625791837995 1:55 2:26 3:24 4:26 5:20 6:12 7:11 8:16 9:12 10:6 11:4 12:2 13:7 14:5 15:6 16:2 17:9 18:1 19:5 20:4 22:15 23:6 24:4 25:4 26:3 27:5 28:2 29:3 30:6 31:3 32:7 33:1 34:6 35:3 36:5 38:2 40:1 41:2 42:1 44:5 45:3 48:6 49:2 50:2 53:2 54:2 55:2 56:3 57:2 58:1 60:7 61:2 62:2 63:1 64:2 66:2 68:2 71:3 72:5 73:3 74:1 75:2 79:2 80:1 81:2 82:1 83:2 85:1 87:8 90:1 93:2 94:3 95:2 98:3 99:1 101:2 106:1 108:2 109:1 111:2 112:1 113:5 114:1 121:3 123:3 128:1 130:2 131:1 132:1 138:3 139:1 140:2 142:2 143:3 144:1 145:1 148:1 149:1 160:2 164:2 166:1 169:1 171:1 175:1 176:1 179:1 181:1 182:2 183:1 184:5 187:2 192:1 196:1 198:1 200:3 203:1 204:1 209:2 211:1 212:1 217:2 220:2 223:1 225:1 227:1 232:1 240:3 242:2 248:5 252:1 264:1 266:1 269:1 279:1 285:1 288:1 290:2 292:1 299:3 300:1 304:1 305:1 309:1 316:1 321:3 323:1 328:1 335:1 338:1 339:1 347:1 357:2 360:3 363:1 374:2 379:1 385:1 387:2 401:1 413:1 414:2 419:1 421:2 426:1 440:1 442:1 451:2 461:1 471:3 475:2 493:4 495:1 517:2 518:1 533:1 539:1 541:1 545:1 550:2 565:2 572:1 612:1 619:1 642:3 645:2 647:1 651:1 661:1 681:1 688:1 690:1 698:1 702:1 706:1 738:1 752:2 764:2 767:1 797:1 803:1 848:1 914:1 919:1 927:2 933:1 936:1 946:1 960:1 970:1 980:1 1010:1 1019:3 1036:1 1063:1 1071:1 1072:2 1077:1 1086:1 1089:1 1125:3 1137:1 1147:2 1193:1 1254:1 1295:1 1339:2 1342:1 1396:1 1449:1 1450:1 1486:2 1491:3 1530:1 1545:1 1625:1 1628:1 1702:11 1707:1 1731:2 1744:1 1790:1 1801:2 1804:1 1839:1 1851:1 1910:1 1928:1 1959:1 1971:2 2065:1 2066:1 2156:1 2178:1 2187:1 2195:1 2294:1 2308:1 2309:1 2327:1 2381:3 2386:1 2635:1 2673:1 2794:1 2830:2 2843:1 2862:1 2897:1 2921:1 2947:1 2980:1 2996:1 3015:1 3103:1 3115:2 3162:1 3196:1 3242:2 3263:1 3479:1 3488:1 3521:1 3619:1 3625:1 3701:1 3755:2 3855:1 3874:1 4002:1 4148:1 4329:1 4444:1 4461:1 4631:1 4698:1 4782:1 5092:1 5109:1 5131:1 5218:1 5220:1 5289:1 5395:1 5436:3 5974:1 5980:2 6069:2 6140:1 6659:1 6745:1 6818:1 6906:5 6917:1 7368:1 7510:1 7674:1 7785:1 7811:1 7896:1 8645:1 8666:1 8976:1 9029:1 9060:2 9246:1 9416:1 9612:1 9615:1 10784:1 11241:1 11352:1 11510:2 11528:1 12055:3 12266:1 12319:1 12708:1 12844:1 13060:1 14436:1 14956:1 15349:1 15716:1 15877:1 16600:1 17108:1 17252:1 17953:1 18135:1 19152:1 19274:1 20444:1 22005:1 22147:1 23415:1 23825:1 24502:4 25374:1 26049:1 26055:1 28138:2 28304:2 28405:1 29614:2 29828:1 32689:1 32947:1 33188:1 34852:2 37959:1 38994:1 41899:1 43056:1 44415:1 47794:1 50205:1 52309:1 52907:1 55522:1 71690:1 72137:1 74693:1 #
0.0012658871448739921882625791837995 1:3 2:1 3:2 4:1 5:3 6:3 7:1 8:1 9:8 10:4 11:2 12:1 14:1 16:4 17:1 19:2 25:5 31:1 35:2 40:1 41:2 43:2 46:1 48:1 55:1 61:1 66:1 92:1 94:2 103:1 106:1 108:1 122:1 143:1 154:1 160:1 161:2 163:1 167:1 170:1 176:1 207:1 216:1 286:1 338:2 366:2 370:1 379:1 385:2 480:1 484:1 562:4 624:1 734:1 777:1 927:1 968:1 1004:1 1014:1 1650:1 1652:1 1774:1 1801:1 2065:1 2452:1 2965:1 4275:1 5199:1 9531:1 10864:1 13083:1 29822:1 44471:1 86754:1 #
-0.0012658871448739921882625791837995 2:3 3:1 4:1 6:1 7:3 8:1 10:1 13:1 16:1 18:1 20:1 24:1 26:1 32:1 60:1 73:1 90:1 98:1 111:1 141:1 149:1 165:1 192:1 213:1 248:1 252:1 334:1 392:1 641:1 709:1 919:1 993:1 1049:1 1645:1 1748:1 2153:1 2361:1 3114:1 3810:1 4902:1 6165:1 6531:1 7091:1 7536:1 9424:1 10055:1 17022:1 19645:1 22642:1 #
0.0010575873364065792661681264519302 1:60 2:15 3:32 4:35 5:30 6:19 7:10 8:11 9:8 10:5 11:15 12:16 13:14 14:8 15:8 17:7 18:14 19:6 20:8 22:6 23:2 24:13 25:11 26:7 27:6 29:2 30:6 31:2 32:2 33:3 35:3 36:1 37:1 38:1 41:2 42:4 43:2 44:2 45:1 46:1 48:3 49:2 50:6 51:2 54:3 56:2 57:1 58:1 59:5 60:4 61:2 64:1 65:3 66:3 69:1 70:2 71:5 72:2 73:3 74:6 79:3 80:2 81:1 83:2 85:1 86:2 87:3 90:2 91:3 93:2 94:3 95:1 96:3 98:1 99:3 101:2 105:2 106:5 107:1 113:1 117:2 118:2 119:1 120:1 124:1 125:3 128:1 129:1 131:1 134:2 136:1 137:1 139:2 140:2 146:1 152:2 154:3 160:1 161:1 162:1 175:3 181:1 185:2 192:2 193:1 194:1 195:3 203:2 205:1 211:1 213:3 215:2 217:1 218:1 229:1 231:1 232:1 233:1 234:1 245:1 247:3 252:1 255:2 257:1 266:1 277:1 284:2 285:1 293:1 297:1 301:1 303:4 304:1 311:1 312:4 323:2 324:11 325:1 331:2 332:1 334:1 337:1 346:1 347:1 349:1 352:1 365:1 375:1 379:2 385:1 389:1 397:1 407:1 417:1 426:1 447:1 452:1 454:1 462:1 465:1 495:1 510:1 513:1 523:1 534:1 554:1 567:2 583:1 596:2 598:2 617:1 651:1 671:2 674:1 698:1 704:1 707:1 708:1 714:1 723:1 730:1 732:1 748:1 760:1 779:7 789:3 801:1 818:1 839:1 841:2 844:3 851:1 852:2 864:1 873:1 883:1 884:1 921:2 943:1 960:1 963:1 973:2 978:1 987:4 989:1 1011:1 1063:1 1118:1 1137:1 1148:1 1193:1 1197:1 1214:1 1225:1 1233:2 1242:1 1264:1 1291:1 1292:1 1331:2 1386:1 1390:1 1414:2 1423:1 1424:1 1492:1 1503:1 1514:1 1515:1 1574:1 1579:1 1599:1 1610:1 1612:1 1721:1 1722:1 1772:1 1779:1 1869:1 1889:1 1906:1 1944:1 1981:1 2004:1 2086:1 2109:1 2168:1 2185:1 2209:1 2299:1 2318:1 2342:1 2344:1 2397:1 2417:1 2419:1 2435:1 2466:1 2517:1 2588:1 2643:1 2737:1 2762:3 2881:1 2926:1 3005:1 3061:4 3100:1 3126:1 3132:1 3189:1 3251:1 3267:1 3283:1 3384:1 3419:5 3471:1 3533:1 3535:1 3554:1 3614:1 3633:1 3824:1 3857:1 3982:1 4070:1 4109:1 4247:2 4297:1 4310:17 4341:1 4471:1 4546:1 4655:1 4677:1 4797:1 4860:1 4984:2 4995:1 5043:1 5080:1 5099:1 5213:1 5372:1 5442:5 5469:1 5883:1 5904:1 5925:1 5944:1 5994:3 6199:1 6274:1 6311:1 6363:1 6606:1 6727:1 6841:1 6882:1 6972:1 6994:1 7006:1 7100:1 7191:1 7255:1 7277:1 7326:1 7534:1 7570:1 7807:1 7965:1 8071:1 8090:1 8189:1 8330:1 8391:1 8518:1 8568:1 8593:1 9029:1 9134:1 9262:1 9386:1 9457:1 9893:1 9904:6 10104:1 10214:1 10369:1 10447:1 10840:1 10881:1 11290:1 11512:1 12312:1 12405:1 12606:1 12877:1 12909:1 13472:1 14043:1 14144:1 14149:1 15267:1 16009:1 16167:2 16173:1 17960:1 18086:1 18673:1 19857:1 19905:1 21566:1 22234:1 24835:1 25014:1 25708:1 27005:1 28411:2 31926:1 32728:1 35697:1 36389:1 36698:1 39574:1 40644:1 41173:1 47646:1 51888:1 53857:1 63875:1 68785:1 72265:1 79707:1 80333:1 #
4.1111109675110390181129726983045e-05 1:31 2:16 3:11 4:18 5:11 6:6 7:10 8:13 9:7 10:3 11:2 12:6 13:5 14:4 17:1 18:11 19:1 20:1 22:1 23:4 25:1 26:1 27:1 29:4 30:1 31:1 32:2 33:1 35:2 36:2 38:1 40:2 41:1 42:2 43:3 44:2 45:1 49:1 50:1 51:4 52:1 54:1 55:2 57:1 60:1 61:1 63:2 65:1 66:6 68:2 70:7 71:1 74:3 75:1 78:3 81:1 86:1 88:1 90:3 91:2 92:1 93:1 96:1 97:1 98:1 99:2 103:2 106:1 117:1 118:1 119:1 123:1 125:1 126:1 127:1 129:1 137:2 145:1 151:1 153:1 154:1 156:3 163:1 174:2 187:1 190:1 191:1 193:1 194:1 196:1 201:1 203:1 204:1 209:1 229:1 246:2 249:2 250:1 253:1 280:1 286:1 288:1 293:2 300:1 309:1 319:2 322:2 333:1 384:1 385:2 386:1 391:2 392:2 394:1 397:1 406:1 413:1 434:2 457:2 464:1 478:1 490:6 511:1 530:1 551:1 554:1 556:1 560:1 563:1 568:1 587:1 595:1 624:1 633:1 641:1 659:1 667:1 680:1 690:1 701:1 705:2 721:1 722:1 723:2 742:1 757:1 767:1 773:1 796:1 834:1 845:1 868:1 902:1 912:1 927:1 959:1 996:1 1023:1 1027:1 1042:1 1046:1 1113:1 1126:1 1127:1 1133:1 1148:1 1150:1 1154:1 1267:1 1285:1 1371:2 1383:1 1407:1 1464:1 1478:1 1509:1 1514:1 1536:2 1578:1 1632:1 1676:2 1677:1 1705:1 1714:1 1758:1 1761:1 1787:1 1793:1 1810:2 1901:1 1944:1 1966:2 1989:1 2019:1 2109:1 2146:3 2263:1 2331:1 2353:1 2531:1 2578:1 2610:1 2617:1 2665:1 2721:1 2810:1 2842:1 2990:1 3003:1 3062:1 3342:1 3359:3 3513:1 3526:1 3529:1 3569:1 3584:2 3588:1 3625:1 3652:1 3816:1 3973:1 3987:1 4224:2 4355:1 4533:1 4648:1 4656:1 4783:6 4939:1 4959:1 5192:1 5244:1 5361:1 5476:1 5555:1 5650:1 5763:1 5814:1 6353:1 6518:1 6841:1 7080:1 7098:1 7132:1 7492:1 7512:1 7657:1 7882:1 8027:1 8454:1 9158:1 9445:1 9469:1 9494:1 9638:1 10449:2 10649:1 10785:1 11192:1 11811:1 13939:1 15023:2 15277:1 15651:1 18099:1 18455:1 19984:3 26243:2 26247:1 27009:3 27068:1 35969:2 42008:1 42536:1 55622:1 73150:1 #
0.0012658871448739921882625791837995 1:9 2:1 3:2 4:5 5:6 6:3 7:3 8:2 9:2 10:2 11:2 15:1 17:3 18:3 21:1 23:1 27:1 28:1 29:1 30:2 37:1 38:1 41:2 42:3 46:2 52:1 53:2 54:1 59:1 62:1 67:1 69:1 80:1 85:3 90:1 93:1 99:1 107:2 113:1 136:1 142:1 149:1 151:1 153:1 163:1 165:1 168:1 174:1 179:1 180:1 211:1 214:1 254:2 272:1 289:1 305:1 309:1 387:1 404:1 421:1 500:1 505:1 553:1 572:1 589:1 590:1 660:1 727:1 808:1 810:1 849:1 1011:1 1050:1 1310:1 1346:1 1364:2 1437:1 1905:1 2073:1 2136:1 2277:1 3321:1 4159:1 4352:1 4644:1 5460:1 8144:1 8197:1 9306:1 10567:1 11570:1 11709:1 11759:1 12784:1 14038:1 14672:1 15345:1 15598:1 61041:1 #
0.0010362086993144646769604566571843 1:65 2:27 3:27 4:30 5:22 6:10 7:8 8:15 9:5 10:5 11:13 12:4 13:17 14:8 15:3 16:10 17:6 18:2 19:10 20:4 21:2 22:12 23:6 24:8 25:5 26:4 27:11 28:2 29:2 30:4 31:5 32:6 33:6 35:1 36:4 37:2 38:2 40:6 43:2 44:2 46:3 48:4 49:4 50:4 51:7 53:2 54:4 55:1 56:2 57:1 58:3 59:4 60:7 61:1 63:3 64:2 66:1 67:3 69:1 70:1 72:1 73:3 74:1 76:1 78:2 79:3 81:1 83:3 85:1 86:1 87:2 88:2 90:2 91:2 93:1 94:1 96:2 97:2 98:2 99:1 100:4 102:1 103:1 104:1 106:1 107:2 108:1 110:1 114:1 116:1 119:2 120:1 121:1 122:1 124:1 125:1 127:1 133:1 136:4 137:2 140:1 145:1 146:1 148:1 151:2 152:1 153:1 154:2 156:2 157:1 158:1 160:5 162:1 165:1 166:2 168:1 170:1 172:2 174:1 179:1 181:2 184:3 189:1 190:1 193:1 195:2 196:1 197:2 198:1 201:2 203:1 207:7 212:1 213:1 214:1 216:1 219:1 223:1 224:1 228:1 229:2 230:1 231:1 236:1 240:1 243:1 245:1 251:1 253:1 256:1 257:1 258:2 260:3 263:1 265:2 269:1 285:1 290:1 292:2 296:1 297:1 299:1 301:1 303:1 304:1 307:1 309:1 316:4 317:1 326:2 330:2 332:1 336:1 337:2 358:1 360:1 362:1 363:1 365:1 368:1 376:2 378:1 385:2 387:1 392:2 395:2 396:1 400:1 401:1 406:1 417:1 420:1 427:1 432:1 445:1 447:1 448:3 464:1 471:2 478:1 479:1 490:1 521:1 522:1 526:1 527:1 539:1 541:2 551:1 554:1 557:1 560:1 568:1 573:1 588:1 589:1 595:1 598:4 612:1 623:1 625:1 626:1 639:1 643:1 653:1 657:1 672:1 682:1 683:1 692:1 693:5 706:1 714:1 716:1 717:1 720:1 725:2 729:1 755:1 756:1 758:1 781:1 792:2 821:3 822:1 827:1 836:1 848:1 872:1 875:1 878:1 887:1 890:1 917:1 936:1 956:1 974:2 982:1 983:1 990:1 1023:1 1027:2 1032:1 1040:1 1050:1 1062:1 1072:1 1077:1 1094:1 1099:1 1100:1 1104:1 1118:1 1121:2 1146:1 1153:1 1167:1 1168:1 1186:1 1190:1 1199:1 1200:1 1229:1 1231:1 1247:1 1250:1 1267:1 1268:1 1277:1 1280:1 1284:1 1317:1 1354:1 1370:1 1380:1 1394:1 1395:1 1402:2 1409:1 1411:1 1413:2 1420:1 1426:1 1476:1 1509:1 1571:1 1585:1 1591:1 1602:1 1611:1 1616:1 1642:1 1647:1 1655:1 1665:1 1686:1 1688:1 1710:1 1714:1 1719:1 1773:1 1801:1 1821:2 1902:1 1920:1 1928:1 1942:1 1977:1 1981:1 2003:2 2014:1 2029:1 2035:1 2037:1 2095:1 2102:1 2131:1 2137:1 2168:2 2221:1 2229:1 2237:1 2261:1 2288:1 2384:1 2388:1 2472:1 2548:3 2553:1 2564:1 2666:1 2766:1 2773:1 2792:1 2843:1 2845:1 2927:1 2967:1 2990:1 3003:1 3014:1 3040:1 3042:1 3067:1 3110:1 3119:2 3120:1 3138:1 3170:1 3209:1 3714:1 3751:2 3816:1 3872:1 3936:1 4065:1 4113:1 4323:1 4344:1 4416:1 4421:1 4431:1 4444:1 4510:9 4543:1 4571:1 4573:1 4771:1 4772:1 4927:1 5045:1 5179:1 5322:1 5458:1 5564:1 5582:1 5595:1 5609:1 5836:1 5971:1 5977:1 6136:1 6153:1 6391:1 6591:1 6609:9 6834:1 6866:1 6917:1 7086:1 7143:2 7264:1 7271:1 7476:1 7743:2 7824:1 8037:1 8308:1 8416:1 8465:1 8493:1 8588:1 8625:1 8641:1 8642:1 8661:5 8728:1 8852:1 8979:1 9028:1 9598:1 9767:3 9864:3 10073:1 10134:1 10293:1 10599:1 10703:1 10712:1 10863:1 10980:1 11061:1 11126:1 11386:1 11451:1 11485:1 11811:1 11879:1 12008:1 12043:1 12140:1 12147:1 12256:1 12379:1 12419:1 13076:1 13103:1 13230:1 13473:1 14839:1 15182:1 15419:1 15508:1 15510:1 15881:1 16183:1 16284:1 18990:1 19330:1 20215:1 21012:1 21250:1 21305:1 21481:1 22305:1 25392:1 25472:1 27469:1 27499:1 27514:1 28405:1 28808:1 28833:1 31088:1 31505:1 36541:1 40686:1 40779:1 41017:1 42610:1 43787:1 44488:1 46108:1 49387:1 70723:1 70895:1 80470:1 82607:1 88205:1 #
0.0012658871448739921882625791837995 1:2 5:2 6:3 8:1 9:5 10:5 11:4 14:3 16:4 19:1 20:1 21:5 25:2 28:1 29:1 33:1 37:1 40:1 41:2 43:2 50:1 55:1 56:1 65:1 73:1 75:2 81:1 86:1 97:1 115:1 118:1 122:1 131:1 132:2 143:1 183:1 186:1 196:2 197:1 244:1 253:1 278:2 319:1 359:1 379:1 438:1 769:1 815:1 825:1 855:1 932:1 1260:1 1334:1 1438:1 1498:1 1891:1 2139:1 2391:1 4352:1 6340:1 7105:1 9603:1 11247:1 13196:1 18331:1 23734:1 #
0.0012658871448739921882625791837995 2:3 4:1 5:1 6:2 7:6 8:3 9:3 10:2 14:3 17:3 20:3 27:2 29:2 32:1 34:1 44:1 55:1 56:1 58:1 63:1 67:1 72:1 89:1 100:2 101:3 104:1 124:1 127:1 135:1 143:1 161:1 167:1 187:1 373:1 378:1 380:1 406:1 409:1 417:1 447:1 458:1 488:1 494:1 525:1 556:1 591:1 610:1 853:1 932:1 1157:1 1191:1 1306:1 1573:1 2052:2 2093:1 2108:1 3191:1 3754:1 3930:1 8005:1 9636:1 14962:1 21480:1 #
-0.0012658871448739921882625791837995 1:2 3:2 4:1 5:1 6:1 10:1 14:1 18:1 45:1 46:1 84:1 94:1 108:1 112:1 122:1 138:1 184:1 198:1 241:1 602:1 845:1 930:1 2328:1 2940:1 9956:1 18635:1 #
0.0012658871448739921882625791837995 1:35 2:9 3:14 4:18 5:12 6:12 7:9 8:7 9:2 10:8 11:3 12:5 13:2 14:2 15:3 16:1 17:4 18:8 19:3 23:3 25:3 26:3 27:1 29:3 31:5 32:1 33:2 34:1 37:4 38:3 40:1 41:1 42:1 43:1 44:2 46:3 47:2 49:1 50:1 51:1 54:1 56:2 58:1 61:1 63:3 64:2 67:1 68:1 70:1 71:1 72:1 74:2 75:1 77:1 78:2 79:3 81:2 83:1 84:1 85:1 88:2 90:3 91:1 93:1 94:1 95:1 97:1 98:2 99:1 100:1 101:2 102:2 103:2 105:3 107:1 110:1 111:2 112:1 114:1 117:1 121:1 131:1 133:1 137:1 138:1 140:1 144:1 148:1 149:1 150:2 151:1 152:1 153:2 156:1 158:2 161:1 162:2 169:1 172:1 190:1 194:4 196:1 215:1 222:1 228:1 239:1 243:1 250:1 255:1 269:2 270:1 280:1 282:1 292:1 294:1 307:1 316:1 357:4 385:1 393:1 404:1 435:2 437:1 444:1 453:1 456:1 482:1 496:3 499:1 501:1 504:1 506:2 511:2 514:1 523:1 525:1 533:1 538:1 554:1 557:1 563:1 577:1 583:1 586:1 603:2 643:3 656:1 681:2 713:1 725:1 801:1 802:1 840:1 867:1 896:1 901:1 903:4 908:1 925:1 959:1 969:1 988:1 1023:1 1081:1 1091:1 1170:9 1313:1 1327:2 1388:1 1478:1 1491:2 1511:7 1525:1 1639:1 1680:1 1683:1 1684:1 1730:1 1736:1 1847:1 1979:1 1996:2 2083:1 2100:1 2183:1 2276:1 2280:1 2358:1 2405:1 2409:1 2452:1 2467:1 2570:1 2609:1 2782:1 2981:1 3116:1 3275:2 3374:2 3429:1 3786:1 3963:1 4106:1 4140:1 4176:1 4309:2 4921:1 6217:1 6244:1 6890:1 6892:1 7408:1 7668:1 7869:1 8216:1 8248:2 8579:1 11680:4 12930:1 13124:1 13992:1 18272:1 23565:1 25361:1 26707:1 26811:3 29381:1 38745:1 41070:2 45410:1 59320:1 66682:1 72066:1 #
-0.0012658871448739921882625791837995 1:10 2:5 4:2 5:1 6:1 8:1 9:5 10:5 11:1 12:2 16:3 17:2 18:6 22:1 24:1 26:2 34:1 48:1 64:1 76:1 77:4 78:1 83:1 89:1 98:1 110:1 118:1 135:1 145:1 161:2 173:1 183:2 199:2 214:1 218:2 238:1 242:1 318:2 329:1 345:1 400:1 455:1 564:1 625:1 724:1 747:1 800:2 1012:1 1159:1 1166:1 1211:1 1293:1 1782:1 1815:1 2053:1 2097:1 3627:2 4099:2 4253:1 5819:1 6292:1 7320:1 7585:1 7675:1 8165:1 10786:1 13114:1 24307:1 63899:1 77133:1 #
0.0012658871448739921882625791837995 1:8 2:2 3:5 4:4 5:4 6:1 7:7 8:4 9:3 10:4 11:5 13:3 14:2 15:2 17:2 18:5 19:3 21:1 26:1 30:1 32:2 34:1 35:1 40:4 41:1 43:1 44:1 46:1 47:2 50:1 51:1 54:1 55:1 56:2 58:1 61:1 65:1 69:1 70:2 71:1 81:1 82:1 85:3 89:1 93:1 96:1 101:2 110:1 120:1 122:1 126:3 132:1 138:2 142:2 149:1 151:1 155:1 157:1 160:1 170:1 178:1 181:1 194:1 199:1 209:2 214:1 217:1 220:1 225:1 228:1 231:1 233:1 255:1 304:1 315:1 333:1 340:1 362:1 383:2 410:1 413:1 431:1 490:1 529:1 536:1 562:2 575:1 629:1 640:2 647:1 659:1 687:1 788:1 808:1 828:1 887:2 974:1 988:1 993:1 1000:1 1012:1 1059:1 1081:1 1331:1 1336:1 1417:1 1559:1 1643:1 1981:1 2037:1 2138:1 2232:1 2285:1 2356:1 2516:1 3655:1 3882:1 4643:1 4663:1 5429:1 6077:1 6141:1 7623:1 7673:1 10847:1 13328:1 14755:1 16089:1 25863:1 #
0.0012658871448739921882625791837995 1:8 2:1 3:5 4:5 5:2 6:2 7:8 8:3 9:1 10:1 11:4 14:1 15:1 16:2 17:1 26:2 27:1 28:1 29:1 30:1 37:1 40:1 41:1 45:1 50:1 55:1 60:1 71:1 98:1 100:1 102:1 123:1 139:1 140:1 148:1 162:1 169:1 193:1 194:1 204:1 232:1 236:1 264:1 296:1 516:1 545:1 616:1 627:1 741:2 783:1 816:1 822:1 922:1 1093:1 1161:1 1224:1 1557:1 1574:1 1657:1 1757:1 2121:1 2482:1 2725:1 3744:1 4140:1 4453:1 4913:1 8318:1 17262:1 80200:1 #
0.0012658871448739921882625791837995 1:4 2:5 3:1 4:1 5:4 6:4 7:5 8:1 9:6 10:7 11:3 12:3 13:2 15:1 16:6 17:1 18:2 20:5 21:2 23:1 25:1 26:3 32:1 34:1 36:1 38:1 43:2 44:2 45:1 50:1 53:1 55:2 56:1 65:1 66:1 68:3 76:1 77:1 78:1 82:1 85:1 91:1 92:1 107:1 112:1 116:1 127:1 131:1 142:1 145:2 147:1 156:1 157:1 167:1 177:1 181:1 199:1 210:1 272:1 286:1 308:1 317:3 345:1 373:1 383:1 388:1 432:1 483:1 489:1 521:1 561:1 605:1 658:2 686:1 695:1 703:1 713:1 804:1 825:1 856:1 977:1 1122:1 1396:1 1508:1 1565:1 1751:1 1981:1 2014:1 2104:1 2495:1 2681:1 7011:1 12566:1 #
-0.0012658871448739921882625791837995 2:2 3:1 4:2 7:3 8:1 9:2 10:2 12:3 14:1 16:2 17:1 38:1 41:1 42:1 49:1 51:1 53:2 66:1 170:1 214:1 225:1 267:1 274:1 300:1 309:1 322:1 417:1 426:1 532:1 658:1 857:1 935:1 1340:1 1522:1 2165:1 2690:1 #
0.0012658871448739921882625791837995 1:7 2:3 3:5 4:5 5:2 6:4 7:3 8:2 11:2 13:1 14:2 15:1 16:3 17:2 19:1 24:1 27:1 32:1 33:1 38:1 39:4 44:1 45:1 46:1 48:1 52:2 58:1 61:1 81:1 84:1 86:1 87:1 90:1 100:1 107:1 109:1 113:1 127:1 135:1 138:1 140:1 149:1 162:1 169:1 172:1 196:1 201:1 226:1 232:1 255:1 276:1 325:2 327:2 346:1 414:1 474:1 601:1 612:1 636:1 706:1 712:1 727:1 803:1 995:1 1039:1 1094:1 1137:1 1187:1 1230:1 1904:1 1929:1 1972:1 2015:1 2051:1 2056:1 2089:1 2466:1 2499:1 2602:1 2629:1 2633:1 2636:1 2773:1 2879:3 3047:1 3904:1 5027:1 7736:1 7738:1 7969:1 9152:1 10909:1 14557:1 25392:1 30349:1 #
-0.0012658871448739921882625791837995 1:14 2:5 3:9 4:3 5:2 6:4 7:1 8:3 10:1 11:4 13:4 14:1 15:1 17:3 18:1 20:2 23:2 27:2 29:2 30:1 33:1 34:1 35:1 36:1 37:2 38:1 43:1 44:1 45:1 46:1 48:2 49:1 50:1 53:3 56:1 58:1 61:1 64:1 67:1 71:1 72:1 81:2 85:1 86:1 117:1 121:1 123:1 136:1 153:2 159:2 166:1 173:1 182:2 190:1 200:1 210:1 213:1 216:1 217:1 218:1 222:1 247:1 270:1 317:1 320:1 326:1 328:1 331:1 368:1 375:1 387:1 398:1 461:1 463:1 466:1 481:1 521:1 524:1 526:1 543:1 574:1 618:1 641:1 646:1 679:1 681:1 713:1 780:1 790:1 925:1 935:1 946:1 949:1 1015:1 1155:1 1234:1 1251:2 1294:1 1664:1 1720:1 1772:1 1890:1 1939:1 2075:1 2124:1 2262:1 2381:1 2705:1 2835:1 2929:1 3446:1 3815:1 4357:1 4517:1 5335:1 5537:1 6144:1 6740:1 7008:1 8283:2 8537:1 8587:1 8677:1 8991:1 9546:1 9580:1 11209:1 11324:1 12111:1 13706:1 21587:1 22470:1 26198:1 52422:1 #
-0.00059133822485936730038724729041633 1:52 2:46 3:21 4:26 5:21 6:15 7:13 8:18 9:12 10:13 11:13 12:5 13:6 14:6 15:5 16:17 17:7 18:2 19:8 20:6 21:4 22:6 23:12 24:3 25:4 26:8 27:2 29:7 30:6 31:3 32:5 34:10 35:4 36:6 37:4 38:3 39:1 40:6 41:5 42:3 43:3 44:1 45:3 46:2 47:1 48:5 49:5 50:6 51:1 53:2 56:3 57:1 58:1 59:2 60:4 63:4 64:3 65:2 66:3 67:1 70:2 71:2 72:1 73:4 75:2 76:1 77:4 80:4 81:1 82:2 83:1 85:4 86:2 87:3 88:1 89:4 90:4 93:2 95:3 96:1 97:4 99:4 101:1 103:5 104:1 107:1 108:1 109:1 110:2 112:1 113:1 114:1 115:1 116:1 118:2 119:1 120:1 121:3 123:1 124:1 127:3 128:2 129:1 130:1 131:2 132:1 133:1 135:3 136:2 137:1 138:2 140:1 141:1 143:1 146:2 148:1 150:1 152:1 159:1 160:2 162:2 163:1 164:1 166:1 167:2 168:1 169:5 170:3 172:1 174:2 178:1 179:1 186:1 190:2 193:1 195:1 197:3 198:1 204:2 205:1 207:8 209:2 215:2 217:2 220:2 222:3 225:2 227:3 229:2 230:1 249:1 252:1 253:1 254:2 258:2 268:1 269:1 273:1 275:4 276:1 285:2 292:1 293:1 295:1 296:4 297:1 300:2 304:2 309:2 319:1 320:1 321:1 323:1 326:1 334:2 336:1 337:2 346:1 350:1 351:1 362:1 372:1 375:1 381:1 386:1 392:2 398:1 401:2 408:1 413:1 418:1 426:1 427:1 431:2 439:1 441:1 445:1 446:1 448:2 454:1 472:1 477:1 501:1 502:1 504:1 508:2 511:1 521:1 526:1 534:2 535:1 536:1 542:1 543:1 561:2 567:3 582:1 605:1 607:1 612:1 617:1 625:1 627:1 632:1 642:2 693:1 694:1 697:1 704:2 713:1 726:1 730:1 732:1 740:1 743:1 746:1 767:1 779:1 785:1 787:1 789:1 801:1 807:1 817:3 823:1 835:1 836:1 838:1 884:1 885:1 908:1 915:1 922:1 934:1 936:1 954:1 965:1 982:2 983:1 991:1 1000:1 1021:2 1041:1 1063:2 1079:1 1101:1 1131:1 1136:1 1139:1 1148:1 1151:1 1163:1 1186:1 1203:1 1221:1 1243:1 1279:1 1286:1 1322:1 1333:1 1335:1 1336:1 1340:1 1349:1 1391:2 1397:1 1409:2 1416:1 1458:1 1477:1 1481:1 1516:1 1525:1 1590:1 1597:1 1614:1 1634:2 1639:1 1649:2 1688:1 1694:2 1735:1 1748:1 1760:3 1820:1 1826:1 1852:1 1939:1 1979:6 2004:1 2006:1 2013:1 2045:1 2074:2 2091:2 2139:1 2156:1 2257:1 2263:1 2295:2 2345:1 2361:1 2401:1 2404:1 2509:1 2512:1 2515:1 2586:3 2637:1 2684:1 2760:1 2781:1 2810:1 2859:1 2939:1 2953:1 3040:1 3059:1 3189:1 3292:1 3372:1 3389:2 3412:1 3417:1 3442:2 3510:1 3539:1 3575:1 3585:1 3637:1 3713:1 3728:1 3778:1 3824:1 3830:1 3846:1 3936:1 3950:1 3995:1 4047:1 4077:1 4108:1 4215:1 4232:1 4343:2 4366:1 4374:2 4441:1 4568:1 5023:1 5216:1 5274:1 5318:1 5437:2 5441:1 5765:1 5778:1 5803:1 5855:1 5900:1 6037:1 6136:1 6143:1 6366:1 6525:1 6943:1 6984:1 7049:1 7344:1 7368:1 7623:1 7685:1 7859:1 7984:1 8143:3 8168:1 8555:1 8893:1 8927:1 9131:1 9199:4 9238:1 9398:1 9445:1 9800:1 10664:1 11270:1 11315:1 11955:1 12320:4 12503:1 12632:1 13020:1 13345:1 13881:1 14093:1 14523:1 14590:1 14759:1 15283:1 16921:1 16952:1 16990:1 17416:2 18503:1 19055:1 19530:1 19793:1 20908:1 21857:1 22393:1 22485:1 22640:1 25860:1 26094:1 28790:1 33170:1 34409:1 44668:1 45202:1 59437:1 59495:1 64630:1 80805:1 80949:1 #
-0.0010462255529688428267592881226733 1:14 2:16 3:3 4:3 5:19 6:18 7:6 8:8 9:3 11:5 12:1 13:1 14:10 15:5 17:1 19:1 20:1 22:12 23:2 24:2 25:2 26:2 27:2 29:2 30:5 31:1 32:1 34:6 35:2 36:1 37:2 38:3 39:35 40:1 41:2 42:1 43:2 44:2 46:2 49:1 51:6 52:16 54:1 57:3 58:1 59:1 61:1 63:1 64:3 65:1 66:1 67:1 75:1 76:3 79:1 82:6 83:3 85:1 86:2 87:2 92:1 95:1 97:1 110:2 111:1 113:1 116:1 117:6 121:5 127:1 128:1 130:2 134:3 138:2 139:2 140:1 147:1 149:2 157:6 167:1 177:2 181:1 197:1 204:1 205:3 209:2 210:3 232:3 235:1 236:1 245:1 250:2 257:1 259:2 283:1 287:2 295:1 311:1 313:1 326:1 327:1 338:2 347:2 349:1 359:1 363:1 373:1 381:1 383:1 390:3 416:2 420:1 422:1 423:1 425:1 443:2 477:1 479:1 492:1 508:1 532:1 601:1 613:1 614:1 651:1 669:1 681:1 685:1 710:1 728:1 729:1 784:2 789:1 793:1 828:2 851:3 909:5 944:1 1007:2 1137:1 1295:1 1367:4 1463:2 1486:1 1501:2 1532:1 1575:1 1590:1 1763:4 2075:1 2318:1 2463:3 3289:1 3433:1 3963:1 4420:1 4484:2 6071:6 7549:1 7604:1 8148:1 10565:2 12732:1 13816:1 21376:1 22441:1 28064:1 29425:1 #
0.0012658871448739921882625791837995 1:12 2:11 3:12 4:10 5:16 6:3 7:11 8:3 9:1 11:6 13:3 14:2 15:1 16:3 17:2 20:1 21:3 22:3 23:1 24:2 25:2 26:1 27:2 31:2 32:3 33:1 34:3 35:2 37:2 38:2 41:1 43:2 44:3 45:3 46:1 48:5 50:2 51:1 53:2 54:2 58:1 61:1 65:1 71:1 74:1 83:1 90:1 92:1 94:1 95:1 104:2 108:2 110:1 114:2 120:1 126:1 127:1 133:1 135:1 142:1 149:1 150:1 152:1 162:2 166:1 192:1 193:1 198:1 201:1 211:1 225:1 241:1 253:1 256:1 258:1 271:1 297:1 315:1 322:1 335:1 340:1 351:1 354:2 362:1 374:1 381:1 404:2 406:1 413:1 432:1 439:1 455:1 479:1 488:1 491:1 500:1 548:1 566:1 569:1 574:1 590:1 637:1 654:1 713:1 726:1 731:1 772:1 802:1 824:1 829:3 838:1 856:1 907:1 924:1 931:1 933:1 939:2 944:1 961:1 976:1 989:2 1043:2 1064:1 1080:1 1214:1 1220:1 1289:1 1352:1 1372:2 1477:1 1521:1 1710:1 1714:1 1717:1 1823:1 2031:1 2041:1 2306:1 2354:2 2378:1 2403:1 2507:1 2531:1 3050:1 3103:1 3172:2 3442:1 3597:1 4014:1 4060:1 4262:2 4502:1 4763:1 5163:1 5355:1 5380:1 5520:3 5785:1 5889:1 6260:1 7606:1 7926:1 8487:1 8794:1 10669:1 10670:1 11223:1 15039:1 16014:1 16103:1 17500:1 17603:1 23676:1 26964:1 34313:1 #
0.0012658871448739921882625791837995 1:5 3:5 4:1 5:2 6:5 7:1 8:2 10:1 12:1 16:3 17:1 18:2 19:1 20:1 27:1 28:1 32:2 34:4 38:2 40:2 49:1 50:1 54:1 62:2 63:1 66:1 68:2 71:1 72:1 76:1 78:1 81:1 84:1 91:3 109:1 110:1 114:1 125:1 135:1 147:1 201:1 203:1 207:1 223:1 233:1 250:1 274:1 333:1 360:1 447:1 455:1 460:1 462:1 511:1 596:1 689:1 731:1 871:1 1027:1 1117:1 1132:1 1186:1 1283:1 1370:1 1902:1 2153:1 2484:1 2723:1 2725:1 3554:1 3907:1 4314:1 4683:1 7623:1 #
-0.00068058695642670644782024069741055 1:16 2:11 3:7 4:5 5:7 6:5 7:12 8:3 9:5 10:4 11:7 12:1 13:2 14:4 15:2 16:5 17:8 19:2 20:5 21:5 23:1 24:1 25:1 26:4 28:2 29:6 30:2 33:1 34:3 35:1 36:2 37:3 38:3 40:1 41:1 42:1 43:3 44:1 47:1 50:2 54:1 58:1 59:2 62:2 63:1 65:1 67:1 68:1 69:2 70:2 72:1 77:1 78:1 81:1 82:1 85:2 89:1 91:2 93:1 96:2 101:2 111:1 113:2 121:2 124:4 137:1 139:1 143:2 151:2 155:1 157:2 160:1 164:2 166:1 170:2 176:1 177:1 182:2 189:2 190:1 192:1 194:3 197:1 209:1 220:1 221:2 231:1 244:1 255:1 260:1 261:3 264:1 267:1 269:1 280:1 286:2 287:1 295:1 296:1 300:1 309:1 330:1 340:1 358:1 359:3 374:1 388:1 427:2 457:1 489:1 517:1 525:2 546:1 551:1 575:2 576:1 584:1 593:2 612:1 692:1 712:1 716:2 720:1 722:2 728:1 736:1 776:1 810:1 865:1 924:1 931:1 960:2 969:1 1044:1 1067:1 1113:1 1116:1 1122:1 1238:1 1255:1 1328:2 1329:1 1366:4 1445:1 1469:1 1516:1 1580:1 1626:1 1677:1 1775:1 1788:1 1892:1 1900:1 2035:1 2108:2 2141:2 2624:1 2659:4 3110:1 3371:1 3382:1 3693:1 3800:1 4136:1 4751:1 5036:1 6540:1 8005:1 8295:1 8337:1 8492:1 10027:1 10621:1 12210:1 25213:1 25552:1 29454:1 33063:1 41959:2 62663:1 #
-0.0012658871448739921882625791837995 1:56 2:16 3:20 4:25 5:26 6:18 7:15 8:21 9:11 10:14 11:17 12:8 13:10 14:12 15:13 16:4 17:11 19:5 20:5 21:6 22:8 23:5 24:8 25:7 26:4 27:8 29:6 30:3 31:2 32:5 33:6 35:2 36:5 37:5 38:3 39:1 40:3 41:2 42:7 43:3 45:6 46:1 47:2 48:3 49:6 50:3 51:1 53:1 54:1 55:1 59:1 60:1 61:2 62:1 64:1 65:2 67:3 69:6 70:5 71:4 73:1 74:1 75:3 76:1 79:1 80:1 81:3 82:6 84:6 85:3 86:6 87:4 89:2 90:2 91:1 93:1 96:2 98:2 99:2 100:2 101:1 102:2 103:4 106:1 107:1 108:2 109:2 111:1 113:1 114:1 115:1 119:6 120:2 121:1 122:2 123:2 124:1 125:1 126:2 127:3 129:1 132:1 136:1 137:3 138:1 139:2 142:3 143:1 144:2 146:1 148:3 149:1 154:1 157:1 158:1 159:1 167:1 169:2 175:2 178:1 181:1 182:4 183:1 184:1 186:1 187:1 189:1 194:3 198:1 199:1 200:2 204:1 205:2 206:1 210:1 211:2 212:2 213:1 216:2 217:1 224:1 226:3 228:1 231:1 232:2 236:1 240:1 245:1 248:3 250:2 255:1 256:1 258:1 263:1 265:1 267:1 271:1 273:3 276:2 277:1 279:1 281:1 292:1 295:1 296:1 307:1 312:1 313:1 314:1 317:2 323:2 324:1 326:1 335:1 355:2 360:1 361:1 362:1 363:1 368:1 371:3 375:1 378:1 383:1 387:1 397:2 402:1 403:1 404:1 417:2 423:2 425:2 429:2 435:2 438:1 449:1 454:1 455:1 457:2 472:1 473:2 488:1 492:1 506:1 507:1 510:1 515:1 517:1 525:1 538:1 540:1 542:1 543:1 547:2 548:1 550:1 559:4 563:1 575:1 585:1 595:1 612:1 613:1 640:1 645:1 650:1 654:1 658:1 664:2 672:2 683:1 684:2 697:1 705:2 709:1 723:1 731:1 734:1 754:1 760:1 769:1 770:2 777:1 800:1 801:1 802:1 813:1 820:1 822:1 828:1 835:2 851:1 852:1 860:1 866:1 893:1 896:2 898:1 910:1 912:1 917:1 928:1 929:1 940:1 963:1 968:1 973:3 978:1 985:1 995:1 1046:1 1056:1 1073:1 1099:1 1110:2 1113:1 1123:1 1133:1 1136:1 1148:1 1203:1 1215:1 1234:1 1263:1 1283:1 1285:1 1307:1 1339:1 1340:1 1350:1 1376:1 1394:1 1442:1 1455:1 1460:1 1470:1 1499:1 1500:1 1531:1 1560:2 1567:1 1582:2 1603:1 1611:1 1628:1 1631:1 1681:1 1700:2 1715:1 1717:1 1718:1 1727:1 1732:1 1738:1 1741:1 1766:2 1772:1 1775:1 1805:1 1825:1 1836:2 1904:2 1992:1 2012:1 2028:1 2042:1 2124:2 2138:1 2183:1 2283:1 2320:1 2342:1 2361:1 2382:2 2442:1 2529:2 2657:1 2743:1 2757:1 2761:1 2767:1 2791:1 2797:2 2875:1 2972:2 3116:1 3132:1 3232:1 3387:1 3458:1 3732:1 3741:1 3763:1 3874:1 4094:1 4108:1 4195:1 4489:1 4598:1 4723:1 4753:1 4843:1 5100:1 5112:1 5194:1 5351:1 5492:1 5732:1 5810:2 6361:1 6458:1 6482:1 6523:1 6699:1 6920:2 6969:1 7357:1 7533:2 7891:1 8022:1 8701:1 8741:1 8837:1 9091:1 9222:1 9250:5 9850:1 9894:1 10068:1 11140:1 11761:4 12074:3 12138:1 12456:1 12872:8 13670:1 13904:2 14892:1 15486:1 15782:1 17738:1 19156:1 19879:2 21529:1 22152:1 22641:1 22709:1 30256:1 35422:1 36830:1 38969:1 40858:1 45476:1 47572:1 53310:1 58726:1 66336:1 78920:1 81573:1 87208:1 87847:1 #
0.0012658871448739921882625791837995 1:7 2:6 3:3 4:1 5:7 6:2 7:4 8:1 9:2 11:2 14:3 15:2 17:2 19:1 20:1 23:1 24:1 25:2 29:1 32:1 34:2 35:1 36:1 37:2 38:1 40:1 41:1 42:1 43:1 55:2 63:1 70:1 72:1 73:1 79:1 81:1 82:1 88:1 89:2 96:1 101:1 102:1 119:4 122:1 124:2 131:1 138:1 165:1 167:1 181:1 215:1 231:1 246:1 248:1 254:1 268:2 273:1 277:1 287:1 296:1 297:1 318:1 322:1 339:1 340:1 357:1 366:1 381:1 416:1 465:1 484:1 493:1 557:1 561:1 629:1 674:1 732:1 777:1 850:1 1053:1 1095:1 1097:1 1102:1 1143:1 1183:1 1185:1 1386:1 1458:1 1683:1 2346:1 2632:1 3244:1 4027:1 4126:1 4959:1 5053:1 5185:1 5606:1 5847:1 5964:1 6147:1 10088:1 10444:1 13883:1 14775:1 79002:1 #
-0.0012658871448739921882625791837995 1:1 2:1 3:1 6:3 7:2 9:1 10:1 16:1 20:3 25:2 74:1 91:1 108:1 122:1 140:1 159:1 201:1 215:1 241:1 794:1 #
-0.0012658871448739921882625791837995 1:1 2:1 3:3 6:1 7:1 8:1 9:1 10:3 11:3 12:1 17:1 18:3 19:1 20:2 21:1 27:1 31:1 37:2 40:1 55:1 72:1 73:1 78:1 82:1 90:2 92:1 99:1 108:1 124:1 159:1 267:2 273:1 308:1 314:1 380:1 858:1 3152:1 3183:1 3830:1 4243:1 4372:1 4772:1 12823:1 #
-0.0012658871448739921882625791837995 1:52 2:28 3:13 4:20 5:10 6:14 7:16 8:10 9:2 10:2 11:9 12:11 13:11 14:9 15:5 17:8 18:10 19:5 20:3 22:2 23:9 24:3 25:1 26:1 27:4 29:2 30:1 31:6 32:3 33:1 34:2 35:2 36:1 38:1 39:1 41:2 42:3 44:5 49:3 50:1 51:4 53:1 56:1 57:2 58:2 59:2 60:2 62:2 63:1 67:1 68:2 70:6 71:2 72:1 74:2 77:1 80:2 81:2 84:2 88:2 90:1 93:1 94:1 96:1 98:1 99:1 103:1 106:1 108:1 111:2 112:2 115:1 116:2 121:2 123:1 124:1 129:1 130:2 132:1 133:1 135:1 137:1 138:1 144:1 151:1 153:1 161:1 173:4 175:3 176:1 178:1 181:1 185:2 189:1 191:2 193:1 195:2 204:1 209:1 212:1 222:3 223:1 225:2 227:1 230:1 235:1 252:2 264:1 278:1 279:1 287:1 290:1 293:1 297:1 301:1 302:1 303:2 304:2 323:1 324:2 326:1 329:1 337:1 341:1 343:1 346:1 356:1 357:2 378:2 392:1 395:3 414:1 422:1 425:2 429:1 431:1 439:1 455:1 461:1 479:1 485:1 490:1 518:1 522:1 533:1 554:4 556:3 564:1 565:5 570:1 603:2 614:1 618:1 619:1 621:1 624:1 631:3 643:1 651:2 653:4 660:1 664:1 673:2 691:1 693:2 698:1 729:1 750:1 755:1 773:1 787:1 820:2 836:1 853:1 861:1 868:1 878:1 880:2 892:1 894:1 912:1 927:1 954:1 965:1 979:1 990:1 996:1 1003:1 1011:2 1019:2 1031:1 1035:1 1041:1 1042:1 1056:1 1063:1 1102:1 1118:1 1127:1 1143:1 1148:1 1168:1 1173:1 1183:2 1188:1 1204:1 1233:1 1250:2 1252:1 1285:2 1300:4 1320:1 1334:1 1352:1 1367:1 1382:1 1386:1 1421:1 1465:1 1472:1 1489:1 1500:1 1517:1 1522:1 1563:2 1594:1 1688:1 1733:2 1739:1 1761:1 1788:1 1850:2 1870:1 1879:2 1911:1 1936:1 1955:1 1959:1 1976:1 1981:1 2037:1 2086:1 2091:1 2118:1 2189:1 2203:2 2418:1 2439:1 2462:1 2472:1 2495:1 2534:1 2590:1 2614:4 2622:1 2625:1 2626:1 2649:1 2656:1 2770:1 2784:1 2788:1 2827:1 2859:1 2877:2 2912:1 2974:2 3138:1 3167:1 3335:1 3389:1 3442:1 3465:1 3542:1 3569:4 3587:1 3630:1 3697:1 3766:1 3847:1 4031:1 4129:1 4294:1 4298:1 4343:1 4374:2 4412:1 4439:1 4444:1 4515:1 4774:2 4864:1 4974:1 4980:2 5253:3 5329:1 5566:1 5947:1 6266:1 6538:2 6581:1 6617:1 6669:4 6682:1 6710:1 6738:2 7085:1 7409:1 7473:1 7513:1 7678:1 7718:1 7765:1 7903:1 8076:1 8131:1 8536:1 8721:7 8759:1 9164:1 9738:4 9897:2 10251:1 10905:1 11017:1 11313:2 11526:1 12004:2 12651:2 12982:1 13510:1 13513:1 13981:1 14043:1 14252:1 14721:1 15260:2 16023:1 16514:1 18441:1 18810:1 19575:1 20141:1 20258:2 23686:1 24101:1 24167:1 25329:1 26491:1 27398:1 30187:1 44016:2 44288:1 57495:1 77282:1 85712:1 86873:1 #
0.0012658871448739921882625791837995 1:2 2:1 3:6 4:1 5:1 6:2 7:4 8:1 10:1 11:1 14:2 15:1 16:2 20:1 25:1 26:1 30:1 34:1 35:1 37:1 42:2 46:2 49:1 64:1 76:1 82:2 89:2 92:1 95:1 100:1 104:1 113:1 124:1 139:1 145:1 157:1 189:1 212:1 229:1 243:2 253:1 268:1 280:1 443:1 516:3 580:1 652:1 934:1 1054:1 1460:1 1578:1 2420:1 2816:1 3741:1 11435:1 #
0.0012658871448739921882625791837995 1:3 2:3 3:7 4:2 5:1 6:1 7:2 8:2 9:6 10:3 11:3 12:2 14:3 15:1 16:4 17:1 23:1 25:2 26:1 29:2 37:4 38:1 41:1 42:2 46:1 47:1 48:2 53:1 55:1 56:1 59:1 60:1 66:1 68:2 69:2 70:1 72:1 74:3 76:1 77:1 89:1 91:1 93:1 99:1 100:1 102:1 109:1 110:1 127:1 131:1 142:1 143:1 146:1 151:1 154:1 169:1 177:1 183:1 195:2 198:1 209:1 214:1 239:1 263:1 271:1 340:1 360:1 377:1 387:1 410:1 417:1 434:1 446:1 575:1 721:1 799:1 807:1 951:1 959:1 992:1 1018:1 1138:1 1212:1 1252:1 1336:1 1348:1 1453:1 1464:2 1466:2 1817:1 2243:1 2687:1 3431:2 3597:1 3930:1 5181:1 6016:1 8220:1 11506:1 14602:1 17119:1 36913:1 #
-0.0012658871448739921882625791837995 1:2 3:1 5:3 6:1 7:1 9:1 10:1 13:1 16:1 22:3 32:1 44:1 48:2 49:1 58:1 78:1 91:1 97:1 100:1 156:1 196:1 248:3 251:1 265:1 278:1 431:1 455:1 625:1 660:1 763:1 798:1 1318:1 1386:1 1684:1 3160:2 6863:1 8041:1 #
-0.0012658871448739921882625791837995 1:2 2:1 3:3 4:1 6:2 7:2 8:1 10:1 13:1 14:1 15:1 17:1 19:1 20:1 26:1 33:4 72:1 91:1 112:1 125:1 192:1 239:1 287:1 324:1 378:1 432:1 538:2 547:1 627:1 696:1 754:1 820:1 844:1 1034:1 1156:1 1210:1 1321:1 2882:1 3343:1 3352:1 4058:1 4929:1 5418:1 6931:1 7744:2 8247:1 8352:1 8503:1 9790:1 10569:1 14831:1 15358:1 17046:1 18979:1 22825:1 25808:1 #
-0.0012658871448739921882625791837995 1:33 2:16 3:14 4:16 5:19 6:5 7:6 8:7 10:4 11:10 12:3 13:6 14:5 15:8 16:3 17:4 19:3 20:2 21:1 22:6 23:1 24:20 25:1 26:1 27:1 29:1 30:4 31:6 32:1 33:9 35:1 37:1 39:1 40:1 41:1 42:5 43:2 44:4 45:3 49:1 50:1 51:1 52:1 54:1 56:1 57:4 58:3 61:1 66:5 67:1 68:1 72:2 75:1 77:1 80:1 82:1 84:1 87:8 91:1 92:1 95:1 99:2 106:1 113:1 114:1 117:3 118:1 120:2 125:1 129:2 130:3 138:1 139:2 141:1 142:1 148:2 149:2 151:1 168:2 171:1 173:1 175:1 177:2 184:1 187:1 189:2 193:2 195:1 196:2 199:1 201:1 218:1 225:2 250:1 257:1 258:1 266:1 270:1 272:1 285:1 289:1 292:3 304:1 305:1 306:1 311:1 314:1 322:1 327:1 332:1 337:1 350:1 354:1 356:1 366:1 377:1 381:1 402:1 425:1 434:2 435:1 442:2 443:1 474:1 479:1 485:1 495:1 498:1 539:2 549:1 552:1 555:4 557:1 564:1 568:2 569:2 579:14 582:1 591:1 607:1 609:1 642:1 647:1 688:1 703:1 717:1 719:1 748:1 814:1 828:1 861:1 915:1 964:1 994:1 1012:1 1029:1 1036:1 1060:1 1069:7 1071:1 1128:1 1196:1 1229:1 1300:1 1302:3 1331:1 1335:1 1343:1 1372:1 1460:2 1545:1 1574:1 1606:1 1611:2 1653:1 1680:1 1736:1 1812:1 1853:1 1936:1 1944:1 1972:1 2017:2 2020:1 2214:1 2247:1 2258:1 2260:1 2283:1 2296:1 2298:1 2325:1 2346:1 2420:1 2535:1 2585:1 2597:1 2636:1 2911:1 2936:1 3133:1 3146:2 3233:1 3423:1 3628:5 3642:1 3859:1 4093:1 4268:1 4435:7 4482:1 4496:1 4511:1 4663:1 4926:1 5025:1 6529:1 7911:1 8600:1 8626:2 8634:2 8836:1 9033:1 9295:1 10403:3 10730:1 10944:1 11510:1 11550:1 12100:1 12922:1 14552:2 14866:1 16443:1 18403:1 18552:1 21444:8 21557:1 22549:1 23487:1 25730:2 26221:1 26311:2 39806:2 45840:2 47035:1 54029:1 61178:1 67698:1 73223:1 74711:1 76102:1 76333:1 81805:1 86991:1 #
-0.0012658871448739921882625791837995 1:24 2:29 3:9 4:13 5:21 6:10 7:7 8:12 9:1 10:3 11:14 13:6 14:5 15:3 16:2 18:2 19:5 20:2 21:4 23:3 25:3 26:3 27:2 28:1 29:1 30:1 31:1 32:1 33:6 34:1 35:2 36:2 37:2 38:1 39:9 40:2 41:3 43:1 44:3 46:1 47:1 48:1 51:3 52:7 53:4 55:3 56:2 60:2 61:1 64:2 65:1 67:2 69:2 70:1 72:2 74:1 76:3 77:2 79:3 80:1 86:1 88:1 95:1 107:2 115:2 117:2 120:1 121:1 126:2 130:1 131:1 137:2 144:2 146:1 147:1 157:1 158:1 160:1 162:1 169:1 180:1 188:2 189:3 191:1 197:1 201:1 219:1 234:1 236:1 238:2 239:1 254:5 256:1 257:1 272:1 298:2 299:3 330:1 335:1 337:1 350:1 373:1 374:1 390:1 415:8 416:2 425:1 431:1 445:1 453:2 468:1 500:1 503:1 504:1 513:1 514:1 525:1 531:1 546:3 557:1 596:1 611:2 620:3 623:1 654:1 662:1 665:1 690:1 692:1 694:1 695:1 748:1 756:1 765:2 790:7 830:1 836:2 847:2 892:1 902:1 962:1 966:1 990:1 1042:1 1084:1 1143:1 1152:1 1243:2 1511:1 1616:1 1688:1 1695:1 1847:1 1876:1 1925:1 2037:1 2118:1 2123:1 2146:1 2248:1 2320:1 2389:1 2436:1 2442:3 2450:1 2451:1 2504:2 2525:1 2542:2 2610:1 2647:1 2656:1 2685:2 2828:1 2829:1 2919:1 2956:1 3266:1 3334:1 3337:1 3412:2 3496:1 3569:1 3593:1 3778:1 3893:1 4144:1 4172:4 4196:1 4456:1 4728:1 4785:1 4820:1 4916:1 4952:1 5462:1 5804:1 6066:1 6079:2 6497:1 6916:2 6943:1 7343:2 7591:1 7812:1 8019:1 8193:1 8703:1 8993:1 9010:1 9747:1 10652:1 11065:7 11200:1 11266:1 11572:3 12526:1 13421:1 15191:1 15913:1 16433:2 16860:1 16874:1 20499:1 20623:1 21983:1 24349:5 25399:1 28361:2 30797:3 34765:1 38621:1 40879:1 40975:1 41221:1 41632:2 42756:1 57479:1 78898:1 79777:1 87005:1 #
-0.0012658871448739921882625791837995 1:7 2:4 3:2 4:4 5:4 6:4 7:3 8:3 10:4 11:3 12:1 14:1 16:2 18:2 20:1 21:1 26:1 28:1 29:1 40:2 43:1 46:3 47:1 48:1 55:1 58:1 60:1 65:1 70:1 76:1 82:1 86:1 90:1 95:1 98:1 104:1 117:1 120:1 122:1 129:2 139:1 140:1 154:1 164:1 165:2 169:1 177:1 187:1 190:1 209:1 235:1 263:1 268:1 271:1 274:1 318:1 326:1 397:1 417:1 428:1 432:1 446:1 510:1 512:1 522:1 531:1 599:1 650:1 761:1 857:3 919:1 949:1 992:1 1009:1 1059:1 1117:1 1200:1 1610:1 1830:1 2202:1 2242:1 3547:1 3652:1 3949:1 4068:1 4104:1 4374:1 5424:1 6982:1 7023:1 7478:1 13778:1 18553:1 19668:1 61773:1 #
-0.0012658871448739921882625791837995 1:14 2:7 3:4 4:6 5:3 6:3 7:1 8:3 9:5 10:2 11:1 13:1 14:2 15:1 17:2 20:1 21:1 23:1 24:1 29:1 32:2 35:1 43:1 44:1 45:1 53:3 55:1 57:2 58:1 59:1 60:1 61:1 67:1 68:1 76:1 81:1 85:3 88:2 99:1 104:1 119:5 120:1 127:2 128:1 132:1 138:1 141:1 146:1 148:1 149:1 152:1 167:1 195:1 207:1 215:1 219:1 228:1 246:1 268:1 272:1 311:1 331:1 334:1 336:1 371:1 378:4 427:1 428:1 498:2 508:1 511:1 524:1 557:1 627:1 628:2 696:1 729:1 775:7 808:1 822:1 832:1 837:1 963:1 1001:1 1018:1 1095:1 1125:1 1214:1 1237:1 1242:1 1271:1 1300:1 1360:1 1451:1 1466:1 1481:1 1575:1 1869:1 2071:1 2074:2 2076:1 2357:1 2653:1 2964:1 3821:1 3925:1 4739:1 7277:1 7959:1 8126:1 8257:1 8374:1 10072:1 10174:1 10613:1 10829:1 12716:1 13593:1 15630:1 21372:2 22784:1 27934:1 32670:1 #
-0.0012658871448739921882625791837995 1:22 2:4 3:4 4:7 5:5 6:2 7:1 8:5 9:2 10:1 11:2 12:1 13:2 15:3 16:2 17:3 19:1 24:2 27:1 32:1 35:2 38:1 44:1 48:1 49:1 50:2 53:4 55:1 63:1 65:1 68:1 73:2 77:1 83:1 99:1 102:1 117:4 119:1 136:1 138:1 139:1 145:1 152:1 155:1 176:2 178:1 181:1 184:1 191:2 210:1 215:1 221:1 224:2 232:1 270:1 312:1 323:1 330:1 387:1 418:3 421:2 464:1 500:1 515:1 536:1 566:1 629:1 656:1 692:1 762:1 770:1 779:1 786:1 810:1 840:1 879:1 892:1 1059:1 1067:1 1073:1 1099:1 1123:1 1126:1 1177:1 1209:1 1279:1 1456:1 1549:1 1644:1 1648:1 1695:1 2033:1 2082:1 2127:1 2236:1 2568:1 2754:1 2881:1 3128:1 3423:3 3540:1 3657:1 3715:1 3904:1 4428:1 6692:1 7340:1 10404:1 10570:1 13946:1 14054:1 22997:1 41576:1 79006:1 86190:1 #
0.0012658871448739921882625791837995 1:45 2:12 3:11 4:13 5:8 6:12 7:17 8:12 9:5 10:3 11:10 12:7 13:7 15:5 16:9 17:9 18:8 19:2 20:2 21:3 22:2 23:2 24:4 26:3 27:2 29:1 30:1 31:3 34:4 35:2 36:2 37:6 38:1 39:2 40:4 41:3 42:1 43:7 45:2 46:1 47:3 48:2 49:2 50:1 52:7 53:3 54:2 55:2 57:2 60:1 61:2 62:1 63:2 64:1 65:3 68:3 70:3 71:2 72:1 73:3 75:1 78:1 79:1 81:2 83:1 85:3 86:1 87:2 88:1 89:1 92:4 93:2 94:1 97:2 98:1 99:3 102:3 103:1 104:1 107:1 110:3 111:1 113:2 114:1 116:1 118:2 121:1 123:9 124:1 128:1 130:1 131:2 133:1 138:1 140:2 142:2 143:1 146:1 149:3 152:1 155:2 158:1 161:2 164:1 167:2 169:1 171:1 177:2 178:2 179:1 181:1 185:1 196:1 201:1 206:3 209:2 211:1 217:1 224:1 226:1 227:1 228:1 231:1 232:1 237:1 240:1 243:3 249:2 264:1 267:3 270:3 272:1 273:1 280:1 291:1 294:4 306:2 319:1 327:1 331:2 332:1 335:1 353:1 358:1 363:1 372:1 376:1 377:1 384:1 385:1 386:1 388:1 398:5 401:1 404:1 408:1 426:2 429:1 432:1 441:2 470:1 474:1 482:1 486:1 488:1 500:1 512:1 517:1 522:1 555:1 556:1 557:2 562:1 579:1 580:3 587:1 599:1 612:1 626:1 636:3 650:2 659:1 666:2 681:1 687:1 697:1 741:1 747:1 797:1 836:1 868:1 885:1 889:1 896:1 901:2 904:1 912:1 915:1 918:1 938:1 977:3 1021:1 1062:1 1068:1 1163:1 1220:1 1224:1 1263:1 1272:1 1305:1 1408:3 1422:2 1541:1 1573:2 1636:1 1643:2 1674:2 1704:1 1758:1 1858:2 1885:1 1986:1 2095:1 2292:1 2459:1 2475:1 2504:1 2591:1 2693:1 2765:1 2988:1 3234:1 3354:1 3413:1 3440:7 3456:1 3550:1 3560:1 3575:1 3611:1 3805:1 3969:1 4222:1 4439:1 4620:1 4698:1 5094:2 5351:1 5358:2 5397:1 5897:1 5998:1 6258:3 6264:2 6290:1 6305:1 6390:1 6765:1 7171:1 7689:1 7790:3 8458:1 9098:1 9181:6 10064:1 10074:1 10288:1 11114:1 11302:1 11619:1 12806:2 12827:1 15110:1 15209:1 15241:1 17051:1 17580:1 20742:1 23636:1 23684:1 25839:1 27551:1 30024:2 31358:1 31677:1 43291:1 86423:1 87865:1 #
0.0012658871448739921882625791837995 1:28 3:25 4:9 5:10 6:16 7:15 8:6 9:9 10:3 11:9 12:5 13:3 14:7 15:1 17:4 18:6 19:6 20:2 21:4 22:2 23:1 24:2 25:7 26:5 27:2 28:1 29:1 30:5 31:5 32:2 33:4 34:1 35:2 36:2 37:1 38:1 39:2 40:1 41:1 42:3 43:3 44:5 45:2 46:3 47:1 48:3 49:6 50:3 52:4 54:3 55:1 59:1 60:3 62:1 63:1 64:2 66:2 67:1 69:1 71:5 72:1 73:1 74:2 75:1 77:1 78:1 80:1 82:1 83:1 85:2 86:1 88:1 89:3 91:2 92:3 93:1 94:2 96:1 97:1 98:1 99:2 101:1 103:1 106:1 108:1 110:2 113:1 118:1 120:1 121:1 122:1 124:1 126:1 130:1 139:3 142:1 151:1 153:1 154:1 155:1 157:1 160:2 170:2 174:1 176:1 177:1 178:1 179:1 181:1 182:1 183:1 184:3 186:1 187:2 188:4 189:1 190:1 197:1 199:2 203:1 204:1 207:1 215:1 216:1 217:1 219:2 220:3 222:1 227:3 228:1 231:2 235:1 240:1 252:1 256:1 259:1 262:2 267:1 273:1 283:1 285:1 286:1 290:1 297:1 300:1 309:2 321:1 325:1 327:2 328:1 349:1 351:3 352:1 353:1 359:1 360:1 361:1 380:1 388:1 390:1 393:2 397:1 401:1 410:1 414:2 419:1 423:1 443:1 445:1 452:1 457:1 462:1 468:1 475:2 476:1 477:1 483:2 490:1 491:1 503:1 507:1 513:1 522:1 525:1 526:2 540:1 541:1 548:1 555:1 584:2 585:1 590:1 594:1 595:1 609:1 612:1 622:1 624:1 646:1 661:1 672:1 680:1 681:1 685:1 692:1 696:2 705:1 708:1 709:1 725:1 727:1 735:1 742:1 746:1 748:1 754:1 756:1 767:1 773:1 781:1 783:1 791:1 794:1 806:1 808:1 810:1 845:5 848:1 862:1 870:1 880:1 891:1 927:1 961:2 974:1 979:1 984:1 988:1 1008:1 1024:1 1038:1 1049:1 1059:1 1060:1 1061:1 1068:1 1075:1 1102:1 1133:1 1169:1 1214:2 1247:1 1298:1 1313:1 1333:1 1382:1 1419:1 1445:1 1465:1 1584:1 1595:1 1624:1 1653:1 1731:1 1761:1 1858:1 1904:1 1945:1 1962:1 1970:1 1979:1 2195:1 2208:1 2370:1 2371:1 2372:1 2376:1 2477:1 2546:1 2599:1 2616:1 2668:1 2672:1 2677:1 2725:1 2860:2 2941:1 3135:1 3342:1 3413:1 3448:1 3470:1 3492:1 3589:1 3595:1 3750:1 3963:1 3984:1 4277:1 4396:7 4460:1 4620:1 4763:1 4864:1 4980:2 5325:1 5722:1 6420:1 6965:1 7190:1 7329:1 8021:1 8267:1 8322:1 8429:1 8502:1 8710:1 8813:1 9420:1 9526:9 9754:1 9912:1 10466:1 10750:1 11453:1 12819:1 12820:1 12904:1 13228:1 14043:1 14229:1 14400:1 15335:1 18097:1 19047:1 21048:1 21637:6 26827:1 35222:1 37307:1 38637:3 45862:1 59035:1 76151:1 #
0.0012658871448739921882625791837995 1:34 2:19 3:11 4:11 5:24 6:7 7:15 8:12 9:7 10:6 11:4 12:12 13:4 14:1 15:5 17:8 18:7 19:4 20:1 21:8 22:15 24:7 25:2 26:3 27:2 28:2 29:5 30:5 31:4 32:3 33:3 34:6 35:2 36:1 37:1 38:3 42:3 44:2 45:3 46:7 47:10 48:1 49:1 51:3 57:2 59:1 60:1 61:2 63:1 64:1 66:2 67:2 68:5 69:3 72:2 73:1 74:2 75:8 80:1 82:1 83:1 86:9 87:2 88:1 89:1 90:4 92:1 94:3 95:1 96:1 99:1 102:1 103:1 113:1 114:2 118:3 120:2 125:1 126:1 129:3 130:1 131:3 138:1 141:1 142:1 143:1 144:2 155:2 157:1 158:3 162:1 164:2 166:1 167:1 169:1 171:1 177:1 179:1 182:1 184:2 189:2 193:1 199:1 202:1 212:1 214:2 223:1 225:3 242:1 247:1 250:1 259:1 261:1 268:9 303:1 308:1 310:1 312:4 322:1 329:1 338:2 342:1 344:1 347:1 359:2 366:1 381:1 391:1 399:1 410:1 416:1 422:1 443:1 444:1 456:3 460:1 469:1 490:2 495:1 501:1 515:2 534:1 545:1 551:1 569:1 573:1 587:1 619:1 638:2 641:1 647:1 653:5 672:1 684:1 710:1 711:1 744:1 749:1 762:1 773:2 794:1 807:1 818:4 897:1 934:2 980:1 984:1 986:1 993:1 1007:1 1012:3 1053:1 1069:10 1087:1 1093:1 1099:3 1156:1 1292:1 1335:1 1337:1 1359:1 1414:1 1421:1 1461:1 1494:4 1523:1 1551:1 1560:1 1655:1 1710:2 1732:1 1818:1 1917:1 1927:1 1973:1 1989:1 2012:1 2041:1 2069:1 2153:1 2205:1 2215:1 2266:1 2390:1 2398:1 2500:1 2648:1 2653:1 2688:1 2736:1 2762:1 2774:1 2825:1 2853:1 2868:1 2878:1 2919:1 2976:1 3100:1 3125:1 3289:1 3363:1 3551:1 3553:1 3559:2 3828:1 3914:2 4007:3 4198:1 4203:1 4220:1 4288:1 4298:1 4367:5 4376:1 4387:1 4391:2 4785:2 5585:1 5700:2 5750:1 6106:1 6744:1 7129:1 7427:1 7572:1 7598:1 8419:1 8697:1 8741:1 8809:3 9983:1 10119:2 10195:1 10270:1 10506:1 10550:1 11745:1 11966:2 12150:1 13779:1 14369:1 16682:1 17759:1 18465:1 18545:1 23765:1 25376:1 26528:1 31510:1 33572:1 41383:1 45073:1 69089:1 #
0.0012658871448739921882625791837995 1:22 2:6 3:18 4:6 5:13 6:10 7:10 8:7 9:6 10:6 11:9 12:6 13:3 14:4 15:2 16:8 17:6 18:2 19:2 20:7 21:3 23:5 25:3 26:6 29:1 30:2 31:1 32:1 34:2 36:3 37:1 38:2 40:8 41:3 43:2 44:1 45:5 46:1 47:2 48:2 49:3 54:1 55:1 56:1 57:1 59:3 60:1 61:2 62:2 64:2 65:1 67:2 69:2 70:2 73:1 74:1 75:2 76:2 77:1 78:3 80:1 82:3 83:1 85:1 86:4 89:1 93:2 94:1 95:2 96:1 98:1 99:1 101:2 105:1 107:2 109:1 110:1 113:2 114:2 116:1 118:1 120:4 122:1 126:1 128:1 129:1 132:2 134:1 138:1 140:1 142:1 143:1 150:1 155:1 161:1 162:1 164:1 166:1 167:1 169:1 181:1 192:3 193:1 196:1 202:2 205:2 212:1 216:1 217:1 218:2 222:1 232:1 242:1 248:2 253:1 260:1 265:1 266:1 267:1 279:1 280:4 293:1 297:1 313:2 327:1 384:1 396:1 406:1 407:1 422:1 431:1 441:1 445:1 449:1 451:1 467:1 469:1 482:1 500:1 509:2 582:1 588:1 589:2 622:1 636:1 646:2 661:1 664:1 690:1 701:1 708:1 813:2 825:1 833:1 870:2 878:1 988:1 1019:1 1049:1 1238:1 1257:1 1274:1 1336:1 1410:1 1453:1 1598:1 1645:1 1678:1 1756:1 1766:1 1819:1 1822:1 1929:1 1991:1 2086:1 2115:2 2187:1 2191:1 2338:1 2418:1 2489:1 2521:1 2639:1 2700:1 2702:1 2742:1 2785:1 2820:1 2931:1 2947:1 3209:1 3246:1 3356:1 3653:1 3832:1 4063:1 4538:1 5237:1 5399:2 5658:1 5919:1 5926:1 6012:1 6052:1 6081:1 6295:1 6608:1 6858:1 6887:1 7303:1 7376:1 7447:1 7635:1 7636:1 7648:1 7883:1 8669:1 9756:1 9916:1 9930:1 10078:1 10297:1 12425:1 12461:1 13097:1 13741:1 18345:1 18365:1 20286:1 22644:1 25102:1 27110:1 28346:1 37962:1 44468:1 46121:1 #
0.0012658871448739921882625791837995 1:14 2:4 3:3 4:5 5:3 6:4 7:2 8:1 9:6 10:3 11:3 13:1 14:6 16:2 17:1 18:1 20:3 21:2 23:5 25:1 27:3 30:1 31:1 32:1 36:1 37:1 38:1 41:2 43:1 45:1 48:1 49:1 53:1 55:1 56:1 58:1 59:1 61:1 69:1 72:1 76:1 79:1 88:1 89:2 91:1 92:1 95:1 102:1 110:2 115:2 126:2 136:1 147:1 150:1 159:2 162:1 163:1 173:2 182:1 183:1 196:1 208:1 217:1 222:1 234:1 236:1 239:1 243:1 247:1 250:1 266:1 275:1 288:1 322:1 331:1 384:1 388:2 413:1 433:1 467:1 515:1 554:1 618:1 622:1 695:1 708:1 812:1 896:1 1099:2 1107:1 1138:1 1230:1 1232:2 1246:1 1249:1 1630:1 1673:2 1720:1 1722:1 1729:1 2282:1 2379:1 2469:1 2897:1 3410:1 3783:1 4853:1 4974:1 5086:1 6905:1 7794:1 9717:1 24963:1 26191:1 #
0.0012658871448739921882625791837995 1:2 2:3 4:2 8:2 11:1 14:1 16:1 22:1 24:3 26:1 27:1 29:1 31:1 102:1 110:1 116:1 122:1 140:1 141:1 333:1 459:1 587:1 604:1 660:1 711:1 837:1 922:1 1051:1 1802:1 3258:1 3967:1 7030:1 12270:1 13213:1 #
