SVM-light Version V6.02
0 # kernel type
3 # kernel parameter -d 
1 # kernel parameter -g 
1 # kernel parameter -s 
1 # kernel parameter -r 
empty# kernel parameter -u 
137150 # highest feature index 
5551 # number of training documents 
2312 # number of support vectors plus 1 
0.46827241 # threshold b, each following line is a SV (starting with alpha*y)
-0.00054179882947949454998631813040788 1:1 8:1 10:7 14:1 19:1 23:1 25:3 83:1 128:1 137:1 151:3 162:2 228:1 311:1 497:2 539:3 572:1 660:1 718:1 1268:2 1902:1 2195:1 2326:1 3269:1 15795:1 20984:1 21100:1 23415:1 24969:1 26839:1 27110:1 28408:1 28432:1 28667:1 31987:1 35890:1 37622:1 39135:1 49883:1 50619:1 54591:1 82916:1 92040:1 95379:1 111250:1 113499:1 127740:1 127741:1 127742:1 #
0.00054179882947949454998631813040788 1:1 8:2 10:1 20:2 28:6 29:1 39:1 41:1 43:1 63:2 72:1 111:2 117:2 177:1 200:2 222:1 240:1 262:1 277:1 365:1 437:1 563:1 724:10 750:1 856:1 861:1 981:1 990:1 1226:1 2449:1 3322:1 3332:1 3397:1 3425:1 3525:1 3923:1 4456:1 4457:1 4518:1 5760:1 5785:1 8259:1 8518:1 11174:9 12103:1 12886:1 42873:1 #
-0.00054179882947949454998631813040788 1:1 8:5 10:3 14:2 20:1 28:2 56:4 68:1 88:1 123:1 130:1 150:2 172:2 403:1 558:1 572:1 665:1 964:1 1241:1 2195:1 2519:1 2520:1 3398:1 4106:1 6076:1 7117:2 7858:1 11448:1 13871:1 15004:1 29091:1 29891:1 29892:1 29893:1 29894:1 87018:1 108398:1 #
-0.00054179882947949454998631813040788 1:1 8:1 10:6 14:2 19:5 20:73 27:1 28:2 48:2 56:16 68:2 83:1 86:1 111:1 115:2 117:2 140:1 150:3 163:3 172:14 173:4 182:1 242:1 311:1 332:1 337:1 408:1 509:1 539:1 540:1 541:1 548:2 571:1 587:1 613:1 724:4 729:2 780:1 785:1 839:1 853:1 1024:1 1034:34 1076:1 1083:1 1259:1 1303:1 1662:1 1688:1 2417:1 2519:2 3251:1 3495:1 3584:9 4285:1 5007:1 5144:1 5441:1 5452:1 10593:1 17284:1 19669:1 23225:1 24569:1 29866:1 33389:4 42170:1 47120:1 47776:1 49423:1 49424:1 49425:1 49426:1 #
-9.5746606076593739108673841720076e-05 1:1 8:17 10:18 20:82 21:1 22:1 28:14 33:2 42:1 59:1 70:6 111:5 117:5 128:4 131:1 160:5 161:6 172:2 182:2 254:1 539:7 570:1 611:6 643:8 787:2 964:6 1143:2 2145:1 2345:1 2520:1 2667:1 2884:4 3524:1 3584:1 3824:2 4166:2 4247:1 4938:2 5726:1 6223:1 6415:1 7118:2 7180:2 7377:3 8186:4 8411:1 8721:1 9956:1 10613:2 11198:1 11333:1 11765:1 11786:5 12090:2 12177:1 14300:9 19890:1 20413:1 20744:1 20786:1 20787:1 20788:1 21037:1 22135:1 27294:2 31001:5 37446:3 37769:2 37775:2 40383:4 43391:3 44096:3 44103:1 44336:1 44420:2 47050:1 47054:6 47055:2 47066:1 47067:7 47068:4 49943:1 49948:9 49955:1 49960:2 49962:3 49969:2 49975:2 49988:1 50003:1 50005:1 50022:1 50236:1 50244:1 50246:1 50255:1 50262:1 50280:8 50283:1 50545:3 50560:1 50563:1 50596:1 50599:1 53741:3 58576:1 60150:3 61537:2 68188:1 72435:1 72893:2 89614:1 89702:1 89709:2 89720:1 89750:2 89773:1 89786:1 91854:1 91855:2 91859:1 91863:1 93214:1 94776:1 95035:1 103628:1 117010:1 118180:2 118186:1 118901:1 121066:1 121071:2 125286:1 127363:9 127364:2 127365:1 127366:2 127367:1 127368:1 127369:1 127370:1 127371:4 127372:1 127373:2 127374:2 127375:3 127376:1 127377:1 127378:1 127379:1 127380:1 127381:1 127382:1 127383:1 127384:1 127385:1 127386:1 127387:1 127388:1 127389:1 127390:1 127391:1 127392:1 127393:2 127394:2 127395:1 127396:1 127397:1 127398:1 127399:1 127400:1 127401:1 127402:1 127403:1 127404:1 127405:1 127406:1 127407:1 127408:1 127409:1 127410:1 #
-7.6984635598854913294576685078852e-05 1:1 8:7 10:31 13:1 14:7 19:8 20:44 21:6 22:75 23:43 25:2 27:1 28:15 29:1 30:36 31:5 33:3 39:4 40:5 41:1 42:11 43:4 47:8 48:5 50:3 51:256 54:1 56:210 59:1 68:4 70:1 71:1 74:1 78:1 82:2 83:2 86:5 88:1 91:1 99:135 115:1 116:1 124:2 137:4 140:3 150:2 160:6 162:2 163:1 173:1 177:1 182:4 191:4 193:1 209:1 224:2 239:1 242:1 252:1 254:7 266:1 274:1 337:1 363:1 371:1 409:10 437:1 489:1 495:1 539:4 541:5 548:2 558:1 560:1 572:3 575:3 579:2 581:1 596:6 607:1 636:1 643:1 645:1 658:1 680:1 766:1 784:1 785:1 787:2 836:1 839:2 858:1 874:2 876:3 877:2 896:1 914:1 916:1 917:14 964:4 966:1 983:5 1034:6 1049:1 1051:2 1059:1 1064:8 1094:1 1167:1 1175:1 1227:1 1296:2 1312:26 1394:1 1407:1 1531:1 1533:1 1540:5 1593:337 1650:1 1694:3 1906:1 2041:1 2288:1 2302:1 2313:1 2444:1 2495:1 2519:1 2520:3 2573:1 2591:27 2666:1 2687:1 2756:1 2782:1 2828:1 2974:1 2993:1 3031:1 3057:1 3473:1 3479:1 3498:1 3623:2 3756:1 3808:2 3835:1 4098:1 4303:47 4313:5 4335:48 4521:2 4626:23 4697:1 4755:1 4768:1 4928:4 4939:1 5110:1 5255:3 5428:1 5895:1 5984:1 5985:1 5986:1 6021:1 6161:1 6179:1 6261:1 6262:16 6735:4 6763:1 6845:1 6896:1 6942:1 7020:14 7950:1 7966:1 8077:1 8499:1 8614:1 8733:1 8809:3 9072:1 9134:1 9406:1 9412:7 9982:1 9992:1 10318:1 10602:1 10793:1 10859:1 11207:75 11363:1 11940:1 12079:1 12137:1 13191:1 13389:10 13443:1 14216:1 14217:1 14393:1 14403:1 14524:2 14644:1 15175:1 15351:1 15506:1 15718:1 15722:1 17078:1 17567:1 17600:1 17670:75 17990:1 18409:2 18659:1 20018:1 20282:1 20431:2 20442:1 20443:1 20445:1 20452:1 20544:1 20615:1 20683:4 20802:2 20828:2 20829:1 20837:17 20838:3 20839:4 20840:22 20844:9 20849:5 20853:13 20860:1 20861:3 20864:5 20870:1 20887:3 20894:32 20895:9 20983:1 20984:1 21368:1 21380:1 21492:2 21589:1 21709:1 21927:1 22385:1 22386:1 22388:1 22389:2 22390:1 22391:1 22392:2 22394:1 22395:1 22396:1 22397:1 24275:1 24578:1 24580:1 24581:1 24582:1 24583:1 24584:1 24585:1 24586:1 24587:1 24588:5 24589:1 24590:1 24591:1 24592:1 24593:7 24594:1 24596:4 24597:11 24598:1 24599:22 24600:1 24601:1 24602:3 24603:3 24604:1 24605:2 24606:1 24607:4 24608:1 24609:1 24610:1 24611:1 24612:1 24613:1 24614:1 24615:1 24616:1 24617:1 24618:1 24619:1 24620:4 24621:7 24622:20 24623:1 24624:10 24625:7 24626:11 24627:5 24628:6 24629:4 24630:3 24631:1 24632:2 24633:1 24634:2 24635:3 24636:2 24637:1 24638:1 24639:1 24640:1 24641:1 24642:1 24643:1 24644:1 24645:1 24646:1 24647:1 24648:1 24649:2 24650:3 24651:1 24652:1 24653:1 24654:1 24655:2 24656:1 24657:1 24658:1 24659:1 24660:1 24661:1 24662:1 24663:1 24664:1 24665:1 24954:1 25096:1 25721:1 27024:1 27386:1 27596:1 28171:1 28190:1 28245:1 28356:1 29852:1 30245:1 30275:1 30283:1 30689:1 31970:1 32939:1 33078:1 33152:1 33679:1 33682:1 34001:1 34190:1 34798:1 35904:1 36985:1 37538:1 37805:1 40479:1 41780:1 42794:1 44210:1 45159:1 46516:1 46929:1 47425:1 49076:1 49158:1 58771:1 61420:1 63599:1 87048:1 89374:1 89415:1 90647:1 95319:1 100868:1 101055:1 102556:1 103012:3 103013:1 103014:1 103015:1 103016:1 103017:1 103018:1 103019:1 103020:1 103021:1 103022:1 #
-0.00054179882947949454998631813040788 1:1 10:2 14:1 20:3 25:1 33:1 182:1 287:1 407:1 572:1 595:1 636:1 729:1 876:3 917:2 966:1 1180:1 1384:1 1883:1 2186:1 2197:1 2523:1 2569:1 3713:1 3850:1 3901:1 5622:1 5661:1 5975:1 5976:1 7829:1 7958:1 11060:1 11305:1 11461:1 13011:1 13174:1 14625:1 15784:1 15993:1 16791:1 16868:1 17078:1 17570:1 21932:1 22169:1 23140:1 23146:1 23596:1 24755:1 24917:1 25046:1 25124:1 25266:1 25284:1 25285:1 25286:1 25287:1 25288:1 25289:1 25290:1 25291:1 25292:1 25293:1 25294:1 25295:1 25296:1 25297:1 25298:1 25299:1 25300:1 25301:1 25302:1 25303:1 25304:1 25305:1 25306:1 25307:1 25308:1 25309:1 25310:1 25311:1 25312:1 25313:1 25314:1 25315:1 25316:1 25317:1 25318:1 25319:1 25320:1 25321:1 25322:1 25323:1 25324:1 #
-0.00054179882947949454998631813040788 1:1 20:1 48:1 75:1 83:2 118:1 132:2 137:2 189:1 226:1 232:1 287:1 533:1 539:2 687:1 2689:2 4331:1 4612:1 10227:2 11984:1 30092:1 32246:1 #
-0.00054179882947949454998631813040788 1:1 8:3 28:1 40:1 83:3 124:1 163:1 242:1 311:1 718:1 1404:1 2711:1 6567:1 16807:1 17552:1 27275:3 30071:1 42407:1 114625:1 #
-0.00054179882947949454998631813040788 1:1 10:2 19:2 20:2 34:2 54:1 572:2 788:2 876:2 3501:2 3653:2 4897:2 8038:2 28842:2 68384:1 131726:1 #
0.00054179882947949454998631813040788 1:1 10:3 13:1 15:1 19:1 20:1 23:2 40:2 56:2 75:1 82:1 88:2 111:1 117:1 140:1 150:1 162:1 163:1 186:1 227:1 232:1 242:1 249:2 287:2 294:1 295:1 305:1 310:3 311:1 337:1 363:1 364:1 482:2 484:1 773:1 887:1 1053:1 1127:1 1475:1 1810:1 1915:1 15244:1 15245:1 15246:1 #
-0.00054179882947949454998631813040788 1:1 8:2 10:3 13:1 19:1 20:45 21:1 29:1 30:1 43:3 68:1 75:1 88:1 118:1 128:1 210:2 226:1 337:1 494:1 531:2 539:1 548:2 619:1 656:1 687:1 718:1 724:4 909:1 966:1 999:1 1031:1 1143:1 1242:1 1296:1 1406:1 1609:1 1682:1 1998:1 2145:1 2146:1 2359:1 2369:1 2513:1 2563:1 2614:1 2788:1 2939:1 3097:2 3495:1 3626:1 4000:1 4363:1 7126:1 8890:2 10931:1 110177:1 #
-0.00013065741828025833628189322777047 1:1 8:16 10:14 13:4 14:12 19:4 20:4 25:3 27:1 28:1 31:1 40:8 43:2 47:5 48:3 54:1 56:2 61:1 63:2 68:18 75:1 78:1 81:1 82:8 83:5 88:2 99:1 109:5 123:8 124:1 128:1 131:1 133:4 140:2 150:16 155:1 162:4 163:1 167:2 226:5 228:1 232:1 242:7 252:3 254:1 287:1 292:2 293:1 294:1 309:1 321:1 332:1 336:1 403:3 408:1 409:2 411:1 460:1 462:3 497:1 523:1 533:1 536:1 539:7 540:1 541:3 548:2 568:3 572:6 576:1 601:2 622:1 646:1 655:1 660:2 661:1 677:1 679:2 681:1 687:1 711:1 720:2 724:160 729:1 853:1 887:2 954:1 966:1 974:1 989:1 1033:1 1075:1 1076:1 1084:1 1179:1 1186:1 1225:2 1241:3 1245:1 1268:1 1270:1 1296:1 1304:1 1394:1 1406:2 1538:1 1539:1 1609:1 1648:1 1688:1 1694:1 1709:1 1821:1 1905:1 1998:1 2060:2 2175:1 2177:1 2195:1 2217:1 2306:1 2405:1 2519:1 2618:1 2765:1 3057:1 3228:1 3345:1 3347:1 3365:1 3398:2 3443:1 3494:1 3545:1 3611:1 3617:1 3796:2 3830:1 3843:1 3889:1 4230:1 4271:1 4272:1 4318:1 4333:9 4356:1 4363:1 4394:1 4448:1 4469:1 4796:1 4864:1 4916:1 4978:1 4996:1 5037:2 5069:1 5070:1 5073:1 5094:1 5097:1 5123:1 6289:1 6467:1 6479:1 6768:1 7555:1 7636:1 7814:1 7926:1 8036:1 8155:1 8686:1 9969:1 10314:1 10409:1 10432:1 10506:1 10594:1 11179:1 11267:1 13090:1 13103:2 13725:1 15187:1 15650:2 15669:1 16638:1 16839:2 18659:1 19623:1 19951:1 20118:1 20595:8 20754:1 21308:1 22405:1 24302:1 26008:1 30338:1 38834:1 40204:1 42590:2 45225:1 59033:1 60578:1 61074:1 63492:1 65595:1 65596:1 130202:1 #
-0.00054179882947949454998631813040788 1:1 8:4 10:2 14:2 20:2 27:1 31:1 43:2 68:3 82:1 83:4 84:1 111:1 117:1 128:2 137:1 140:1 150:2 182:1 210:1 226:1 252:1 288:1 332:1 408:2 409:2 460:2 517:2 540:1 541:1 558:1 718:1 974:1 1402:1 1901:1 1994:1 2160:1 2223:1 2286:1 2445:1 2580:1 3081:1 4919:1 5990:1 7241:1 8047:1 9043:1 11784:1 20370:1 34298:2 34812:1 66057:1 105297:1 125118:1 #
-0.00048978292113392111334357892360458 1:1 8:30 10:40 13:5 14:18 19:8 20:6 25:11 27:2 28:29 30:2 32:2 40:17 41:1 43:18 46:1 48:17 54:3 56:1 59:1 63:1 67:1 68:19 70:13 74:1 75:1 76:3 80:1 82:4 83:1 86:1 88:2 94:7 100:1 109:6 111:23 115:2 117:24 123:4 124:1 127:1 128:4 140:2 150:3 151:1 153:1 156:1 160:1 161:1 162:6 166:1 168:1 180:1 191:1 200:2 205:1 211:39 214:1 218:1 224:2 226:4 232:2 241:4 242:2 243:1 252:3 267:1 274:1 284:1 285:2 287:1 291:5 306:8 311:2 369:1 371:1 389:2 403:2 406:1 408:1 413:1 437:1 460:3 494:1 495:1 500:1 503:5 509:1 529:1 548:2 558:3 562:1 572:1 576:2 579:1 588:2 601:1 605:1 610:1 631:1 643:1 646:1 654:1 660:1 662:1 679:1 694:1 741:2 745:1 751:1 769:2 835:2 836:1 858:1 861:2 874:1 877:1 909:1 943:1 952:1 954:1 964:10 965:1 966:22 972:1 989:1 1047:1 1073:1 1074:2 1075:1 1076:3 1089:1 1147:1 1152:1 1170:1 1207:1 1260:1 1267:1 1268:1 1270:1 1279:1 1332:1 1363:1 1392:1 1403:1 1406:3 1531:2 1533:2 1646:2 1669:1 1687:1 1709:1 1755:1 1827:1 1830:1 1838:1 1883:1 1886:1 1930:1 2060:1 2127:1 2131:1 2160:2 2220:1 2230:1 2245:1 2246:1 2326:2 2362:1 2400:1 2442:1 2479:1 2485:1 2501:1 2507:5 2508:1 2516:2 2524:1 2563:1 2589:1 2652:1 2688:1 2738:2 2747:1 2762:3 2765:1 2796:1 2819:11 2846:1 2869:5 2884:13 2941:1 3032:1 3072:1 3074:1 3113:2 3152:1 3158:1 3167:1 3199:1 3208:1 3243:1 3286:1 3322:1 3371:1 3611:1 3714:1 3717:1 3810:1 3854:1 3888:1 3908:1 3949:1 4088:1 4132:1 4280:1 4342:1 4359:1 4413:1 4450:1 4456:2 4459:1 4465:1 4469:1 4471:1 4576:1 4796:1 4912:4 4938:2 4949:1 5050:1 5170:1 5182:1 5249:1 5315:1 5391:1 5417:1 5471:1 5497:1 5600:1 5611:1 5671:1 5699:1 5809:1 5810:1 5860:1 5975:2 6078:1 6282:1 6289:1 6309:1 6352:1 6395:1 6630:1 6686:1 6695:1 6711:1 6726:2 6742:1 6757:1 6808:1 6850:2 6855:2 7325:1 7330:1 7331:11 7377:5 7531:1 7584:2 7718:1 7844:1 7887:1 7926:1 8227:2 8352:1 8637:1 8681:1 8684:1 8690:1 8720:1 8819:1 8824:2 8938:1 8963:1 9905:2 9908:1 9992:2 10020:1 10155:1 10315:10 10560:1 10905:1 11099:1 11267:1 11375:1 11865:1 11909:1 11938:1 12496:2 12631:1 13487:5 14080:5 14083:7 14543:1 15001:1 16874:1 17078:3 18473:2 19150:1 19277:1 19575:1 21132:1 22263:1 22473:1 23600:5 24375:1 25375:1 25484:1 27277:1 27543:9 28304:1 29817:1 31905:1 31910:1 34701:1 36908:1 37905:1 38529:2 39383:2 42482:2 49155:1 51090:1 51390:1 51889:1 52893:1 53386:1 58150:1 59101:1 60556:1 60704:1 66276:1 69512:1 72767:1 73067:1 73735:2 75796:1 76562:1 77589:1 78523:1 80392:1 82536:1 85993:2 103565:1 104822:1 111175:2 113482:2 121668:1 127359:2 129501:1 130738:1 135734:4 135735:1 135736:2 135737:1 135738:1 135739:1 135740:2 135741:3 135742:3 135743:1 135744:2 135745:1 135746:1 135747:2 135748:2 135749:2 135750:1 135751:1 135752:1 135753:1 135754:2 135755:1 135756:1 135757:1 135758:2 135759:1 135760:2 135761:1 135762:1 135763:1 135764:1 135765:1 135766:1 #
-0.00054179882947949454998631813040788 1:1 8:2 10:24 14:6 19:7 20:4 23:2 25:2 28:2 31:2 34:1 40:9 43:5 47:2 48:5 54:2 56:9 63:1 68:14 70:2 74:2 75:2 78:2 81:1 82:12 83:3 88:3 90:1 94:3 123:1 128:5 133:4 134:1 137:3 140:1 149:2 150:17 155:2 162:2 163:1 167:10 191:3 213:1 218:1 226:1 232:5 242:2 252:1 274:1 285:1 287:3 292:1 297:1 306:1 336:2 337:1 363:1 403:4 408:3 460:1 495:1 509:1 519:1 525:3 531:1 547:3 560:1 568:2 572:3 575:3 576:1 601:3 614:2 639:1 643:2 654:1 677:1 704:2 729:1 766:2 769:1 787:3 865:1 887:1 907:1 915:2 960:1 964:2 966:1 974:1 975:1 1022:1 1034:5 1083:1 1137:2 1208:1 1225:1 1268:1 1312:1 1355:1 1394:1 1530:1 1585:1 1593:37 1649:1 1692:1 1694:1 1811:1 2007:1 2041:1 2145:2 2267:1 2274:2 2389:1 2765:1 2919:1 2937:1 3156:1 3347:1 3408:1 3625:3 3755:1 3808:2 3885:1 4204:1 4402:1 4587:1 4688:1 4739:2 4763:1 4882:2 5312:3 5452:1 5476:1 5509:1 6079:1 6634:1 6735:1 6810:2 8609:3 8682:1 8686:1 9123:1 9634:6 10318:1 11363:1 12792:1 14469:2 17625:1 19615:1 20046:1 21335:1 30341:1 39321:1 42643:1 48500:1 54763:1 63189:1 68659:1 68660:1 68664:1 68934:1 133915:2 134284:1 #
-0.00015903644591662552377174522089121 1:1 2:1 8:39 9:5 10:28 13:1 14:42 15:17 19:7 20:11 21:2 23:1 25:2 27:5 28:5 40:25 41:1 42:1 43:6 47:1 48:19 54:1 63:1 68:26 78:1 81:1 83:11 88:4 103:1 109:5 111:27 115:1 117:27 123:3 128:9 133:1 137:9 140:1 150:1 177:2 191:3 202:2 214:1 226:7 227:1 236:1 242:1 243:3 246:2 270:1 274:3 288:1 291:1 294:1 305:1 306:8 334:1 337:1 403:4 405:1 409:2 436:1 455:1 460:6 466:1 498:1 500:3 501:3 518:1 525:1 527:1 531:1 533:3 536:1 539:1 540:2 541:2 547:2 548:3 558:3 560:4 575:1 606:1 610:1 614:4 619:1 628:1 635:1 646:1 647:1 673:1 704:3 715:1 718:1 726:1 833:1 835:1 836:1 876:1 877:1 910:4 941:1 980:1 1008:13 1018:1 1034:3 1047:5 1053:2 1076:2 1083:1 1110:2 1133:1 1143:1 1215:3 1302:1 1321:1 1330:1 1355:9 1367:1 1443:1 1539:1 1548:1 1555:1 1599:1 1619:1 1649:1 1744:1 1798:1 1905:1 2084:2 2145:1 2197:1 2205:2 2216:1 2221:1 2241:1 2248:1 2272:1 2305:1 2323:1 2325:2 2432:1 2436:1 2448:1 2518:1 2524:1 2554:1 2556:6 2567:1 2569:2 2588:1 2618:1 2689:1 2738:1 2819:5 2822:1 2852:1 2869:2 3063:1 3078:3 3095:5 3104:2 3199:1 3250:4 3316:1 3323:1 3335:3 3348:3 3351:2 3365:9 3399:1 3465:1 3486:2 3505:4 3523:1 3537:1 3550:3 3553:2 3728:6 3810:4 3813:1 3815:1 3818:1 3831:1 3858:8 3864:1 3877:2 3891:2 3923:13 3945:1 3988:1 3990:3 4000:1 4018:8 4027:1 4048:1 4315:6 4676:1 4694:1 4939:4 4952:3 5078:2 5261:1 5391:10 5444:1 5453:1 5556:1 5593:1 5681:1 6321:1 6393:1 6398:1 6485:1 6567:1 7648:2 7717:1 7778:9 7838:1 7906:1 8044:1 8699:1 8809:1 8958:1 9059:1 9062:5 9107:1 9987:1 9994:1 10315:1 10375:2 10432:1 10624:10 10727:2 11379:1 11776:1 11914:1 11931:9 11964:2 14631:2 14766:1 15805:1 16154:1 16372:1 17628:1 17680:2 17804:3 17880:1 17972:1 19653:1 19982:10 20925:3 22548:1 24052:4 27010:1 27835:1 28670:6 28719:6 28730:1 33110:1 38279:1 48597:3 49902:1 49903:6 49904:1 49905:1 49906:8 49907:1 49908:10 49909:1 49910:1 49911:1 49912:1 49913:1 49914:1 49915:1 49916:1 #
0.00019905489530515970298535366467263 1:1 8:27 10:60 13:2 14:12 19:12 20:4 22:1 23:1 25:5 28:6 30:1 31:2 39:1 40:30 43:16 48:7 56:9 63:1 68:27 70:2 74:1 75:5 79:1 82:38 83:12 88:4 90:3 92:6 94:11 101:1 109:5 115:1 116:1 118:2 123:22 124:2 127:1 128:8 130:1 131:5 133:6 137:3 140:5 150:16 151:4 155:2 161:1 162:3 163:11 177:2 215:1 216:3 226:14 227:2 228:1 232:15 242:9 252:4 285:1 286:2 287:2 290:1 291:4 292:1 294:1 306:4 312:1 332:1 336:1 337:1 363:7 364:2 365:5 367:2 403:4 408:2 409:1 411:1 413:1 460:6 461:1 490:1 491:2 523:2 531:2 533:1 537:1 539:15 540:2 541:5 558:4 559:4 562:1 572:8 575:2 576:1 601:2 613:2 614:2 620:3 643:2 652:1 654:1 656:1 658:1 660:2 665:1 672:3 673:1 679:1 718:1 730:8 748:4 754:1 761:2 766:3 770:3 787:1 835:1 836:1 887:2 943:1 954:1 964:4 966:1 974:2 983:1 1022:1 1069:1 1083:6 1089:1 1113:1 1146:1 1155:1 1162:6 1179:1 1206:1 1207:1 1216:1 1241:1 1254:1 1268:4 1270:2 1296:1 1315:2 1322:1 1341:1 1348:1 1386:1 1387:1 1394:1 1412:1 1547:1 1572:1 1593:132 1626:3 1648:1 1649:1 1725:1 1905:1 1906:1 1930:1 1939:1 1997:1 2006:1 2007:1 2082:1 2130:1 2155:3 2198:4 2199:1 2201:3 2204:1 2274:1 2320:1 2323:2 2417:1 2431:3 2433:1 2435:1 2470:1 2519:2 2520:1 2522:1 2555:1 2557:1 2561:1 2567:1 2591:1 2691:1 2711:1 2713:1 2738:1 2746:1 2751:1 2810:1 2822:1 2858:1 2880:2 2937:1 3386:1 3710:2 3760:1 3778:1 3972:1 4031:1 4057:1 4083:1 4301:2 4356:1 4363:1 4481:1 4521:1 4633:1 4719:1 4769:2 4863:1 5027:1 5097:1 5115:1 5249:2 5390:2 5703:1 6206:1 6384:1 6626:1 7285:5 7577:1 7861:1 7940:6 7973:12 8544:1 8734:1 8754:1 8984:1 10058:1 10543:1 10555:1 10623:1 11437:1 11788:1 12426:1 12576:1 13080:1 13140:1 14274:1 14314:1 14526:2 15100:1 15301:1 15469:1 15729:1 16012:2 16030:14 16031:1 16208:1 17027:1 17039:1 17055:1 17056:1 17057:3 17562:1 17613:1 17614:1 17615:1 17616:1 17617:1 17618:1 17619:1 17620:1 17621:1 17622:1 17623:1 17624:2 17625:1 17626:1 17627:2 17628:1 17629:1 17630:1 17631:2 17632:1 17633:1 17634:2 17635:1 17636:1 17637:1 17638:1 17639:1 17640:1 17641:1 17642:1 17643:1 17644:1 17645:1 17646:1 17647:1 17648:1 17649:1 17650:1 17651:1 #
0.00054179882947949454998631813040788 1:1 7:1 8:10 10:11 14:4 19:2 20:3 22:1 25:1 27:4 28:9 29:2 30:2 31:2 39:1 40:6 43:1 48:1 54:1 56:5 68:5 81:1 83:4 88:1 109:1 111:2 117:2 123:1 128:8 129:1 133:1 137:3 140:1 145:2 148:1 150:4 151:1 161:1 162:3 177:1 182:1 191:1 226:2 254:1 263:1 272:1 292:1 293:1 297:1 306:1 365:1 381:1 403:1 407:1 460:3 480:1 517:1 519:2 537:1 539:5 540:1 541:1 546:1 547:1 558:1 563:1 572:3 605:1 643:1 646:1 673:1 682:1 736:1 738:1 751:2 787:4 876:2 1034:204 1035:1 1049:1 1051:1 1117:1 1201:1 1312:1 1348:1 1355:2 1380:1 1406:1 1542:1 1619:1 1649:1 1772:2 1878:1 2023:1 2028:1 2202:1 2325:1 2364:2 2585:1 2629:2 2756:1 3018:1 3034:1 3044:1 3097:2 3243:2 3501:3 3510:1 3703:1 3876:1 3917:1 3947:1 3957:2 4226:1 4301:2 5088:1 5400:1 5436:1 5530:1 5597:1 6066:1 6075:1 7234:1 7486:1 7531:1 8221:1 8794:1 8827:1 9220:1 10302:1 10360:1 11150:1 12840:1 12987:1 15687:4 15688:4 15689:3 15690:1 15691:1 15692:1 15693:1 15694:1 15695:1 15696:1 15697:1 15698:1 15699:1 15700:1 15701:2 15702:1 15703:1 15704:1 15705:1 #
-0.00054179882947949454998631813040788 1:1 8:10 10:12 14:5 19:2 20:5 21:1 28:1 40:6 41:1 42:3 43:1 48:5 51:1 54:1 63:1 68:11 70:1 75:1 76:4 82:5 92:2 94:2 109:2 111:1 115:5 116:1 117:1 123:2 124:2 127:1 128:6 133:3 134:1 140:5 150:12 151:1 157:1 162:3 163:1 177:2 179:1 180:1 191:2 214:1 215:1 226:5 229:1 242:3 252:1 254:1 292:4 306:1 332:2 337:1 403:5 408:3 409:3 455:1 480:1 495:1 501:1 523:1 568:1 572:1 613:1 623:1 673:1 704:2 720:1 724:13 766:2 835:1 876:3 964:1 1076:1 1143:4 1225:1 1394:2 1547:1 1649:1 1669:1 1682:1 1797:1 1996:1 1998:1 2007:1 2160:1 2217:1 2252:1 2332:1 2389:1 2445:2 2495:2 2556:1 2580:1 2592:1 2773:3 2834:2 2951:1 3156:1 3755:1 3817:1 3848:1 3877:1 4368:1 4369:1 4465:1 4587:1 5129:1 5398:1 5510:2 5877:2 6058:1 6334:1 6926:1 9269:1 9634:1 9894:1 10318:3 10745:1 11112:2 11684:2 11975:1 14857:1 15186:2 16925:1 19939:2 26092:1 46227:1 66555:2 66556:1 66557:1 #
0.00054179882947949454998631813040788 1:1 8:2 10:1 13:1 14:2 27:2 40:1 43:1 48:1 68:1 82:1 83:1 86:1 87:1 88:2 92:2 109:1 111:1 117:1 128:1 133:1 140:1 150:3 151:1 155:1 163:2 169:1 173:1 242:1 409:1 531:1 548:2 558:1 614:1 711:1 766:1 781:3 1009:1 1076:2 1296:1 1543:1 1547:1 2160:1 2210:1 2402:1 3495:1 3921:1 6079:1 6949:1 7682:1 7728:1 7914:1 17085:1 30129:1 56214:1 56220:1 #
-0.00054179882947949454998631813040788 1:1 8:71 9:1 10:14 13:1 14:7 16:1 19:1 20:1 21:4 23:3 25:1 28:5 32:1 33:1 34:5 39:1 40:2 41:4 42:63 46:1 47:4 48:5 51:2 56:6 59:4 60:3 62:2 67:1 68:6 70:2 74:1 81:1 83:2 86:2 88:3 100:1 102:2 109:2 111:1 115:1 117:1 123:1 124:1 128:4 131:1 133:2 134:1 137:2 140:2 150:6 155:1 157:2 162:1 163:3 165:2 166:1 168:1 171:3 179:2 182:1 186:3 189:2 191:3 193:2 196:2 198:2 200:3 202:1 205:1 222:2 226:3 239:2 240:2 242:1 254:2 263:2 266:2 267:1 274:1 279:2 285:1 287:1 290:1 291:1 306:3 308:2 309:1 327:1 332:1 369:1 407:4 409:1 413:1 428:2 429:1 460:2 466:2 533:4 546:1 558:1 572:2 576:2 579:1 601:1 624:1 639:1 643:1 680:1 694:1 718:1 726:1 745:1 753:1 762:2 783:2 810:1 858:1 874:1 877:1 893:2 914:1 915:1 920:1 930:1 961:2 962:2 964:3 965:1 966:1 972:1 990:1 994:2 995:1 999:6 1008:1 1022:1 1030:1 1037:2 1049:1 1053:3 1094:2 1134:2 1148:1 1170:1 1171:1 1175:1 1206:1 1247:2 1267:1 1289:1 1355:1 1363:1 1392:1 1412:1 1443:1 1446:1 1574:1 1648:1 1682:1 1687:1 1709:1 1738:1 1769:1 1827:1 1830:1 1883:1 1884:1 2007:1 2018:1 2084:1 2241:2 2245:1 2246:1 2330:3 2439:1 2470:1 2479:1 2485:1 2513:1 2556:2 2572:1 2796:3 2835:1 3023:1 3057:1 3094:1 3095:2 3113:1 3611:1 3626:1 3716:1 3728:1 3796:1 3879:1 3949:1 4008:1 4049:1 4052:1 4054:1 4356:1 4359:3 4363:1 4459:1 4587:1 4612:1 4628:1 4630:1 5027:2 5050:2 5101:2 5188:1 5249:1 5622:1 5726:1 5881:1 5893:1 5895:1 5936:1 6027:1 6078:1 6141:1 6223:1 6228:1 6289:1 6295:1 6380:1 6395:1 6478:1 6735:1 6742:1 6755:1 6757:1 6890:1 7094:3 7613:1 7615:1 7887:1 7926:1 8077:3 8174:1 8345:1 8515:1 8690:1 8712:1 8720:1 8741:1 8924:1 8941:1 9081:1 9084:1 9223:1 9752:1 10199:1 10419:2 10424:1 10521:1 10608:2 11240:1 11267:1 11384:1 11405:1 11423:1 11788:1 11843:2 11848:1 11983:1 12424:2 12985:1 13258:1 13343:1 13785:1 13984:1 14009:1 14494:1 14548:1 14561:1 14564:1 15964:1 15999:1 16517:1 16575:1 17023:1 20975:1 21059:1 21583:1 21863:1 23565:1 25155:1 25201:1 26543:1 28718:1 29048:1 30230:1 31071:2 32938:1 37302:1 38944:1 40157:1 42203:1 47923:2 52631:1 58359:1 60332:1 64115:1 64187:2 64936:2 66374:1 #
-0.00054179882947949454998631813040788 1:1 8:1 10:24 14:8 19:6 20:5 25:4 27:1 28:3 40:4 43:5 48:1 56:5 63:4 68:10 70:2 75:2 81:1 82:6 83:3 84:1 88:1 90:1 94:2 99:1 109:1 111:1 116:1 117:1 123:5 128:1 133:1 140:4 150:13 155:1 163:1 177:1 214:1 215:1 226:1 228:1 232:3 242:4 251:1 254:3 270:1 285:1 292:2 294:2 306:5 309:1 311:1 327:2 347:1 403:1 404:1 408:2 409:1 430:1 462:1 497:1 501:2 525:1 541:1 544:1 547:1 558:1 572:1 576:2 601:3 613:1 614:1 623:1 654:2 656:2 679:1 680:2 687:1 704:1 718:1 729:1 741:1 788:1 876:5 910:1 964:1 974:2 1014:1 1047:1 1074:1 1076:1 1107:1 1164:1 1170:2 1186:1 1206:1 1229:1 1241:1 1264:1 1330:1 1352:1 1387:1 1404:1 1406:2 1531:1 1533:1 1538:1 1641:1 2200:1 2210:1 2226:1 2396:1 2403:2 2519:1 2520:2 2671:1 2672:2 2773:3 2831:1 2845:1 2909:1 2939:1 2993:1 3003:1 3339:1 3348:1 3521:1 3810:4 3830:2 4054:1 4352:1 4356:1 4505:1 4612:2 4939:1 4988:1 5097:1 6027:2 6726:1 6739:1 7146:1 7823:3 8031:1 8690:1 8945:1 11954:1 13336:1 21372:1 25516:1 38532:2 42652:4 47602:1 50147:3 64134:1 64193:3 64204:1 64205:1 66737:1 66738:1 #
-0.00054179882947949454998631813040788 1:1 8:2 10:3 15:1 20:3 43:1 61:1 68:2 109:1 131:1 149:1 150:2 155:2 357:1 365:1 407:1 408:1 514:1 558:2 572:1 652:1 661:2 876:2 1270:1 1571:1 2660:1 2753:1 3980:1 4882:1 4994:1 5389:1 7538:1 7873:1 10859:1 11786:1 16868:1 25380:1 47673:1 73025:1 #
-0.00054179882947949454998631813040788 1:1 8:31 9:1 10:20 13:4 14:7 19:9 20:8 25:3 27:6 28:7 40:7 43:5 48:6 49:1 50:1 51:1 54:3 63:1 68:18 70:2 74:1 75:5 82:2 83:2 88:5 93:1 109:1 111:1 117:1 123:1 124:4 126:1 128:2 140:2 149:1 150:10 151:1 160:4 161:1 162:2 167:1 186:3 213:1 214:1 226:3 236:1 252:3 306:3 407:2 408:1 409:3 424:1 437:2 460:4 525:1 548:2 549:1 555:1 557:1 558:3 560:2 563:1 572:1 576:3 601:1 643:2 652:1 687:2 715:1 718:1 730:1 741:1 770:1 784:1 943:1 964:3 966:1 995:1 1008:1 1035:4 1100:1 1139:1 1154:1 1186:1 1241:3 1260:1 1264:1 1289:1 1406:3 1548:2 1593:1 1659:1 1692:1 1797:2 1798:1 1920:1 2060:3 2084:1 2085:3 2117:2 2160:1 2305:1 2332:1 2385:1 2405:1 2424:1 2482:1 2506:1 2520:1 2572:1 2578:1 2601:1 2631:1 2683:1 2693:1 2717:1 2805:1 2846:1 2996:2 3004:1 3006:1 3094:5 3095:1 3396:1 3489:1 3495:2 3574:1 3635:1 3877:4 3892:1 3920:1 3948:2 3965:1 4008:1 4015:1 4018:1 4106:1 4317:1 4321:1 4356:2 4371:2 4518:3 4519:1 4580:1 4676:1 5067:1 5118:1 5256:1 5440:1 5530:1 5891:1 5970:1 6104:2 6187:5 6763:1 6884:1 7057:1 7117:2 7543:1 7545:1 7679:1 7883:1 8109:2 8811:1 9060:1 9953:2 10155:1 10280:1 11333:1 11452:1 11865:1 11929:4 12357:1 12779:1 13385:1 13483:1 15427:1 17032:1 17078:3 18042:1 18144:1 18166:1 18919:1 19712:1 20073:1 20830:1 20929:1 26039:1 29055:1 30406:1 42862:7 42866:6 42868:1 42897:1 42899:2 54277:1 62757:1 104914:1 104915:1 #
-0.00054179882947949454998631813040788 1:1 8:4 10:17 13:1 14:3 25:1 28:2 40:1 48:2 54:1 56:4 63:1 68:5 71:1 78:1 82:8 94:6 111:1 131:1 133:1 149:1 150:6 151:1 177:1 179:1 228:1 232:3 242:4 297:1 306:2 311:1 321:1 363:2 364:1 460:3 497:1 525:1 537:1 554:1 567:2 572:2 601:2 646:1 658:1 718:1 741:1 781:1 787:1 964:1 966:2 973:1 974:1 981:1 999:1 1009:1 1034:1 1036:1 1048:1 1076:1 1282:1 1312:1 1367:1 1412:1 1424:1 1570:1 1649:1 1666:1 1688:1 2044:1 2061:1 2131:1 2139:1 2201:1 2323:1 2424:1 2519:1 2627:1 2631:1 2734:1 2811:1 2954:1 3545:1 3778:1 3876:1 4033:1 4777:1 5010:1 5564:1 6735:1 7607:1 9758:1 9840:1 15241:1 20462:2 24570:1 35347:1 101256:1 107325:1 107326:1 107327:1 #
-0.00054179882947949454998631813040788 1:1 10:6 14:1 20:1 28:2 43:1 47:1 48:1 56:2 86:1 111:6 117:6 137:1 172:2 179:1 182:2 200:6 246:1 297:1 309:1 351:1 533:1 548:1 619:1 639:1 876:6 964:1 966:1 1216:1 1322:1 2061:1 2519:1 2520:1 2974:1 3463:1 5883:1 7221:1 7227:2 13273:1 16316:1 20277:1 20282:1 20434:1 39335:1 42410:1 43628:2 44123:1 44160:1 44199:2 121469:1 121472:2 122160:1 122161:1 122162:1 122163:1 122164:1 122165:1 122166:1 #
0.00054179882947949454998631813040788 1:1 8:9 10:9 13:2 14:6 19:4 20:1 21:1 23:1 25:1 28:1 32:1 41:1 43:1 47:2 48:2 51:1 54:1 68:5 76:2 78:1 82:2 83:1 88:3 91:1 101:1 109:1 111:1 117:4 128:4 133:1 137:1 140:1 149:2 160:1 191:1 226:1 228:1 242:1 251:1 279:3 306:1 332:1 460:1 501:1 517:1 576:1 718:1 720:1 876:1 877:1 887:3 910:1 954:1 1053:1 1147:1 1312:2 1355:3 1379:1 1387:1 1425:1 1538:1 1608:2 1609:1 2176:1 2216:2 2315:1 2392:1 2431:1 2601:1 2634:1 3032:2 3097:1 3313:1 3409:1 3471:1 3472:1 3653:2 3694:1 3921:2 4049:1 4480:1 4481:1 4631:1 4763:3 5622:1 6897:1 7064:1 8540:1 8794:1 9366:2 9480:1 9994:1 10148:1 10380:1 10593:2 12939:2 14975:1 16192:1 16677:1 22283:1 50681:1 50686:1 51522:1 51669:4 51670:2 51671:1 51672:1 51673:1 51674:1 #
0.00054179882947949454998631813040788 1:1 5:1 8:3 10:13 13:1 19:4 20:13 23:1 28:13 30:1 39:1 40:1 51:1 56:13 60:1 67:1 68:4 70:3 74:1 82:2 88:1 94:1 101:1 118:1 149:1 150:1 161:1 162:1 163:4 226:2 232:1 241:1 286:1 306:1 336:1 381:1 539:1 541:1 572:1 601:2 643:1 718:1 730:1 750:1 964:6 966:1 983:1 990:1 1076:1 1146:3 1216:1 1531:1 1533:1 1593:132 1669:1 2007:1 2082:1 2085:1 2433:1 2519:3 2520:1 2522:1 2711:1 3704:1 3707:1 4031:1 4301:2 4356:1 4363:1 4413:1 4521:1 4811:2 5249:2 11788:1 12419:1 17055:1 17056:1 17057:3 17649:1 17650:1 17651:1 17735:1 17736:1 17737:1 17738:1 17739:1 17740:1 #
0.00028343503212286476518333433460839 1:1 8:2 10:4 13:1 19:2 20:49 25:2 28:6 40:2 48:1 53:1 54:1 56:9 57:2 58:3 68:5 70:2 71:1 74:1 75:1 88:1 101:1 109:1 111:1 117:1 123:1 124:1 128:1 129:1 134:1 149:1 150:1 196:1 227:1 228:1 241:2 266:1 294:1 424:1 466:2 527:1 548:1 572:2 607:1 620:1 720:1 954:1 961:2 962:2 966:1 990:2 1063:1 1122:2 1354:1 1425:1 1616:3 2084:2 2119:1 2418:5 2568:1 2994:1 3050:1 3079:1 3504:5 4038:1 4284:1 8221:2 12667:1 13373:1 14244:1 14465:1 15063:1 23482:1 26648:1 50315:1 54374:2 60099:1 #
0.0003011958368070368364383115888927 1:1 8:11 9:1 10:77 13:6 14:8 19:6 20:45 21:4 23:3 25:3 27:1 28:31 29:2 32:2 33:4 38:1 39:1 40:9 41:9 43:6 48:3 50:4 51:4 54:5 56:6 63:2 68:11 70:2 74:1 75:3 82:8 86:5 88:7 94:2 96:2 103:2 109:1 111:12 117:12 123:5 124:5 127:1 128:4 131:1 133:1 138:1 139:1 140:1 150:14 151:1 161:2 162:2 167:2 171:1 177:1 179:3 182:10 189:1 191:1 193:1 198:1 210:1 214:1 218:1 226:4 227:2 228:2 230:2 231:1 232:1 240:1 242:5 252:1 254:4 285:1 286:4 306:2 309:3 325:1 340:4 348:4 357:1 371:2 403:2 408:1 409:1 410:1 437:3 460:2 461:1 470:1 488:1 491:1 498:2 531:1 544:2 546:2 548:1 550:1 554:2 558:1 560:3 572:11 576:4 611:5 613:1 619:1 622:1 624:1 639:2 645:5 646:1 654:1 678:1 679:1 680:2 704:1 705:1 708:10 711:1 715:1 769:1 770:1 781:1 810:1 839:1 874:3 876:1 877:1 893:1 917:3 930:1 937:1 943:5 960:1 961:1 962:4 964:12 974:2 1012:1 1034:1 1049:2 1076:1 1089:1 1094:1 1134:4 1136:1 1143:1 1146:1 1156:1 1179:1 1186:1 1187:1 1200:1 1242:2 1244:1 1245:1 1268:2 1289:1 1295:1 1312:5 1406:1 1463:1 1531:3 1533:3 1539:2 1551:2 1555:1 1570:3 1582:1 1593:10 1649:1 1672:1 1688:2 1744:1 1802:1 1991:3 2007:3 2053:4 2061:1 2133:1 2137:1 2145:2 2217:1 2274:1 2390:1 2470:1 2588:1 2796:1 2835:1 2845:1 3003:15 3099:1 3101:1 3158:3 3179:1 3311:1 3379:6 3444:1 3608:3 3704:1 3957:2 4011:1 4079:4 4099:4 4122:1 4284:2 4317:1 4329:1 4399:1 5050:1 5052:2 5303:3 5312:1 5400:1 5494:1 5584:1 5697:1 5967:1 5980:1 6155:1 6477:1 6616:1 6743:2 6747:1 6748:1 7469:4 7472:1 7598:1 7887:1 8056:1 8410:1 8862:1 8904:1 9112:2 9139:1 9254:2 9529:1 9575:1 9680:1 10012:1 10299:1 11151:1 11185:1 12824:1 13737:1 14305:1 14449:1 15970:1 17020:1 21497:1 26639:2 28265:1 30340:1 32304:1 48043:4 50664:2 50687:1 50983:1 51227:1 51229:3 51230:2 51231:3 51232:1 51233:1 51234:1 51235:1 51236:1 51237:1 51238:1 51239:1 51240:1 51241:1 51242:1 51243:1 51244:1 51245:1 51246:1 51247:1 51248:1 51249:1 51250:1 #
0.00054179882947949454998631813040788 1:1 8:1 10:4 28:1 40:3 43:1 68:5 75:1 80:1 81:1 90:1 109:1 118:1 226:1 227:1 228:1 232:1 242:1 244:1 249:4 255:1 284:1 306:1 329:1 332:1 341:1 363:1 364:1 403:2 406:1 408:1 424:1 454:1 574:1 610:1 650:1 677:1 684:1 834:3 838:1 903:1 1126:3 1132:1 1271:1 1272:1 1273:1 1399:3 1658:1 2493:1 2528:1 2529:1 2530:1 2531:1 2532:2 2533:2 2534:2 2535:1 2536:1 2537:1 2538:1 2539:1 2540:1 #
-0.00054179882947949454998631813040788 1:1 13:1 68:1 109:1 140:1 150:2 157:1 189:1 408:2 614:1 656:1 718:2 999:1 1033:1 1051:1 2060:1 4356:2 4796:1 15669:1 19622:1 130916:1 130917:1 #
-0.00054179882947949454998631813040788 1:1 8:7 10:19 20:7 21:11 22:1 23:4 25:6 28:51 29:4 30:2 34:2 41:6 42:2 43:1 50:4 56:18 70:3 86:2 99:2 111:10 117:10 130:2 137:2 160:1 161:1 163:8 167:2 172:2 173:3 198:1 279:4 297:6 371:4 407:1 455:5 500:1 572:1 579:2 581:4 646:2 684:1 730:2 872:1 877:4 917:6 924:1 964:2 972:2 983:2 1051:2 1053:1 1153:2 1235:2 1396:2 1447:2 2127:2 2163:2 2264:1 2268:1 2272:1 2305:1 2490:2 2516:1 2519:1 2520:1 2569:1 2601:1 2616:2 2628:2 2813:2 3387:2 3613:2 3761:1 3826:4 3923:4 3995:6 4098:4 4166:1 4284:1 4333:1 4560:2 5359:2 5881:4 6229:2 6349:2 7302:2 7377:1 7606:2 7746:3 7979:2 8328:1 8661:2 8884:2 9175:2 9457:1 9619:2 9632:2 10841:2 11060:2 11174:4 11379:1 13347:2 13993:1 14595:1 15357:2 17279:1 19225:2 19389:2 19653:1 19762:2 19929:2 19977:2 22283:2 22487:4 30846:2 35376:2 37625:2 39630:2 44942:2 47506:1 47700:2 50337:2 54211:2 64290:2 69227:1 69228:2 69229:2 69230:2 69231:2 69232:2 69233:2 69234:2 69235:2 69236:1 69237:2 69238:1 69239:1 69240:1 69241:1 69242:2 69243:3 69244:1 #
-0.00054179882947949454998631813040788 1:1 10:7 14:4 28:1 40:2 43:1 48:1 56:2 88:1 94:1 182:2 228:1 242:1 497:1 531:1 547:1 748:1 788:1 964:1 1392:1 2448:1 2471:1 2519:1 2810:1 3190:1 3386:1 3901:1 3920:1 4882:1 5970:1 9327:1 17588:1 26129:1 28835:1 55728:1 68573:1 68574:1 68575:1 68576:1 #
0.00027018317088889424711431463954625 1:1 6:6 7:4 8:53 9:4 10:22 11:2 12:3 13:3 14:8 15:2 16:2 17:2 18:2 19:6 20:707 21:4 22:4 23:5 24:1 25:7 26:1 27:3 28:18 29:2 30:1 31:2 32:1 33:2 34:4 35:3 36:3 37:2 38:1 39:14 40:4 41:11 42:18 43:3 44:4 45:1 46:1 47:1 48:2 49:7 50:2 51:2 52:2 53:3 54:3 55:5 56:33 57:10 58:17 59:8 60:1 61:7 62:2 63:6 64:3 65:4 66:3 67:2 68:8 69:1 70:7 71:3 72:2 73:2 74:3 75:2 76:1 77:5 78:2 79:1 80:1 81:2 82:2 83:3 84:1 85:1 86:2 87:1 88:2 89:1 90:1 91:1 92:1 93:1 94:1 95:1 96:1 97:1 98:1 99:3 100:2 101:1 102:1 103:1 104:1 105:1 106:1 107:1 108:1 109:1 110:1 111:1 112:1 113:1 114:1 115:1 116:2 117:1 118:1 119:1 120:1 121:1 122:2 123:2 124:1 125:2 126:1 127:1 128:1 129:1 130:1 131:1 132:1 133:1 134:1 135:1 136:1 137:1 138:1 139:1 140:1 141:1 142:1 143:1 144:2 145:1 146:1 147:1 148:2 149:1 150:1 151:1 152:1 153:1 154:1 155:1 156:1 157:1 158:1 159:1 160:1 161:1 162:1 163:1 164:1 165:2 166:1 167:2 168:1 169:1 170:1 171:1 172:254 173:38 174:1 175:1 176:1 177:1 178:1 179:18 180:17 181:1 182:5 183:1 184:1 185:1 186:1 187:1 188:1 189:1 190:1 191:1 192:1 193:1 194:1 195:1 196:1 197:1 198:1 199:1 200:1 201:1 202:1 203:1 204:1 205:1 206:1 #
0.00054179882947949454998631813040788 1:1 8:2 10:2 14:1 20:1 23:2 28:1 29:1 43:1 88:2 118:1 128:1 227:1 228:1 241:1 284:1 306:1 328:1 424:1 572:1 604:2 874:1 983:1 1363:1 1542:1 1785:2 2268:1 3332:1 3826:1 4371:1 5089:1 17095:1 41254:2 47691:1 54123:1 58826:1 #
0.00054179882947949454998631813040788 1:1 8:14 10:13 13:4 14:14 19:4 20:1 21:1 25:1 27:2 32:3 40:5 43:3 48:4 54:3 68:8 81:2 82:3 88:2 92:1 109:3 111:1 115:2 116:1 117:1 123:5 124:3 128:5 129:1 131:1 133:2 140:1 150:1 162:1 177:1 213:1 226:2 232:1 242:1 252:1 270:1 286:1 294:1 295:1 305:1 306:6 312:1 321:1 403:1 408:3 409:1 460:4 491:2 497:2 508:1 539:1 559:2 579:1 607:1 646:1 672:1 708:1 715:1 747:2 780:5 836:1 852:1 887:1 910:1 974:2 981:1 1004:1 1008:2 1014:1 1076:1 1156:1 1405:1 1407:1 1582:1 1585:1 1609:1 1649:2 1650:1 1694:2 1820:1 1821:1 1998:1 2001:1 2155:1 2192:1 2306:1 2408:1 2445:1 2448:1 2471:1 2505:1 2561:1 2587:1 2588:1 2601:1 2622:1 2954:1 3006:1 3037:1 3109:1 3190:1 3276:1 3325:1 3347:1 3397:1 3426:1 3446:1 3459:1 3463:2 3545:1 3756:1 3859:1 3942:1 3988:1 4008:1 4265:1 4459:1 4755:1 4762:1 4806:1 5029:1 5527:1 5548:1 5595:1 5681:1 5704:1 6559:1 6871:1 6926:2 6929:3 7104:1 7909:1 8809:1 10503:1 12481:1 12896:1 12916:4 12922:6 13109:1 13796:1 13956:2 14975:1 15431:1 17942:1 19866:1 20294:1 22318:1 23181:1 27607:1 47367:2 49757:1 50999:3 51489:1 51535:1 57662:1 60192:1 62097:1 62098:1 62099:2 62100:1 62101:1 62102:1 62103:1 #
0.00054179882947949454998631813040788 1:1 8:28 10:41 13:1 14:5 19:4 20:1 25:1 27:5 28:7 30:1 31:1 33:1 40:7 41:1 43:1 48:2 56:2 62:1 63:2 68:6 70:20 71:1 74:3 82:2 83:2 99:1 101:1 109:1 111:2 117:2 128:3 140:1 150:1 165:1 177:1 191:1 198:1 202:1 210:1 226:2 285:1 287:2 306:2 333:1 381:1 437:3 460:1 528:1 539:3 572:4 611:1 643:1 655:1 682:1 715:1 729:2 738:2 739:1 750:2 874:1 876:2 903:1 962:1 964:15 973:1 1034:1 1049:1 1053:1 1302:1 1452:1 1788:1 2041:2 2196:1 2302:1 2556:1 2581:1 2779:1 2785:1 2880:1 2884:1 2996:1 3003:2 3239:1 3243:1 3472:1 3703:1 3876:1 4127:1 4132:1 4143:1 4317:1 4371:1 4548:1 4823:1 4847:1 5097:3 5118:1 5188:1 5232:1 5360:1 5480:1 5550:1 5960:1 6229:1 6267:1 6407:1 6490:1 6884:1 7319:1 7742:1 8174:1 8251:2 8296:1 8673:1 9966:1 10762:1 11724:1 12562:1 13181:1 13493:2 14570:1 14854:1 14955:1 14975:1 15665:1 17399:1 20230:2 21201:1 26790:1 36705:1 39940:1 42203:1 45003:1 46894:1 48328:1 48553:1 50121:1 51110:1 53836:1 53838:1 54181:1 54182:1 54183:1 54184:1 54185:1 54186:1 54190:1 54191:1 54192:1 54194:1 54199:1 54235:1 54236:1 54237:1 54238:1 54239:1 54240:1 54241:1 54242:1 54243:1 54244:1 54245:1 54246:1 #
0.00046729409852236153573301624675196 1:1 7:1 8:52 9:3 10:114 13:4 14:52 15:2 19:21 20:37 21:3 23:4 25:4 27:1 28:19 33:2 37:1 39:1 40:56 41:1 43:10 48:27 51:3 56:4 68:30 70:6 75:1 78:1 81:2 82:3 83:1 86:3 88:20 93:1 109:9 111:3 115:9 116:4 117:3 123:1 124:1 128:26 129:7 130:3 132:1 133:1 137:1 139:2 140:2 148:3 149:1 150:1 160:5 161:1 162:19 182:4 224:2 226:9 227:1 236:2 242:6 246:1 248:8 251:1 252:1 254:3 287:1 290:2 291:1 294:2 297:1 306:8 310:1 311:1 312:1 322:1 326:4 327:3 334:1 387:2 403:9 404:1 407:1 424:3 430:3 436:2 450:1 457:1 458:1 461:2 462:2 480:3 481:1 488:1 489:1 490:1 491:1 493:4 494:3 495:1 500:15 503:2 517:1 528:4 529:2 531:3 545:1 546:1 547:7 548:1 549:10 555:1 558:5 560:2 563:6 569:1 572:1 576:1 577:1 601:3 606:3 614:2 626:1 631:1 635:1 638:3 639:1 643:7 652:1 660:1 670:1 671:1 676:2 684:1 708:2 709:1 713:1 724:6 730:1 734:1 738:1 746:1 747:1 753:8 764:1 765:2 766:3 769:1 785:1 810:2 836:3 874:2 875:1 876:2 905:1 964:11 983:3 991:2 996:1 999:1 1008:1 1009:1 1021:1 1047:1 1076:1 1084:1 1097:1 1113:1 1136:1 1154:8 1156:2 1163:1 1179:2 1183:1 1199:1 1200:1 1222:1 1226:1 1228:1 1235:1 1268:1 1289:1 1319:1 1322:1 1341:1 1346:9 1348:2 1354:1 1355:23 1357:2 1387:1 1399:1 1405:1 1406:1 1412:1 1415:1 1419:1 1452:1 1520:4 1534:1 1538:1 1545:1 1548:1 1585:1 1619:4 1627:1 1653:2 1656:1 1669:1 1695:1 1815:2 1816:2 1847:1 1905:2 1966:1 1978:1 2030:2 2051:1 2053:1 2058:8 2076:1 2084:1 2099:1 2123:1 2134:1 2145:1 2146:3 2167:1 2205:2 2213:3 2218:1 2226:1 2252:1 2282:5 2296:1 2306:1 2332:1 2385:4 2386:1 2389:1 2403:2 2430:2 2432:1 2433:1 2445:4 2446:1 2448:2 2468:3 2470:1 2482:1 2501:2 2518:1 2520:3 2524:1 2559:1 2591:6 2594:1 2601:5 2618:1 2631:3 2662:1 2671:3 2688:1 2689:1 2693:1 2752:2 2774:4 2800:1 2834:1 2849:3 2852:1 2859:3 2909:1 2937:1 2942:1 2949:1 2989:1 2990:1 3003:3 3017:1 3032:12 3036:3 3041:2 3042:3 3044:3 3045:1 3047:4 3048:3 3049:3 3057:4 3059:1 3078:2 3085:1 3094:3 3104:1 3105:1 3108:1 3178:1 3180:2 3199:6 3266:2 3283:1 3311:1 3313:1 3358:1 3366:1 3397:2 3436:2 3461:1 3462:1 3463:1 3486:2 3504:1 3510:1 3523:2 3548:1 3557:2 3559:3 3560:1 3561:1 3564:2 3625:1 3813:4 3817:4 3829:1 3830:3 3831:3 3833:4 3834:1 3854:1 3858:1 3859:3 3862:1 3881:1 3884:1 3901:1 3910:1 3920:2 3923:4 3936:1 3938:2 3942:1 3957:1 3958:1 3971:3 3983:1 3987:2 3990:1 4008:2 4027:3 4031:4 4037:7 4038:4 4085:1 4258:1 4284:1 4321:1 4322:2 4388:1 4413:1 4425:1 4430:1 4454:1 4465:1 4527:5 4552:1 4553:1 4574:1 4634:1 4712:4 4734:1 4755:1 4768:1 4772:1 5123:1 5261:2 5441:1 5822:1 5826:1 5828:1 5829:3 5832:1 5852:1 6058:4 6080:1 6379:1 6808:1 6892:3 6893:1 6895:1 6966:1 7087:1 7181:1 7583:1 7608:1 7616:1 7648:1 7844:1 7898:1 7899:1 8026:4 8070:1 8087:3 8411:2 8433:1 8609:1 8681:1 8758:1 8869:1 8878:1 8884:2 8899:3 8924:1 8951:2 8966:1 9058:1 9065:1 9080:4 9156:1 9291:1 9324:2 9326:4 9545:1 9636:1 9665:3 9702:1 9894:1 9908:1 9986:1 10073:1 10496:1 10503:1 10507:1 10511:1 10631:2 11116:1 11243:3 11253:1 11422:1 11452:1 11866:2 11887:1 11922:1 11934:1 11968:1 12356:1 12357:2 12497:1 12907:1 12978:1 13384:1 14233:2 14546:1 14578:1 14765:1 14771:5 14900:1 16192:1 16263:1 17359:1 17446:1 17710:1 17715:1 19603:1 19939:1 19979:2 20148:1 21358:1 21745:1 23181:1 27669:1 27681:1 28005:1 28035:1 28048:1 28709:1 28713:1 28980:1 29889:1 32761:4 39941:1 41853:1 41974:2 42582:1 43923:1 46372:9 46607:1 49860:2 51522:2 53077:1 53515:1 54657:1 54658:1 54659:1 54660:1 54661:1 54662:1 54663:1 54664:1 54665:1 54666:1 54667:1 54668:1 54669:3 54670:1 54671:1 54672:1 54673:1 54674:1 54675:3 54676:3 54677:3 54678:3 54679:6 54680:6 54681:1 #
-0.00054179882947949454998631813040788 1:1 8:1 10:8 14:1 27:1 28:1 40:1 68:1 83:2 124:1 226:1 287:1 309:1 336:1 541:1 596:1 656:1 681:1 704:1 1047:1 1132:1 1296:1 1309:1 2524:1 3268:1 3977:1 4364:1 5378:1 5452:1 6344:1 13289:1 41608:1 41609:1 41610:1 41611:1 41612:1 #
0.00054179882947949454998631813040788 1:1 2:1 3:1 4:1 5:1 #
-0.00054179882947949454998631813040788 1:1 8:5 10:2 13:1 14:12 19:2 20:10 21:3 25:2 28:6 30:2 32:1 40:3 43:7 47:1 48:6 51:1 54:1 63:1 67:1 68:7 70:2 74:1 81:1 86:1 88:3 109:1 123:2 124:3 128:1 133:2 149:1 150:3 157:1 193:1 226:2 231:2 248:1 252:4 266:1 286:1 287:1 294:1 306:3 413:1 460:2 466:1 516:1 548:1 558:1 559:1 571:1 572:2 576:1 622:1 623:1 632:1 643:2 655:1 656:1 660:1 662:1 679:1 718:1 760:1 770:1 780:2 810:1 835:1 917:3 964:2 981:1 1021:1 1063:1 1093:1 1142:1 1146:1 1175:1 1229:1 1268:1 1312:4 1425:1 1531:1 1533:1 1547:1 1626:1 1641:1 1649:1 1861:1 1933:1 2007:1 2030:1 2167:1 2418:1 2561:1 2774:1 2796:2 2810:1 2936:1 2939:1 3064:1 3322:1 3334:1 3343:1 3442:1 3523:2 3676:3 3704:1 3707:1 3711:1 3878:1 3889:1 3959:1 4423:1 4561:1 4771:1 5050:1 5182:1 5243:1 5812:1 6121:1 6327:1 6395:1 7067:1 7600:1 7711:1 8858:1 8900:1 9087:1 9199:2 9432:1 9940:1 10036:1 10199:1 10723:1 10897:1 11703:1 11782:1 12257:1 12894:1 13588:1 14187:1 15100:1 17078:1 17524:1 19383:2 19843:1 19977:1 20231:1 21604:1 24184:1 24560:4 25525:1 25601:1 32289:1 37793:1 37794:1 38940:1 39287:1 40372:1 40373:1 40374:1 40375:1 40376:4 40377:2 40378:1 43485:1 43486:1 43487:1 43488:1 43489:1 43490:1 43491:1 43492:1 43493:1 #
-6.6178437381447812563341724645394e-06 1:1 8:15 10:17 13:2 14:6 19:3 20:48 21:8 23:88 25:1 28:20 29:1 30:8 31:3 33:79 34:1 39:86 40:5 43:1 48:3 50:8 51:99 56:7 61:3 65:4 67:3 68:8 70:3 74:1 82:4 86:84 88:1 99:5 100:1 111:1 117:1 123:1 124:4 128:7 133:1 140:3 150:3 151:1 157:1 160:1 166:4 168:4 182:92 191:2 193:2 196:2 198:5 202:5 205:4 218:9 224:8 226:1 238:1 240:1 242:1 252:1 254:75 266:1 274:4 285:1 306:1 309:1 320:2 337:1 348:1 355:1 365:1 371:6 396:10 403:1 407:3 408:1 437:1 460:1 508:1 527:1 541:7 548:2 554:1 575:2 579:3 581:4 587:4 596:3 655:1 694:3 713:1 729:1 745:2 762:2 766:1 783:2 784:7 785:3 839:4 858:2 874:85 876:2 877:4 880:1 896:1 917:9 933:2 964:3 978:1 983:7 999:1 1037:2 1049:1 1051:8 1053:1 1094:1 1170:2 1175:3 1186:1 1199:1 1216:5 1242:1 1247:1 1264:1 1270:1 1310:1 1312:2 1317:1 1363:2 1394:1 1406:1 1540:2 1570:1 1593:1 1619:1 1678:1 1687:4 1694:1 1709:2 1737:3 1797:1 1802:4 1827:3 1883:1 1884:2 2007:1 2018:2 2197:1 2285:1 2318:1 2323:1 2417:1 2442:1 2479:5 2485:1 2500:1 2519:2 2557:1 2569:1 2617:1 2738:1 2974:3 3003:1 3004:1 3031:1 3113:1 3138:1 3198:1 3241:1 3314:1 3320:1 3332:1 3444:1 3479:2 3499:1 3517:1 3518:1 3550:1 3595:1 3611:1 3627:1 3716:1 3808:6 3948:3 4007:1 4088:2 4132:1 4152:1 4200:1 4241:1 4313:1 4317:1 4500:1 4521:2 4530:1 4989:1 5228:1 5268:1 5296:1 5381:1 5467:1 5622:1 5852:2 5881:2 5895:1 5984:1 6121:2 6161:1 6204:2 6289:3 6295:1 6327:1 6361:1 6395:2 6485:1 6495:1 6742:1 6757:1 6762:1 6763:1 6896:1 7092:1 7117:1 7214:1 7391:1 7455:1 7469:2 7645:1 7667:2 7679:1 7746:1 7887:1 7926:2 8345:4 8493:1 8553:1 8714:1 8720:3 8917:5 8929:1 9258:1 9303:1 9417:1 9768:1 9780:1 9799:1 9940:1 9992:1 10142:1 10199:2 10315:2 10327:1 10608:1 10860:1 10862:1 10988:1 11220:1 11267:2 11563:1 11927:1 11963:1 12164:1 12216:1 12257:1 12258:1 12330:1 12534:2 12535:1 13123:3 13261:1 13345:1 13542:1 13736:1 13771:1 14125:1 14182:1 14500:1 14540:1 14773:3 15283:2 15536:1 15650:1 15718:1 16025:1 16350:1 16508:1 16732:1 16992:1 17005:1 17076:1 17220:1 18033:1 18642:2 19354:1 19711:1 19762:1 20036:1 20402:1 20404:1 20786:1 20787:1 20788:1 20830:1 20930:1 22135:1 22137:1 22140:1 22151:1 22160:1 22376:1 22405:1 22578:1 23534:1 24047:2 24662:1 25387:1 25513:1 25997:1 26034:1 26656:1 27295:1 27937:1 27942:1 29852:1 33433:1 34481:1 34616:1 36705:1 37247:1 38088:1 39619:1 40938:1 40942:1 40974:1 41276:1 41291:1 42048:2 42983:1 43360:1 43608:1 44415:1 44424:1 45106:1 46069:1 46264:1 46814:1 46817:1 46942:1 46967:1 46978:1 46990:1 46992:1 47096:1 47810:1 47903:1 47907:2 47923:1 47974:1 48031:1 48102:1 48340:1 49685:1 52331:1 53766:1 57609:4 58199:1 59244:1 59480:1 59952:1 60588:1 61802:1 63806:1 65178:1 67534:1 68585:1 73300:1 73470:1 74937:1 75278:1 76207:1 83028:1 84237:1 85083:1 92589:1 92825:1 93215:1 94120:1 94895:1 95645:2 97018:1 98053:1 99479:1 100967:1 101484:1 102665:1 103911:1 104103:1 104425:1 105223:1 105505:1 106535:1 106982:1 108944:1 111859:1 113349:1 116753:1 119742:1 122966:1 122967:1 122968:1 122969:1 122970:1 122971:1 122972:1 122973:1 122974:1 122975:1 122976:1 122977:1 122978:1 122979:1 122980:1 122981:1 122982:1 122983:1 122984:1 122985:1 122986:1 122987:1 122988:1 122989:1 122990:1 122991:1 122992:1 122993:1 122994:1 122995:1 122996:1 122997:1 122998:1 122999:1 123000:1 123001:1 123002:1 123003:1 123004:1 123005:1 123006:1 123007:1 123008:1 123009:1 123010:1 123011:1 123012:1 123013:1 123014:1 123015:1 123016:1 123017:1 123018:1 123019:1 123020:1 123021:1 123022:1 123023:1 123024:1 123025:1 123026:1 123027:1 123028:1 123029:1 123030:1 123031:1 123032:1 123033:1 123034:1 123035:1 123036:1 123037:1 123038:1 123039:1 123040:1 123041:1 123042:1 123043:1 123044:1 123045:1 123046:1 123047:1 123048:1 123049:1 123050:1 123051:1 123052:1 123053:1 123054:1 123055:1 123056:1 123057:1 123058:1 123059:1 123060:1 123061:1 123062:1 123063:1 123064:1 123065:1 123066:1 123067:1 123068:1 123069:1 123070:1 123071:1 123072:1 123073:1 123074:1 123075:1 123076:1 123077:1 123078:1 123079:1 123080:1 123081:1 123082:1 123083:1 123084:1 123085:1 123086:1 123087:1 123088:1 123089:1 123090:1 123091:1 123092:1 123093:1 123094:1 123095:1 123096:1 123097:1 123098:1 123099:1 123100:1 123101:1 123102:1 123103:1 123104:1 123105:1 123106:1 123107:1 123108:1 123109:1 123110:1 123111:1 123112:1 123113:1 123114:1 123115:1 123116:1 123117:1 123118:1 123119:1 123120:1 123121:1 123122:1 123123:1 123124:1 123125:1 123126:1 123127:1 123128:1 123129:1 123130:1 123131:1 123132:1 123133:1 123134:1 123135:1 123136:1 123137:1 123138:1 123139:1 123140:1 123141:1 123142:1 123143:1 123144:1 123145:1 123146:1 123147:1 123148:1 123149:1 123150:1 123151:1 123152:1 123153:1 123154:1 123155:1 123156:1 123157:1 123158:1 123159:1 123160:1 123161:1 123162:1 123163:1 123164:1 123165:1 123166:1 123167:1 123168:1 123169:1 123170:1 123171:1 123172:1 123173:1 123174:1 123175:1 123176:1 123177:1 123178:1 123179:1 123180:1 123181:1 123182:1 123183:1 123184:1 123185:1 123186:1 123187:1 123188:1 123189:1 123190:1 123191:1 123192:1 123193:1 123194:1 123195:1 123196:1 123197:1 123198:1 123199:1 123200:1 123201:1 123202:1 123203:1 123204:1 123205:1 123206:1 123207:1 123208:1 123209:1 123210:1 123211:1 123212:1 123213:1 123214:1 123215:1 123216:1 123217:1 123218:1 123219:1 123220:1 123221:1 123222:1 123223:1 123224:1 123225:1 123226:1 123227:1 123228:1 123229:1 123230:1 123231:1 123232:1 123233:1 123234:1 123235:1 123236:1 123237:1 123238:1 123239:1 123240:1 123241:1 123242:1 123243:1 123244:1 123245:1 123246:1 123247:1 123248:1 123249:1 123250:1 123251:1 123252:1 123253:1 123254:1 123255:1 123256:1 123257:1 123258:1 123259:1 123260:1 123261:1 123262:1 123263:1 123264:1 123265:1 123266:1 123267:1 123268:1 123269:1 123270:1 123271:1 123272:1 123273:1 123274:1 123275:1 123276:1 123277:1 123278:1 123279:1 123280:1 123281:1 123282:1 123283:1 123284:1 123285:1 123286:1 123287:1 123288:1 123289:1 123290:1 123291:1 123292:1 123293:1 123294:1 123295:1 123296:1 123297:1 123298:1 123299:1 123300:1 123301:1 123302:1 123303:1 123304:1 123305:1 123306:1 123307:1 123308:1 123309:1 123310:1 123311:1 123312:1 123313:1 123314:1 123315:1 123316:1 123317:1 123318:1 123319:1 123320:1 123321:1 123322:1 123323:1 123324:1 123325:1 123326:1 123327:1 123328:1 123329:1 123330:1 123331:1 123332:1 123333:1 123334:1 123335:1 123336:1 123337:1 123338:1 123339:1 123340:1 123341:1 123342:1 123343:1 123344:1 123345:1 123346:1 123347:1 123348:1 123349:1 123350:1 123351:1 123352:1 123353:1 123354:1 123355:1 123356:1 123357:1 123358:1 123359:1 123360:1 123361:1 123362:1 123363:1 123364:1 123365:1 123366:1 123367:1 123368:1 123369:1 123370:1 123371:1 123372:1 123373:1 123374:1 123375:1 123376:1 123377:1 123378:1 123379:1 123380:1 123381:1 123382:1 123383:1 123384:1 123385:1 123386:1 123387:1 123388:1 123389:1 123390:1 123391:1 123392:1 123393:1 123394:1 123395:1 123396:1 123397:1 123398:1 123399:1 123400:1 123401:1 123402:1 123403:1 123404:1 123405:1 123406:1 123407:1 123408:1 123409:1 123410:1 123411:1 123412:1 123413:1 123414:1 123415:1 123416:1 123417:1 123418:1 123419:1 123420:1 123421:1 123422:1 123423:1 123424:1 123425:1 123426:1 123427:1 123428:1 123429:1 123430:1 123431:1 123432:1 123433:1 123434:1 123435:1 123436:1 123437:1 123438:1 123439:1 123440:1 123441:1 123442:1 123443:1 123444:1 123445:1 123446:1 123447:1 123448:1 123449:1 123450:1 123451:1 123452:1 123453:1 123454:1 123455:1 123456:1 123457:1 123458:1 123459:1 123460:1 123461:1 123462:1 123463:1 123464:1 123465:1 123466:1 123467:1 123468:1 123469:1 123470:1 123471:1 123472:1 123473:1 123474:1 123475:1 123476:1 123477:1 123478:1 123479:1 123480:1 123481:1 123482:1 123483:1 123484:1 123485:1 123486:1 123487:1 123488:1 123489:1 123490:1 123491:1 123492:1 123493:1 123494:1 123495:1 123496:1 123497:1 123498:1 123499:1 123500:1 123501:1 123502:1 123503:1 123504:1 123505:1 123506:1 123507:1 123508:2 123509:1 123510:2 123511:1 123512:1 123513:1 123514:1 123515:1 123516:1 #
-0.00054179882947949454998631813040788 1:1 8:3 10:1 14:6 19:1 20:2 21:1 23:2 40:2 43:1 48:1 68:2 78:1 83:1 92:1 109:1 132:2 137:1 167:4 216:1 285:1 286:2 287:1 460:1 508:1 539:1 547:1 1091:1 1133:1 1155:1 1254:1 1387:1 1404:1 1648:1 2082:1 2172:1 2683:1 3398:1 4469:1 4876:1 5198:1 6066:1 6680:1 7355:1 8342:1 11365:1 15733:1 28394:1 45830:1 45965:1 45966:1 45967:1 45968:1 45969:1 45970:1 45971:1 45972:1 45973:1 45974:1 45975:1 45976:1 45977:1 45978:1 #
-0.00054179882947949454998631813040788 1:1 8:1 10:10 13:1 14:2 20:20 27:1 28:5 43:1 48:1 51:1 56:4 60:1 83:2 91:1 111:2 117:2 133:2 137:1 151:1 161:2 167:2 171:1 173:1 243:2 254:1 274:1 286:1 308:1 508:1 541:2 729:1 752:1 917:2 943:1 960:1 1243:1 1322:1 1531:1 1533:1 1627:1 1811:1 2007:1 2246:1 2461:1 2687:1 3229:1 3321:1 3502:2 3620:1 3704:1 3716:1 4432:1 5329:1 5622:1 5865:1 6479:1 10179:1 10315:1 11267:1 11788:1 13191:1 22283:2 37544:1 41853:1 72544:1 72545:1 72759:1 72760:1 #
-0.00054179882947949454998631813040788 1:1 8:1 10:4 14:3 19:3 21:1 22:1 25:1 40:1 43:1 48:1 68:1 83:1 88:2 306:3 323:1 509:1 525:2 531:1 548:1 558:3 1225:1 1306:1 1650:1 2448:1 2798:1 4772:1 5010:1 5077:1 6378:1 9054:2 10931:1 12544:1 17484:1 20527:2 21020:1 24263:1 26502:1 27062:1 27314:1 28245:1 29249:1 37156:1 37157:1 49182:1 50217:1 72124:1 #
-0.00054179882947949454998631813040788 1:1 8:1 10:15 13:1 14:2 20:22 27:1 28:5 41:1 48:1 51:1 68:2 91:1 161:1 239:1 286:1 308:1 508:1 730:3 752:1 943:1 964:2 1322:1 1531:1 1533:1 1627:1 2007:1 2246:1 2461:2 2479:1 2687:1 2885:2 3229:1 3321:1 3425:1 3459:1 3502:1 3704:1 4293:1 4432:1 6479:1 6942:2 7546:1 8410:1 9903:1 10179:1 10315:1 20744:1 29641:1 41853:1 72550:1 136307:1 136308:1 #
0.00054179882947949454998631813040788 1:1 8:2 10:2 14:2 19:1 20:2 22:1 28:1 29:1 43:1 56:2 59:1 68:3 82:1 109:1 123:1 124:1 128:2 129:2 131:1 133:1 163:1 226:2 227:1 231:1 232:1 240:2 242:1 251:4 254:1 255:1 257:3 266:1 290:1 317:2 363:1 364:1 454:2 457:2 477:1 487:4 590:1 660:1 713:1 756:1 776:1 778:1 836:1 1040:1 1177:1 1312:1 2480:1 3479:1 6899:1 8974:1 15128:1 #
0.00054179882947949454998631813040788 1:1 8:4 10:7 13:1 14:5 20:13 25:2 28:9 39:1 40:6 43:1 48:2 56:1 63:1 68:4 70:3 74:1 75:2 83:2 107:1 123:1 137:1 162:3 167:2 191:1 193:1 212:1 214:2 218:1 227:1 228:1 236:1 408:1 436:1 460:1 491:1 517:1 541:1 544:1 554:1 572:2 687:1 769:1 898:1 990:1 1008:1 1146:1 1152:2 1180:1 1187:1 1256:1 1367:1 1406:1 1407:1 1522:1 1531:1 1533:1 1859:1 1863:3 2007:1 2131:3 2711:1 2744:1 3047:1 3073:2 3485:1 3704:1 3707:1 3810:2 3917:3 4014:1 4356:1 4798:1 5315:1 5370:1 5371:1 5813:1 6225:3 6538:1 7092:1 8615:1 9290:3 11993:2 13181:3 15783:1 98231:1 98232:1 99398:2 99399:2 #
0.00054179882947949454998631813040788 1:1 8:5 10:17 13:1 14:3 19:1 20:1 25:3 27:1 28:9 32:1 41:2 43:4 48:1 54:1 56:8 59:1 65:1 68:7 70:2 71:1 74:1 75:2 78:2 82:1 83:2 91:1 94:2 101:3 111:1 117:1 124:2 128:2 133:4 137:1 140:1 162:2 163:3 164:1 167:4 169:2 210:1 223:5 226:1 232:1 240:1 241:1 242:1 266:1 272:1 287:2 297:1 306:1 321:1 337:1 363:1 364:1 403:1 405:1 409:3 480:1 533:2 549:1 601:2 632:1 680:1 724:2 738:2 751:1 768:1 780:2 781:1 876:54 942:1 964:3 990:1 1000:1 1037:1 1155:1 1156:1 1179:1 1247:1 1256:1 1285:1 1341:1 1394:1 1405:1 1524:1 1542:1 1626:1 1688:1 2005:1 2025:1 2172:2 2408:3 2417:1 2424:1 2519:1 2520:1 2788:1 2989:2 3424:1 3479:1 3545:2 3647:3 3648:3 3891:1 3949:2 4282:1 4740:1 4755:1 5071:1 7662:1 7682:1 8642:1 11797:2 12631:1 13951:1 14975:3 37943:1 50664:1 60454:1 60664:2 61274:1 61275:1 61276:1 61277:1 #
0.00054179882947949454998631813040788 1:1 8:4 10:6 13:1 14:1 19:2 20:4 40:1 43:1 68:13 75:2 109:1 123:3 150:5 208:1 226:4 227:1 228:1 248:1 252:1 292:1 293:1 306:2 336:1 403:1 408:1 409:3 510:3 533:1 568:3 572:5 601:4 643:1 687:2 767:1 908:1 943:1 951:2 1148:1 1260:1 1262:1 2007:5 2041:3 2078:1 2131:1 2424:1 2753:1 2835:2 3626:2 3891:1 4613:1 4796:1 4996:1 5088:1 5249:1 5637:1 6726:3 6731:1 17188:2 42515:2 62929:2 62930:1 #
0.00054179882947949454998631813040788 1:1 8:2 10:6 13:1 14:2 20:8 21:1 22:1 27:2 28:1 33:2 43:2 51:2 56:4 68:3 75:2 76:1 88:1 92:2 109:1 111:4 117:4 135:1 137:1 162:1 177:2 222:2 226:1 227:1 228:1 240:2 287:1 306:2 308:2 328:1 335:1 403:1 494:1 650:1 713:1 764:1 836:1 875:1 1051:1 1235:1 1244:1 1426:1 1665:2 1852:1 2113:1 2131:1 2172:1 2601:2 2855:1 3298:1 4579:1 4762:1 8411:1 9808:3 10637:2 11937:3 16374:1 16679:2 17912:1 18290:1 53425:2 64307:1 69296:1 74663:1 74928:1 76308:1 97749:4 98477:2 98478:1 98479:1 #
-0.00054179882947949454998631813040788 1:1 10:7 14:1 19:1 28:3 43:1 47:1 51:1 61:1 68:1 163:1 172:2 177:1 191:1 241:2 251:1 460:1 718:1 876:1 961:1 962:1 1022:1 1175:1 1312:7 1367:1 1650:1 3438:1 3808:1 3891:2 4356:1 4914:1 5085:1 6542:1 7083:1 11347:1 11827:1 15251:1 15585:1 15815:1 28753:1 31122:1 43055:1 47632:1 47633:1 47634:1 47635:1 48741:1 49323:1 49324:1 #
-0.00054179882947949454998631813040788 1:1 8:5 10:12 13:1 14:10 19:5 20:6 25:4 27:2 28:3 32:1 33:1 40:2 41:1 43:3 44:1 48:4 56:6 62:1 63:2 65:1 68:9 70:1 81:2 82:5 83:9 84:2 92:1 109:4 111:2 115:2 117:3 123:1 124:7 125:1 128:1 131:3 132:1 137:3 150:7 151:2 152:1 161:1 167:2 171:1 177:1 186:1 200:1 210:3 213:1 225:1 228:2 242:2 252:1 286:1 293:1 306:2 364:1 403:2 408:1 413:1 450:1 452:1 460:2 491:1 523:1 525:2 539:9 541:1 548:1 558:1 613:1 614:1 622:1 623:1 643:1 646:2 647:1 660:2 687:1 715:1 731:22 751:1 761:1 781:1 942:2 966:1 973:2 974:2 1013:1 1034:47 1088:1 1253:2 1262:1 1268:1 1288:1 1296:1 1309:1 1312:1 1352:2 1367:1 1399:1 1542:1 1548:1 1570:1 1648:1 1649:2 1669:1 1812:1 2105:1 2115:1 2323:1 2417:1 2519:1 2617:2 2787:1 2953:1 3052:1 3208:1 3486:1 3620:1 3626:1 4296:1 4311:1 4339:1 4348:1 4788:1 4891:1 5096:1 5164:1 5187:1 5204:1 5552:1 5593:1 5600:2 6096:1 6490:1 6739:1 7087:1 7711:1 7862:1 8144:1 8158:1 9052:2 9940:1 10309:1 10832:1 10897:1 13425:1 14368:1 16050:1 17910:1 22333:1 25516:1 26451:1 28805:1 46157:1 64134:1 64792:1 65025:1 65026:2 65027:1 65028:1 65029:1 65030:1 65031:1 65032:1 65033:1 65034:1 65035:1 65036:1 65037:1 65038:3 65039:2 #
-0.00034717446776634259403282456446505 1:1 10:2 14:1 40:3 43:1 48:1 78:1 111:1 117:1 337:1 539:1 558:1 572:2 672:1 768:1 777:1 780:1 1031:1 1184:1 1284:1 1407:1 2478:1 2819:1 2880:1 3068:1 3340:1 3492:1 3531:1 3632:1 4099:1 4800:1 4991:1 5262:1 5314:1 5343:1 5956:1 5975:1 6199:1 6315:1 6341:1 6443:1 6897:1 7236:1 7372:1 7458:1 8231:1 8359:1 8657:1 8790:1 8975:1 9051:1 9661:1 10142:1 10601:1 10897:1 10966:1 11185:1 11201:1 11715:1 11859:1 11926:1 13170:1 13254:1 13628:1 13940:1 14183:1 14234:1 14523:1 14755:1 17030:1 17061:1 17077:1 17833:1 17906:1 18674:1 19053:1 20190:1 21011:1 21086:1 21112:1 21431:1 21460:1 21472:1 21712:1 21861:1 21902:1 22952:1 22962:1 22967:1 22973:1 23056:1 23113:1 23120:1 23302:1 23471:1 23536:1 23574:1 23640:1 24318:1 24349:1 24721:1 24738:1 24956:1 24994:1 25011:1 25047:1 25060:1 25063:1 25302:1 25648:1 25680:1 25758:1 25775:1 25945:1 25948:1 26013:1 26065:1 26129:1 26189:1 26354:1 26756:1 26773:1 27229:1 27374:1 27592:1 27616:1 27749:1 27820:1 27841:1 27903:1 27931:1 28203:1 28226:1 28330:1 28472:1 28702:1 28911:1 28917:1 28934:1 29192:1 29222:1 30168:1 30292:2 30362:1 30482:1 31017:1 31485:1 31497:1 31901:1 32012:1 32180:1 32223:1 32353:1 32370:1 33315:1 33344:1 33721:1 33815:1 33902:1 34159:1 34165:1 34344:1 34418:1 34432:1 34485:1 34615:1 34638:1 34706:1 35423:1 36750:1 36784:1 36945:1 37005:1 37059:1 37136:1 37145:1 37289:1 37365:1 37544:1 37553:1 37598:1 37639:1 37657:1 37672:1 37721:1 37856:1 37918:1 37987:1 38026:2 38056:1 38559:1 38751:1 38988:1 39007:1 39052:1 39062:1 39108:1 39137:1 39264:1 39591:1 40190:1 40275:1 40306:1 40310:1 41853:1 41958:1 42165:1 42698:1 43219:1 43565:1 44097:1 45241:1 45300:2 45598:1 45766:1 48187:1 48240:1 48434:1 48466:1 48509:1 49063:1 49093:1 49204:1 52554:1 54587:1 56012:1 56241:1 60371:1 60755:1 62883:1 64371:1 64989:1 70249:1 70402:1 70718:1 71113:1 71147:1 72478:1 74348:1 74830:1 77731:1 77763:1 78041:1 79949:1 82413:1 87066:2 87212:1 87893:2 87937:1 89005:1 89456:1 91476:1 92816:1 100871:1 101096:1 101110:1 101113:1 101251:1 101398:1 101618:1 101619:2 101948:1 102034:1 102282:1 102283:1 102284:1 102285:1 102286:1 102287:1 102288:1 102289:1 102290:1 102291:1 102292:1 102293:1 102294:1 102295:1 102296:1 102297:1 102298:1 102299:1 102300:1 102301:1 102302:1 102303:1 102304:1 102305:1 102306:1 102307:1 102308:1 102309:1 102310:1 102311:1 102312:1 102313:1 102314:1 #
0.00054179882947949454998631813040788 1:1 10:3 14:2 20:4 29:1 43:1 48:2 82:1 83:1 107:1 137:1 150:1 151:1 209:1 226:1 254:1 285:1 306:1 403:1 604:2 643:1 738:1 874:1 4393:1 4532:2 6122:3 7903:1 9327:1 16732:1 128117:3 #
0.00054179882947949454998631813040788 1:1 8:25 10:27 14:18 15:4 19:2 20:8 21:2 23:4 25:1 27:3 28:4 32:1 34:1 40:7 43:5 47:1 48:12 50:1 51:5 68:14 81:1 82:10 83:7 84:1 86:3 90:1 92:1 93:1 109:3 111:4 115:3 117:13 123:3 124:2 128:1 131:2 133:6 137:5 140:4 149:1 150:13 160:2 162:3 177:3 191:1 226:3 231:1 232:1 242:4 252:2 254:1 270:2 281:1 290:1 291:4 292:2 293:1 294:1 306:4 311:5 327:1 332:1 336:1 337:1 363:1 364:2 377:1 403:4 408:4 409:4 424:1 452:1 460:3 491:1 497:1 498:1 501:1 517:3 518:1 523:1 525:1 533:2 539:10 540:1 541:1 551:1 558:3 560:1 568:1 572:9 575:1 604:1 618:1 622:3 627:1 638:1 639:2 643:1 652:2 653:1 654:1 668:1 674:1 687:6 718:3 720:2 742:1 766:2 876:10 893:1 920:1 930:1 937:1 954:2 974:2 1021:1 1036:1 1097:1 1133:1 1154:1 1164:1 1179:4 1186:1 1219:1 1242:1 1260:1 1270:4 1296:1 1325:1 1406:1 1407:1 1428:1 1429:1 1443:1 1537:1 1547:1 1694:3 1728:1 1746:1 1813:2 1821:1 1902:1 2031:1 2093:1 2302:2 2313:4 2444:1 2477:1 2491:1 2509:1 2561:1 2576:1 2578:2 2692:5 2774:1 2917:1 2949:1 3012:1 3093:1 3178:6 3284:1 3325:1 3348:5 3399:1 3452:2 3504:2 3554:6 3753:2 3779:2 3893:8 3972:1 4041:1 4284:1 4303:1 4342:1 4404:1 4488:3 4498:3 4558:1 4762:1 4767:1 4768:2 5154:1 5155:1 5452:2 5510:1 5511:3 5990:1 6489:1 6627:1 6644:1 8026:4 8890:1 8959:1 9621:1 10530:1 11683:1 11734:1 11858:1 11877:1 11890:1 11891:1 11892:1 11893:1 11894:1 11895:1 11896:1 11897:2 11898:1 11899:2 11900:1 11901:1 11902:1 11903:1 #
0.00031658077116385847319529611709754 1:1 8:6 10:8 14:2 19:2 20:1 25:1 28:7 43:2 48:1 56:2 68:1 70:4 71:1 74:1 78:1 82:3 101:3 109:1 116:1 128:1 133:1 149:1 150:4 163:1 167:2 169:1 171:1 191:1 210:1 241:1 305:1 306:1 381:3 460:2 466:2 514:1 611:1 631:4 770:1 872:1 880:1 910:4 961:1 964:4 970:1 1034:2 1036:1 1180:1 1216:1 1323:1 1367:1 1570:1 1616:1 1650:1 1798:1 2155:1 2385:1 3584:4 3921:1 3923:1 3942:1 5552:1 6157:1 6375:1 6632:1 7491:2 8818:1 9314:1 20337:2 51110:1 51132:1 51212:2 52087:1 53771:1 53809:1 54789:1 54965:2 54966:1 54967:1 54968:1 54969:1 #
-0.00054179882947949454998631813040788 1:1 8:1 10:2 20:2 28:2 30:1 31:1 43:1 51:1 56:4 68:1 109:1 167:1 205:1 214:1 226:1 287:1 290:1 306:2 396:1 437:1 587:1 730:1 874:1 916:1 954:1 983:1 1285:1 1593:1 2386:1 2518:1 2519:1 2946:1 3149:1 3329:1 3754:1 4287:1 4363:1 6763:1 11174:7 12604:1 13646:1 20413:2 21012:1 21013:1 23223:1 28587:1 33653:1 33654:1 #
0.00054179882947949454998631813040788 1:1 10:2 20:1 22:1 209:1 242:1 254:3 306:1 539:1 704:1 718:1 6066:1 6199:2 7973:1 10299:1 11700:1 #
-0.00054179882947949454998631813040788 1:1 8:8 10:9 14:10 20:4 23:1 25:3 27:2 40:2 43:4 47:1 48:1 51:1 54:1 68:7 75:1 78:1 109:1 115:2 123:2 124:1 128:3 131:1 133:1 140:1 170:1 200:1 226:1 227:1 285:1 287:1 306:1 437:1 460:1 487:2 523:1 527:1 531:1 537:1 548:1 571:2 627:1 655:1 660:1 718:1 766:1 781:1 787:1 898:1 941:1 966:1 1021:1 1031:1 1142:1 1242:1 1254:2 1260:1 1547:1 1591:1 1648:1 1650:1 1688:1 1811:1 2145:2 2195:1 2326:1 2392:1 2441:1 2513:3 2556:2 2561:1 2618:1 2755:1 3095:3 3167:1 3323:2 3343:1 3397:1 3530:1 3585:1 3627:1 3646:1 3712:1 3809:2 3843:2 3990:1 4285:1 4303:1 4354:1 4359:1 4836:1 4975:1 4980:1 5004:1 5123:1 5243:2 5378:1 5402:1 5436:2 5622:1 6123:1 7933:1 9000:1 9744:3 10575:1 11363:1 11412:1 12481:2 12569:1 12982:1 14135:1 28123:1 28727:3 29090:1 30373:1 36773:1 38009:1 122707:1 122708:1 122709:1 122710:1 122711:1 #
-0.00054179882947949454998631813040788 1:1 8:1 10:1 14:1 19:1 20:5 30:2 47:1 48:1 68:1 82:1 92:1 128:1 137:2 218:1 242:1 254:1 371:1 396:1 539:1 587:1 614:2 877:1 1076:1 1296:1 1664:1 1729:1 2634:1 3038:1 3397:1 3607:1 3920:1 3981:1 5593:1 7455:1 7546:1 9406:1 9992:1 10217:1 11703:1 12922:1 20523:1 23329:1 24465:1 25250:1 31438:1 34755:1 41635:1 41867:1 42163:1 46577:1 47481:1 49446:1 49448:1 49628:1 49631:1 50328:1 64264:1 68642:1 71133:1 75474:1 79441:1 104115:1 133787:1 133788:1 133789:1 133790:1 133791:1 133792:1 133793:1 133794:1 #
-0.00053118708128104723600881875711366 1:1 8:4 10:17 13:1 14:7 19:1 20:3 21:2 23:3 28:4 40:1 41:1 43:2 48:1 51:1 56:9 68:15 70:1 75:2 86:1 88:1 109:2 111:1 117:1 123:1 124:1 128:2 140:2 149:2 150:10 162:2 163:1 167:4 226:5 242:1 252:1 294:1 306:1 336:4 367:1 403:1 408:3 413:1 430:4 437:1 505:1 525:2 539:2 558:1 572:6 575:2 601:8 613:1 631:2 643:2 656:1 711:1 720:2 776:2 909:1 954:1 964:3 995:2 1025:1 1228:1 1268:1 1329:1 1593:1 1637:1 1694:1 1905:1 1929:1 1998:1 2007:3 2037:1 2115:1 2131:7 2172:1 2365:1 2427:5 2433:1 2470:1 2513:1 2519:2 2578:1 3102:1 3495:3 3624:2 4265:5 4301:1 4318:2 4356:1 4390:1 5248:2 6144:1 6478:1 6479:1 6726:1 7377:4 7668:1 9290:1 19517:1 22135:1 38530:1 120269:1 136302:1 #
-0.00054179882947949454998631813040788 1:1 8:13 13:5 21:2 28:6 46:1 56:6 118:1 124:1 137:1 150:1 337:1 491:1 558:1 563:2 647:1 781:1 876:5 917:2 1077:1 1093:1 1264:1 1380:1 1412:1 1443:1 1626:1 1802:1 2756:1 2794:1 3199:1 3584:6 4421:1 5011:1 5035:1 5036:1 5142:1 5881:1 6078:1 11267:1 13602:1 14644:1 15579:1 17006:1 23538:1 24286:1 26072:2 28999:1 34339:1 39335:2 40982:1 41165:1 41181:1 44158:2 44248:1 44249:1 44252:2 44253:2 44254:1 47262:1 79937:1 91938:1 92410:1 92411:1 92412:1 120820:1 #
0.00054179882947949454998631813040788 1:1 8:8 13:1 20:3 27:2 28:1 29:1 33:1 39:2 42:5 44:1 51:1 56:7 59:1 62:1 63:1 68:2 89:1 99:5 109:2 128:1 129:2 131:2 149:2 170:2 179:1 186:1 191:1 241:1 249:2 291:1 310:2 314:2 413:1 460:1 546:1 729:2 1443:1 1729:2 1821:1 2272:1 2636:1 3802:1 8944:1 13757:2 #
-0.00054179882947949454998631813040788 1:1 19:1 43:1 83:1 124:1 150:1 539:1 942:1 2130:1 6019:1 #
-0.00019126244725563193004730377921874 1:1 8:8 10:2 19:3 28:1 784:2 1216:1 1337:2 2286:4 2324:1 2574:1 2652:2 3298:3 5391:1 7146:1 7865:1 9366:1 9403:1 9406:1 9528:1 9992:3 10798:1 11403:1 19693:1 19826:1 20018:2 20051:2 21154:7 22135:1 24866:3 25398:1 28980:1 33970:1 40263:1 41292:1 42417:1 47759:1 49197:1 49646:1 49668:1 49682:3 53936:1 59001:1 63819:1 67481:1 68512:1 68513:1 68514:1 68515:1 68516:1 68517:2 68518:1 68519:1 68520:2 68521:1 68522:1 68523:1 68524:1 68525:1 68526:1 68527:1 68528:1 68529:1 68530:1 68531:2 68532:1 68533:1 68534:1 68535:1 68536:1 68537:1 68538:1 68539:1 68540:1 68541:1 68542:1 68543:1 68544:1 68545:1 68546:1 68547:1 68548:1 68549:1 68550:1 68551:1 68552:1 68553:2 68554:1 68555:1 68556:1 68557:1 68558:1 68559:1 68560:1 68561:1 68562:1 68563:1 68564:1 68565:1 68566:1 68567:1 68568:1 68569:1 68570:1 68571:1 #
-0.00054179882947949454998631813040788 1:1 10:2 14:4 19:1 20:1 28:4 48:1 54:2 68:2 90:2 91:2 140:1 150:1 161:3 226:1 286:3 455:1 575:1 713:1 1171:1 1229:1 1230:1 1811:2 1823:2 1871:1 1886:1 2007:1 3229:1 4236:3 5010:1 5655:1 6233:2 7858:1 10101:1 13763:1 #
0.00026899319407567288172516972721837 1:1 8:28 10:23 13:5 14:13 19:6 20:9 23:2 24:1 25:1 28:3 30:1 40:6 42:10 43:4 48:13 54:3 56:4 68:13 70:1 74:1 75:1 81:2 83:2 88:4 92:1 101:5 104:1 109:4 111:2 115:4 117:2 123:3 124:6 127:1 128:6 133:2 137:2 150:2 162:1 170:1 171:2 177:1 211:1 226:4 227:1 236:1 242:4 252:2 254:5 285:1 286:1 290:2 291:1 298:2 302:1 306:1 333:1 371:1 403:6 406:2 407:5 424:1 437:1 457:1 460:1 481:1 497:1 498:2 501:1 514:1 533:1 547:5 558:2 560:1 563:2 569:1 572:1 601:1 613:1 628:1 631:2 643:1 744:2 770:1 836:1 876:10 893:1 954:1 964:1 1075:1 1083:1 1143:1 1150:2 1176:1 1230:1 1260:1 1262:1 1275:2 1289:1 1539:2 1558:1 1609:1 1656:1 1729:1 1744:1 1746:2 1906:2 1997:2 2000:5 2056:6 2090:3 2172:2 2274:1 2306:3 2389:8 2390:1 2495:4 2698:1 2849:1 2852:2 2918:1 2996:1 3078:1 3094:1 3192:1 3229:1 3311:1 3316:1 3323:1 3361:1 3363:3 3444:1 3713:3 3736:2 3817:2 3885:1 4082:1 4324:1 4531:1 4996:2 5228:2 5329:1 5399:2 5509:1 5811:1 6123:13 6249:2 6257:1 6350:1 6616:1 6644:1 7598:1 8113:2 8876:3 8884:1 8890:2 9067:1 10148:1 10369:2 10620:1 10756:1 10893:3 11449:3 12132:3 12926:1 13369:1 13991:1 14844:3 15954:2 16373:9 16827:1 16837:2 17483:1 17497:1 17500:2 20147:1 20148:1 20149:1 20150:1 20151:1 20152:1 20153:1 #
-0.00054179882947949454998631813040788 1:1 8:1 10:5 13:2 14:2 20:21 27:1 28:6 43:1 48:1 56:4 70:1 83:2 91:1 111:3 117:3 133:2 151:1 161:2 165:1 167:2 222:1 243:2 254:1 286:1 308:1 508:1 541:2 752:1 917:2 943:1 960:1 1134:1 1243:1 1322:1 1627:1 1811:1 2007:1 2461:1 2687:1 3229:1 3321:1 3502:2 3620:1 3704:1 3716:1 4432:1 4951:1 5329:1 5865:1 6479:1 6737:1 10179:1 10315:1 16051:1 20119:3 22283:2 36661:1 37544:1 41853:1 72544:1 72545:1 #
0.00054179882947949454998631813040788 1:1 8:1 10:10 25:1 32:1 82:1 150:1 231:1 519:1 539:4 572:2 974:1 1367:3 1405:1 1407:1 1522:1 1626:1 1692:1 2600:1 4469:1 4499:1 4569:2 14975:3 51262:1 #
-0.00054179882947949454998631813040788 1:1 13:2 14:1 20:4 43:1 124:1 140:1 287:1 298:1 531:1 539:1 718:2 767:1 983:2 1088:1 1133:1 1156:2 1519:1 1688:1 2195:2 2660:1 3329:1 4363:1 14172:1 14443:1 16507:1 16732:1 17457:1 19662:1 22603:2 25474:1 27043:1 55960:1 103153:1 103154:1 103155:1 103156:1 103157:1 103158:1 #
0.00054179882947949454998631813040788 1:1 8:13 10:17 13:1 14:17 19:9 20:4 25:5 27:3 28:11 40:3 43:2 48:5 68:10 81:4 82:4 83:6 88:1 90:1 109:1 111:2 114:1 117:2 123:3 128:4 131:2 133:1 137:5 140:1 150:3 151:1 162:1 164:1 167:2 173:1 213:1 226:7 228:1 242:2 252:1 287:1 288:1 290:1 302:1 306:2 312:1 336:1 365:2 391:1 404:1 411:1 413:1 442:1 450:1 460:2 497:1 508:1 517:2 519:2 525:1 529:1 533:1 537:2 539:2 541:1 548:1 558:1 559:1 560:2 572:4 601:4 623:1 628:1 632:1 646:1 658:3 660:1 684:1 704:1 718:1 747:3 761:1 766:1 788:1 865:2 909:2 915:1 916:1 943:1 974:1 1008:1 1009:1 1012:1 1022:1 1024:1 1076:4 1088:1 1146:1 1225:1 1259:2 1270:1 1303:1 1315:1 1341:1 1394:2 1399:2 1524:1 1547:1 1615:1 1616:1 1623:1 1641:1 1645:1 1676:1 1692:1 1809:1 1821:1 2005:1 2007:1 2131:2 2176:1 2196:1 2232:1 2363:1 2417:1 2582:1 2588:1 2590:1 2734:1 2938:1 2981:1 3032:1 3149:1 3187:1 3344:1 3408:1 3486:2 3495:1 3625:1 4195:1 4269:1 4352:1 4363:1 4572:3 4803:1 4849:1 5088:1 5249:1 5309:1 5552:1 6083:1 6085:4 6086:1 6089:2 6090:1 6091:1 6092:1 6093:1 6163:1 6460:1 6478:1 6700:5 6701:1 6702:1 6703:2 6704:1 6705:1 6706:2 6707:1 6708:2 6709:1 6710:2 6711:1 6712:1 6713:2 6714:1 6715:1 6716:2 6717:1 6718:1 6719:1 6720:1 6721:1 6722:1 6723:1 6724:1 #
-0.00054179882947949454998631813040788 1:1 150:1 229:1 291:1 572:1 1570:1 2435:1 3251:1 4612:1 5022:1 5189:1 7785:1 9449:1 9861:1 11633:1 13197:1 14451:1 18674:1 20899:1 20910:1 23378:1 24748:1 24962:1 26035:1 26849:1 27837:1 28341:1 32042:1 32135:1 33202:1 34117:1 34174:1 34322:1 37104:1 37488:1 39238:1 41042:1 41043:1 41044:1 41045:1 41046:1 41047:1 41048:1 41049:1 41050:1 41051:1 41052:1 41053:1 41054:1 41055:1 41056:1 41057:1 41058:1 41059:1 41060:1 41061:1 41062:1 41063:1 41064:1 41065:1 41066:1 41067:1 41068:1 41069:1 41070:1 41071:1 41072:1 41073:1 41074:1 41075:1 41076:1 41077:1 41078:1 41079:1 41080:1 41081:1 41082:1 41083:1 41084:1 41085:1 41086:1 41087:1 41088:1 41089:1 #
-0.00054179882947949454998631813040788 1:1 14:1 20:3 28:1 40:1 51:1 68:1 89:1 162:1 164:1 177:1 287:1 437:1 539:1 572:1 646:1 656:1 661:1 730:1 966:1 1538:1 2252:1 2773:1 3149:1 3495:1 3559:1 10833:1 17518:1 29128:1 #
0.00054179882947949454998631813040788 1:1 8:6 10:10 14:7 19:5 25:2 27:1 41:1 42:1 43:2 45:1 48:2 51:1 54:2 56:2 62:1 68:9 78:2 88:3 93:1 109:2 111:1 117:1 123:5 124:1 128:5 140:2 149:3 155:1 162:2 163:5 167:2 226:2 227:2 228:1 240:1 242:2 248:2 294:1 306:2 327:2 331:1 337:1 357:1 403:2 450:2 460:3 488:1 560:3 613:1 622:1 632:1 635:1 643:3 672:1 676:1 694:1 704:1 766:1 836:1 876:1 966:1 1179:1 1222:1 1243:4 1262:1 1268:2 1270:1 1327:1 1394:2 1406:1 1412:1 1547:1 1548:1 1815:2 1876:1 1905:2 2053:1 2115:2 2118:1 2147:1 2191:1 2195:1 2223:1 2307:1 2439:1 2470:1 2588:1 2660:2 2795:1 2938:1 3079:1 3243:1 3486:1 3537:1 3548:1 3672:1 3706:1 4459:1 4709:1 4712:1 4801:1 5243:1 5290:1 5312:1 6229:1 6249:2 6365:2 6368:1 6398:1 6496:2 6808:1 6893:2 7115:1 8924:2 9087:1 9450:1 10632:2 10948:1 11985:1 12231:1 12660:1 12896:1 14631:1 15376:1 16837:2 16839:2 17507:1 19361:1 19938:2 21012:1 22133:1 26917:1 34616:1 50841:1 60970:1 62154:5 62155:1 62156:1 #
0.00054179882947949454998631813040788 1:1 8:2 10:5 14:2 19:2 20:1 25:1 40:1 68:4 75:2 82:4 83:1 94:2 109:1 116:1 123:1 128:2 132:1 137:1 150:3 151:2 160:1 161:1 162:1 252:2 306:2 332:2 336:1 337:1 363:1 364:1 365:1 403:2 408:2 523:1 541:1 558:1 559:1 576:1 627:1 636:1 645:2 646:1 676:1 770:1 788:1 1080:1 1088:1 1095:1 1292:1 1303:1 1350:1 1443:1 1557:1 1615:1 2037:1 2087:1 2753:1 5262:1 6538:1 7476:2 11616:2 33739:1 42481:1 62658:1 #
-0.00054179882947949454998631813040788 1:1 163:26 25280:2 25281:1 25282:1 25283:2 #
0.00054179882947949454998631813040788 1:1 8:24 10:51 13:5 14:48 19:19 20:1 25:6 27:3 28:3 38:1 40:9 43:4 48:10 54:3 68:38 70:6 75:2 76:3 78:5 80:3 81:1 83:2 88:5 109:4 111:3 115:2 117:3 118:1 123:15 127:4 128:3 131:2 133:9 136:1 137:2 140:6 144:4 148:6 149:2 150:45 151:1 152:2 155:1 157:2 161:8 162:3 167:26 177:4 189:2 210:1 213:1 214:1 216:1 226:10 227:2 228:2 231:1 242:4 252:7 254:1 286:1 287:1 290:3 292:3 294:1 297:1 306:12 327:3 332:2 336:11 346:1 364:1 365:2 403:11 408:9 409:1 442:1 450:1 455:1 460:7 495:1 509:1 517:2 519:1 523:1 525:2 533:2 539:1 558:6 560:2 568:1 572:7 576:2 611:1 620:1 622:1 626:3 628:1 636:1 638:1 643:5 654:2 660:1 665:1 681:1 687:17 715:2 720:1 753:2 766:7 836:1 885:2 887:2 938:1 951:1 964:6 966:3 974:2 975:1 995:1 1008:3 1021:1 1047:1 1075:2 1083:1 1091:1 1113:2 1116:1 1133:2 1146:2 1169:1 1180:2 1186:1 1199:1 1208:1 1241:1 1248:1 1249:1 1267:1 1268:3 1303:1 1306:1 1322:2 1323:1 1327:1 1352:2 1367:2 1394:2 1400:1 1406:3 1407:2 1424:1 1546:1 1557:3 1587:1 1626:1 1648:1 1649:2 1656:1 1662:1 1663:1 1692:4 1797:1 1798:1 1809:1 1812:1 1830:1 1857:2 1902:1 1996:2 1998:1 2007:5 2073:1 2079:1 2127:1 2130:1 2131:8 2172:2 2177:1 2195:1 2196:1 2328:1 2364:1 2405:1 2429:4 2464:3 2481:1 2513:2 2561:2 2565:1 2634:1 2707:1 2765:1 2880:1 2884:2 2909:1 2956:2 3024:1 3181:2 3266:1 3268:1 3317:1 3342:1 3398:1 3501:1 3626:4 3796:1 3896:2 3948:1 4079:1 4237:1 4318:3 4323:2 4327:1 4329:1 4345:1 4451:1 4465:2 4550:1 4587:1 4613:2 4976:1 4996:1 5050:2 5123:1 5300:1 5398:1 5509:1 5685:1 5755:1 5901:1 5928:1 6084:2 6180:1 6321:1 6478:5 6634:1 6726:2 6729:9 6732:13 7041:1 7148:1 7615:1 7726:1 8024:1 8306:1 8549:1 8642:1 8880:1 8929:1 9243:1 11140:1 11712:1 11845:1 12332:1 12654:1 12785:1 13385:1 13971:1 14014:2 14375:6 14472:1 15100:1 15113:1 15320:1 16039:1 17432:2 19327:1 19618:1 22509:1 33257:1 39928:1 42522:1 43947:1 43980:3 51241:1 52073:1 55558:1 57362:11 57365:6 57366:6 57376:1 57377:2 57378:1 57379:1 57380:1 57381:1 #
-0.00054179882947949454998631813040788 1:1 8:22 10:6 15:1 20:2 21:3 56:2 68:2 111:1 117:1 137:1 163:1 167:1 236:1 292:1 312:1 533:1 558:1 563:1 646:1 660:1 668:1 718:1 720:1 730:1 747:1 754:1 917:1 966:1 1051:1 1264:1 1310:1 1312:1 1381:1 1547:1 1593:1 2314:2 2432:1 2583:1 2617:1 2794:1 2858:1 3584:2 3625:1 3823:1 3876:1 3891:1 3951:1 3981:1 4404:1 5142:1 6763:1 7870:1 7950:1 8805:1 8819:1 8869:1 11363:1 13053:1 15186:1 20984:2 21012:1 21013:1 22466:1 29954:1 30949:1 39335:1 39337:1 41165:1 42643:1 44158:1 44257:1 45093:1 47262:1 47263:1 47264:1 47265:1 47266:1 47267:1 47268:1 47269:1 47270:1 47271:2 47272:1 47273:1 47274:1 47275:1 47276:1 47277:1 47278:1 47279:1 47280:1 47281:1 47282:1 #
0.00054179882947949454998631813040788 1:1 8:7 10:9 14:6 19:1 25:2 27:1 28:1 38:1 40:4 43:3 48:5 54:2 56:1 68:9 75:1 81:2 82:3 88:2 94:2 109:2 111:1 115:2 116:1 117:1 123:2 124:1 128:6 131:1 140:3 149:1 150:9 162:3 163:1 189:2 210:1 226:6 252:4 285:1 290:1 306:2 403:2 408:3 409:2 414:1 460:1 469:1 523:1 525:1 547:1 548:1 560:1 572:2 576:1 601:3 604:1 627:1 643:1 647:1 648:1 655:1 677:1 704:2 724:38 738:1 746:1 751:2 760:1 766:1 769:1 836:1 886:1 966:1 998:1 1113:1 1133:1 1180:1 1183:1 1230:1 1256:2 1260:1 1268:2 1405:1 1406:2 1519:1 1542:1 1585:2 1811:1 2007:6 2063:1 2085:1 2131:1 2134:1 2155:1 2227:1 2436:1 2445:1 2504:1 2592:1 2835:1 3021:1 3482:1 3830:2 4123:1 4237:1 4241:1 4242:1 4318:1 4371:1 4774:1 4937:1 4996:1 5599:1 5685:1 6004:1 6122:1 6246:1 6267:1 7988:1 9172:1 9681:1 10148:1 10433:1 12288:1 13851:1 14651:1 15610:1 16875:1 20249:1 20344:1 49789:1 54438:1 #
-0.00054179882947949454998631813040788 1:1 8:27 10:23 13:2 14:8 19:8 25:2 28:1 29:1 32:1 40:14 41:1 42:2 43:7 47:1 48:9 56:1 63:2 68:23 75:3 80:1 81:1 82:31 83:1 88:4 94:12 109:4 111:1 115:9 116:2 117:1 118:5 123:5 128:4 131:4 133:1 140:2 149:1 150:9 155:2 162:2 163:1 177:1 226:6 227:3 228:1 232:9 242:12 252:4 285:2 286:4 287:1 292:1 299:2 306:3 309:2 311:2 327:1 364:1 365:1 403:2 407:1 408:1 409:3 460:4 497:1 503:1 518:1 533:1 540:1 541:1 547:2 558:3 568:4 572:1 575:1 601:1 606:2 623:2 624:1 639:1 654:1 655:1 656:3 660:2 668:1 672:2 677:1 679:2 715:2 766:1 769:2 778:1 836:1 876:1 937:1 959:1 966:1 973:1 974:1 1021:1 1022:1 1076:3 1133:1 1142:1 1179:2 1225:1 1230:1 1259:1 1270:2 1307:2 1330:1 1355:1 1368:1 1387:1 1407:1 1443:1 1552:1 1609:1 1611:2 1626:1 1645:1 1648:1 1649:1 1832:1 1843:1 1996:1 2061:1 2105:1 2131:1 2147:1 2207:1 2264:1 2267:3 2285:1 2435:1 2584:1 2734:1 2738:2 2746:1 2753:2 2765:2 2773:5 2795:1 2796:3 2943:1 3017:1 3177:1 3536:1 3896:1 3952:1 3978:1 3994:2 4003:1 4033:1 4317:1 4328:1 4339:1 4346:1 4391:1 4777:1 4988:1 5012:2 5027:2 5067:3 5097:1 5319:1 5438:3 5595:1 5685:1 5716:1 6204:4 6567:1 7947:1 7973:4 8757:1 8819:1 8890:1 9156:1 9269:1 9320:1 9515:1 10090:1 10315:1 10430:1 10723:1 10878:1 10923:1 11684:1 11786:1 12132:2 12135:1 13109:1 13647:1 13980:1 14767:1 15422:1 17077:1 17288:3 17582:2 22123:1 22540:1 22549:1 23492:1 26997:1 30086:1 30969:1 33359:1 35996:1 39017:1 40835:1 41123:1 44164:1 45170:1 50225:1 58913:1 60369:1 60981:1 64136:1 69378:1 69379:1 69380:1 121133:1 121134:1 121135:1 #
-0.00054179882947949454998631813040788 1:1 8:4 10:19 13:1 14:12 19:6 20:7 27:1 28:4 33:1 40:11 43:3 48:3 51:1 54:2 56:1 63:1 68:9 70:3 74:2 75:3 78:2 81:3 82:2 83:5 88:3 94:3 109:2 123:4 128:4 131:1 137:4 140:2 149:1 150:4 163:2 167:8 226:4 227:1 232:2 236:2 242:1 248:1 270:1 285:2 292:1 306:5 312:1 327:1 332:1 336:2 337:1 403:1 408:2 442:1 460:6 488:1 490:1 525:1 532:1 540:1 541:1 547:1 568:1 572:1 575:1 576:1 601:3 643:1 660:1 720:1 753:1 964:3 966:1 983:1 1008:2 1034:1 1043:1 1075:1 1076:1 1179:1 1259:2 1260:1 1270:1 1396:1 1406:1 1407:1 1530:1 1547:1 1626:1 1771:1 1843:1 2041:2 2080:1 2160:1 2248:1 2325:1 2524:2 2601:2 2671:1 2724:1 2738:1 2746:1 2822:1 2849:1 2993:1 3397:1 3495:1 3499:1 3555:1 3625:1 3753:1 3754:1 3783:1 3808:3 3831:1 3840:2 3889:1 4269:1 4469:1 4612:1 4939:1 5114:1 5176:1 5312:1 5442:1 5548:2 5559:1 5697:1 5699:1 6567:3 7061:1 7695:1 9324:1 10380:1 10602:1 10622:1 10631:1 10974:1 11117:1 11262:1 11776:1 11969:1 12135:5 12150:1 12359:1 12800:1 12990:1 13170:1 13967:1 14224:1 14304:1 14469:3 14505:1 14854:1 22605:2 23203:1 26261:1 26577:1 28076:3 28552:1 28613:1 30208:1 31089:1 32207:1 37053:1 37225:1 37289:1 54723:1 54980:1 64259:1 65156:1 68934:1 76306:1 90882:1 112037:1 124652:1 130616:1 133453:2 133454:1 135500:1 135501:1 135502:1 135503:1 135504:1 135505:2 135506:1 135507:1 #
-0.00054179882947949454998631813040788 1:1 8:1 10:9 13:2 14:11 15:1 19:2 20:1 27:2 28:6 32:1 40:4 42:1 43:4 48:1 54:1 56:6 59:1 68:5 74:2 75:2 81:1 88:1 103:1 109:1 111:3 117:3 123:1 128:4 140:2 150:3 162:1 226:2 236:2 242:1 291:1 306:3 403:1 510:1 516:1 538:1 572:1 601:2 636:2 655:1 665:1 687:1 751:1 766:1 781:1 787:1 874:1 877:1 964:2 966:1 989:1 999:1 1008:1 1037:1 1222:1 1230:1 1357:1 1406:2 1648:1 1688:2 2195:1 2519:2 2520:2 2753:2 2830:1 2835:1 2845:1 2852:1 2937:1 3164:1 3192:1 3550:2 3626:1 3796:1 3815:1 3985:1 4132:2 4261:1 4284:1 4365:1 4612:2 4813:1 5077:1 5078:1 5398:3 6019:1 6188:1 6530:1 7098:2 11555:1 12145:1 14327:1 14451:1 17078:1 19162:1 36677:1 46105:1 48327:1 49863:1 112442:1 112443:2 #
0.00054179882947949454998631813040788 1:1 8:5 10:7 13:1 14:1 19:3 25:1 31:2 40:1 43:1 48:2 68:2 76:1 82:3 83:5 115:1 128:2 140:2 150:4 151:2 162:1 210:1 230:1 232:1 306:1 364:1 368:2 408:2 540:1 541:1 572:1 613:1 632:2 660:1 677:1 695:1 1155:2 1179:1 1248:1 1296:1 1570:1 2006:1 2160:1 2592:1 2617:1 2671:1 2831:1 3000:3 3398:1 3459:1 3763:1 4469:1 4569:1 4740:1 4988:1 5544:1 8540:1 9107:1 9397:3 13060:1 14295:1 14975:1 17498:1 #
-0.00054179882947949454998631813040788 1:1 8:2 10:6 14:1 19:2 21:1 25:1 28:1 29:1 42:1 43:1 75:1 78:1 82:1 124:1 131:1 133:1 140:1 150:3 169:1 306:1 326:1 337:1 403:1 519:1 531:1 548:2 554:1 572:1 613:1 619:1 628:1 631:1 645:1 718:1 770:1 876:2 1143:1 1380:1 1405:1 1648:1 1753:1 2191:1 2359:1 2364:1 2631:1 5177:1 5303:1 6953:1 8056:1 9596:2 14811:1 17973:1 41507:2 41508:1 41509:1 #
0.00054179882947949454998631813040788 1:1 8:13 10:21 13:1 14:4 15:1 19:6 20:3 22:3 25:2 27:1 28:11 40:9 43:3 48:10 56:3 63:1 68:6 70:2 71:1 74:1 75:1 82:3 88:1 94:3 99:1 111:4 115:1 117:4 118:1 123:3 124:3 127:1 128:8 131:1 133:1 140:2 145:3 148:1 149:2 150:2 160:2 161:2 162:1 163:3 164:1 167:4 171:1 189:1 202:1 210:1 227:3 228:1 232:1 242:1 252:1 285:1 286:1 306:7 327:1 334:2 364:1 403:1 408:3 409:1 430:2 460:2 485:1 495:1 514:1 527:1 531:1 548:5 560:1 572:2 611:1 632:2 635:1 643:3 646:1 654:1 658:1 660:1 664:1 672:1 674:1 738:1 739:1 769:2 783:1 923:4 961:1 998:1 999:2 1040:1 1063:1 1065:1 1076:1 1092:1 1116:2 1133:1 1155:3 1156:1 1163:1 1241:1 1260:2 1312:1 1341:9 1405:1 2007:1 2047:1 2051:1 2131:1 2335:1 2359:1 2470:2 2559:1 2561:1 2563:4 2591:1 2671:2 2805:1 2849:1 3020:1 3094:1 3199:1 3293:7 3436:1 3459:1 3574:1 3650:1 3651:1 3920:1 3999:2 4008:1 4143:2 4246:1 4284:3 4292:1 4317:1 4420:1 4431:1 4478:1 4553:1 4576:1 5118:1 5256:1 5262:4 5398:2 5567:1 5670:1 7181:1 7330:1 8058:1 8070:1 8465:1 8533:1 8534:1 8535:1 8660:2 9057:1 9680:1 9783:2 11305:2 11403:1 12358:1 13354:3 13997:1 14605:1 14975:2 15388:1 15479:2 16875:1 17003:2 17215:1 19787:1 22273:1 24540:1 24570:1 24747:1 36507:1 41772:1 44324:1 50754:1 50789:4 50790:1 50791:1 50792:1 50793:1 51141:1 52101:1 54538:1 54539:1 54540:1 54541:1 54542:1 54543:1 54544:1 #
-0.00054179882947949454998631813040788 1:1 8:7 10:30 14:14 19:4 20:6 23:3 25:4 27:1 28:4 31:2 34:1 40:12 41:1 43:5 48:9 54:1 56:9 63:1 68:25 70:3 74:4 75:3 78:4 81:1 82:17 83:3 88:5 90:1 94:3 109:1 111:1 117:1 123:2 128:7 133:5 137:2 140:1 149:1 150:19 155:6 160:1 161:1 162:3 163:1 167:8 173:2 191:2 213:1 218:1 226:2 232:7 236:1 242:2 252:1 254:1 285:1 287:3 292:1 297:1 306:4 336:3 337:2 363:1 403:7 408:4 409:1 460:1 467:1 491:1 495:1 509:2 519:1 523:1 525:1 531:1 543:1 547:6 558:1 560:1 562:1 568:2 570:1 572:5 575:3 576:3 601:4 614:1 643:3 652:1 654:1 656:1 677:2 704:2 720:2 729:2 766:2 769:2 787:4 865:3 887:2 907:1 915:1 938:2 960:1 964:3 966:2 974:1 1022:1 1047:1 1076:2 1137:4 1148:1 1208:1 1222:1 1225:1 1289:1 1312:1 1322:1 1348:1 1394:1 1396:1 1406:1 1530:1 1585:1 1593:30 1649:1 1684:1 1692:1 1694:3 1811:1 1883:1 2007:2 2031:1 2041:1 2145:2 2274:2 2389:2 2393:1 2429:1 2557:1 2671:1 2672:1 2722:1 2734:1 2765:1 2860:1 2919:2 2937:1 3109:1 3316:1 3347:1 3482:1 3485:1 3523:2 3625:3 3755:1 3808:3 3810:1 3817:1 3885:1 3889:1 3972:1 4077:2 4166:1 4352:1 4402:1 4739:2 4763:1 4939:1 5312:1 5476:1 5509:1 6079:2 6567:1 6634:1 6767:1 7104:1 7377:1 7956:1 8609:3 8682:1 8686:2 8929:1 9123:1 9634:9 10318:2 11253:1 11865:1 12357:1 13385:1 14469:3 17625:1 19313:1 20046:1 30341:1 31001:1 39321:3 39423:1 41875:1 42643:1 48500:1 49962:1 51257:1 54083:1 54763:1 63189:1 68659:1 68660:2 68661:1 68662:1 68663:1 68664:1 133915:3 #
0.00054179882947949454998631813040788 1:1 8:2 10:2 20:5 25:1 33:2 43:4 56:2 64:1 75:1 86:1 128:1 162:1 164:1 217:1 249:1 251:3 252:1 263:1 273:1 306:1 487:1 727:1 878:1 884:1 888:1 891:1 895:1 896:2 897:2 898:1 899:1 900:1 901:1 #
0.00054179882947949454998631813040788 1:1 8:6 10:9 14:5 19:2 31:1 32:1 40:1 43:2 48:3 50:1 54:1 68:5 82:7 83:1 94:2 101:1 109:2 111:1 115:1 117:1 128:1 130:1 131:1 133:1 164:1 177:3 215:1 232:1 242:4 254:2 272:1 287:2 337:1 387:2 403:3 454:1 460:2 461:2 488:1 517:1 525:1 529:1 533:2 576:1 614:1 660:1 751:2 769:1 787:1 954:1 995:1 1051:1 1080:1 1090:1 1091:1 1095:1 1179:1 1268:1 1270:1 1312:1 1555:1 1812:1 1865:1 2053:1 2056:1 2238:1 2257:1 2325:2 2436:1 2822:1 2869:2 3452:1 3495:1 3545:1 3919:1 5428:1 5637:1 6644:1 6945:1 8899:1 10087:1 10088:1 10089:1 10090:1 10091:1 10092:1 10093:1 10094:1 10095:1 10096:1 10097:1 10098:1 10099:1 #
-0.00054179882947949454998631813040788 1:1 8:17 10:27 13:3 14:23 19:6 20:327 21:1 27:5 28:6 29:2 30:1 40:9 41:2 42:1 43:3 48:18 54:3 56:8 68:18 75:5 81:1 83:1 109:3 111:1 115:2 117:1 123:2 128:8 137:1 140:3 150:13 157:1 161:1 162:3 177:1 180:1 191:1 214:1 226:3 227:1 242:1 252:7 254:1 294:1 306:3 337:2 338:1 346:3 348:1 365:1 403:6 408:5 409:2 415:1 437:3 455:1 458:1 468:2 469:1 491:1 494:2 518:1 539:1 548:2 549:1 554:6 568:1 570:1 572:14 575:3 576:2 601:3 620:1 635:1 636:1 643:1 646:1 654:1 656:1 718:1 720:1 741:1 752:1 753:1 769:1 770:1 781:2 786:2 836:1 876:2 893:1 909:1 917:1 943:1 955:1 964:2 974:1 1047:1 1049:4 1068:1 1075:2 1089:1 1097:1 1113:1 1200:1 1216:1 1225:2 1241:3 1242:1 1262:7 1268:2 1270:3 1275:1 1290:1 1295:1 1312:1 1387:1 1406:4 1415:1 1419:1 1521:1 1530:1 1797:1 1812:1 1819:4 1838:1 2037:1 2145:2 2217:1 2222:1 2266:1 2332:1 2440:1 2470:1 2520:2 2684:1 2694:1 2773:4 2810:1 2835:1 2905:1 2939:2 3094:1 3320:1 3379:4 3485:1 3489:1 3510:1 3752:1 3809:1 3908:3 4236:2 4241:1 4251:2 4317:1 4323:1 4324:1 4342:1 4432:1 4716:1 4996:1 5044:1 5229:1 5255:1 5300:1 5509:1 5572:1 5637:1 5816:1 5895:1 6161:1 6193:1 6762:1 6883:1 6897:2 8924:1 9034:1 9141:2 9175:1 9616:1 9680:1 10014:1 11118:2 11254:2 11256:1 11862:1 12277:1 12535:3 13369:1 14305:4 15354:2 17683:1 19277:1 19679:1 19715:1 27683:1 34490:14 45651:1 53148:1 58938:1 60655:1 63483:1 64541:1 68705:1 68706:1 68707:1 68708:1 #
0.00054179882947949454998631813040788 1:1 8:14 10:9 13:1 14:9 19:2 20:2 21:1 23:2 25:2 28:2 33:1 40:6 42:2 43:2 48:5 51:3 54:3 68:2 75:1 82:1 88:1 94:4 99:2 109:2 111:1 117:1 124:5 128:4 131:2 133:1 134:1 140:1 149:2 150:1 167:2 177:1 228:1 242:1 248:1 252:3 254:1 286:2 312:1 396:2 403:1 409:1 410:1 452:1 455:1 527:2 531:1 558:2 572:3 576:1 601:2 636:1 660:3 720:1 780:1 876:1 910:1 933:2 995:1 1116:1 1183:1 1225:1 1241:1 1268:1 1372:1 1405:1 1425:1 1539:2 1807:1 2080:1 2105:1 2267:1 2274:1 2301:1 2360:1 2385:1 2405:1 2524:1 2584:1 2592:1 2623:1 2855:1 2880:1 3031:1 3149:1 3408:1 3558:1 3672:1 3693:1 3901:2 3926:1 3990:1 4156:1 4317:1 4321:1 5027:1 5037:1 5089:1 5312:1 5571:1 6768:1 6801:1 7275:1 7662:1 7695:1 9175:1 9483:1 9507:1 12855:1 13597:1 14605:1 16837:1 20240:1 21313:2 32215:1 34347:1 37036:1 42431:1 42807:1 45144:1 46614:1 51151:1 51842:1 51843:1 57189:1 57190:1 57191:2 57192:1 57193:1 #
0.00054179882947949454998631813040788 1:1 8:14 10:26 14:9 20:5 27:4 28:4 32:1 40:8 43:2 47:4 48:2 51:2 54:1 56:4 68:9 75:2 80:1 83:1 86:1 88:1 92:1 109:5 128:5 137:1 140:2 150:4 151:1 157:1 160:1 161:2 162:7 177:1 193:2 200:4 214:5 215:1 226:5 229:1 240:2 246:1 252:4 297:3 298:1 306:2 326:1 337:1 365:2 403:2 408:1 409:1 480:1 487:2 491:1 497:1 533:1 539:4 540:1 541:1 548:7 560:2 572:4 576:3 613:1 627:1 661:1 680:1 750:2 753:3 759:1 836:2 910:1 954:3 960:1 964:3 981:1 995:1 1053:2 1094:4 1241:2 1242:3 1255:1 1307:1 1325:1 1443:2 1530:4 1538:2 1547:1 1625:1 1688:2 1694:1 1810:1 1878:1 2060:1 2105:2 2117:1 2147:1 2221:1 2302:2 2502:3 2513:2 2580:1 2634:1 2685:1 2713:1 2743:1 2810:1 2928:2 2941:1 3095:1 3322:2 3398:1 3465:3 3474:9 3485:1 3501:1 3954:1 4023:6 4240:1 4285:1 4301:1 4356:3 4362:1 4364:1 4413:1 4448:1 4469:1 4518:2 4521:1 4532:2 4613:1 4754:1 4897:1 5088:2 5097:1 5210:1 5249:1 5312:1 5382:5 5398:2 6049:1 6179:1 6335:1 6768:1 6884:1 7092:1 7117:1 7120:1 7814:1 8794:1 8925:1 9743:1 9744:3 10931:1 11287:2 11452:1 12317:1 14152:3 14389:8 14390:8 14391:2 14393:1 14394:1 14395:1 14397:1 14400:1 14401:1 14402:1 14403:1 14404:2 15541:4 #
0.00054179882947949454998631813040788 1:1 8:5 10:7 13:1 19:5 25:1 27:1 32:1 40:4 43:1 48:4 56:1 68:2 82:4 88:1 94:1 99:1 107:1 109:1 149:1 150:3 164:1 214:1 226:1 227:1 242:1 306:4 460:1 495:1 547:1 565:1 632:2 635:1 887:1 1180:1 1311:1 1341:2 1548:1 1570:1 1797:1 1798:1 1849:1 2082:1 2160:1 2172:1 2446:1 2563:2 2774:1 2943:1 2990:1 3000:1 3436:1 3557:1 3823:1 3999:1 4008:1 4106:1 4553:1 5118:1 5956:1 6019:2 7587:1 8465:1 8539:1 9067:1 9107:1 11741:1 17152:1 24543:1 36507:1 40482:1 42768:1 50664:1 50715:1 54062:2 54797:1 62359:1 #
-0.00054179882947949454998631813040788 1:1 28:1 82:1 622:1 636:1 1538:1 8689:1 9126:1 19657:1 19671:1 25994:1 33389:2 40838:1 42170:1 43216:1 43217:1 43225:1 43232:1 45095:1 47617:1 #
-0.00054179882947949454998631813040788 1:1 8:17 10:29 13:1 14:13 19:8 25:2 27:1 28:1 32:3 40:11 43:5 47:1 48:8 56:1 63:1 68:24 70:3 75:3 78:2 80:1 82:29 88:4 94:15 109:4 111:2 115:7 116:2 117:2 118:5 123:5 128:5 131:5 149:1 150:5 155:1 159:2 160:2 162:1 164:1 213:1 226:6 227:3 228:1 232:6 242:12 252:5 285:2 286:3 287:1 292:1 299:2 306:3 309:2 311:1 327:1 364:2 365:1 403:1 407:1 409:5 460:3 461:1 497:1 518:1 539:3 547:2 558:3 568:4 574:1 575:2 601:2 606:2 623:2 624:1 646:2 654:2 655:1 656:3 660:2 672:1 677:1 715:2 729:3 766:1 778:1 780:1 787:1 937:1 959:1 960:1 966:1 974:1 1021:1 1022:1 1076:3 1133:1 1142:1 1179:2 1225:1 1230:1 1259:1 1268:1 1270:2 1307:1 1355:1 1368:1 1387:1 1407:1 1552:1 1609:1 1611:2 1645:1 1649:1 1832:1 1843:1 1996:1 2105:1 2131:2 2147:1 2207:1 2264:1 2267:2 2285:1 2435:1 2518:2 2581:1 2584:1 2729:1 2734:1 2738:2 2746:1 2753:2 2765:2 2773:5 2795:1 2796:3 2814:1 3017:1 3032:1 3117:1 3177:1 3896:1 3952:1 3978:1 3994:1 4033:1 4317:1 4328:1 4339:1 4391:1 4521:3 4777:1 4988:1 5012:2 5027:3 5067:3 5097:1 5319:1 5556:1 5595:1 5685:1 5716:1 6204:4 6567:1 7947:1 7973:4 8757:1 8819:1 8890:1 9156:1 9515:1 9754:3 9987:1 10430:1 10723:1 11684:1 12132:2 12135:1 12535:1 13109:1 13647:1 13980:1 14533:1 14767:1 16012:1 17077:1 17582:2 22238:1 22540:1 22549:1 23492:1 29307:1 30377:1 30969:1 33359:1 39017:1 41123:1 43972:1 45170:1 48325:1 50225:1 54375:3 58913:1 60369:1 60981:1 64136:1 69378:1 69379:1 71968:3 71969:1 124955:3 124956:1 #
0.00054179882947949454998631813040788 1:1 8:11 10:5 13:1 14:1 19:2 27:1 33:1 38:1 39:1 40:2 41:1 42:6 48:1 54:1 68:1 89:1 116:1 128:6 171:1 179:1 182:1 186:1 191:1 193:1 227:1 232:1 249:1 255:2 340:2 357:1 363:1 364:1 498:1 533:2 558:1 613:1 619:3 624:1 656:1 660:1 726:1 747:1 858:1 914:2 955:1 1074:1 1094:1 1146:1 1179:4 1186:1 1227:1 1247:1 1250:1 1556:1 1676:1 1738:1 1808:1 1826:1 2330:2 2509:1 2564:1 3479:2 5441:1 6133:1 6134:1 6135:1 6136:1 6137:1 6138:1 6139:1 6140:1 6141:1 #
0.00054179882947949454998631813040788 1:1 8:2 10:2 13:1 14:1 28:1 56:3 109:1 133:1 167:2 531:1 964:1 2519:1 2520:1 3409:1 3923:1 4320:1 4482:1 4989:1 14975:1 56884:1 #
9.8851799648665811780234857764071e-06 1:1 8:8 10:16 13:4 14:22 19:3 20:1 25:2 28:1 32:1 40:9 43:2 48:8 54:1 63:1 68:8 75:1 81:1 82:13 88:3 94:2 109:3 111:2 115:9 116:3 117:2 123:11 128:6 133:3 140:1 150:4 163:74 216:1 226:2 227:2 228:3 231:2 233:1 236:4 242:4 252:4 286:1 294:2 306:5 311:1 333:1 334:1 357:3 364:1 411:2 424:1 437:2 460:1 470:1 494:2 523:1 531:1 533:1 536:1 537:1 544:1 547:1 563:1 572:1 574:1 576:1 643:1 646:1 656:1 702:1 995:1 1022:1 1025:1 1047:1 1063:2 1095:1 1133:1 1136:1 1171:1 1179:2 1186:1 1199:1 1228:2 1229:1 1253:4 1259:1 1260:2 1310:1 1327:2 1394:1 1405:1 1452:1 1547:1 1645:1 1655:1 1797:1 1841:2 1849:2 1857:1 2054:1 2087:1 2257:2 2418:2 2442:1 2563:2 2614:2 2741:1 2774:1 2846:1 2858:1 2989:3 3199:1 3444:1 3472:1 3523:1 3653:1 3722:1 3877:1 3901:2 3921:1 3999:1 4034:1 4261:2 4317:1 4328:1 4401:1 4404:1 4467:1 4484:1 4585:1 4676:1 4940:2 5161:1 5615:1 6025:2 6261:1 6269:1 6299:1 6327:1 7491:1 8084:1 8290:1 8532:1 8890:3 8951:1 9067:1 9508:1 9893:2 10793:1 11815:1 12352:1 12594:2 12939:1 13536:1 13897:1 14854:1 14855:1 15394:1 15795:1 19613:1 20941:1 22453:1 27679:2 32020:1 41116:1 43649:1 47242:1 47954:1 50967:1 51151:1 51157:3 52046:1 52125:1 54321:1 55121:1 55688:1 59592:1 61740:1 63470:1 63471:1 63472:1 63473:1 63474:1 63475:2 63476:1 63477:1 63478:1 63479:1 63480:1 #
0.00054179882947949454998631813040788 1:1 8:14 10:21 14:5 15:1 19:4 20:8 25:2 27:4 28:7 31:1 40:5 43:4 48:4 56:1 68:9 82:3 83:1 91:1 94:1 115:2 123:2 124:1 125:1 128:5 140:1 169:1 215:2 226:2 227:1 232:1 233:1 236:2 242:2 306:4 326:2 403:1 408:2 536:1 544:1 548:1 549:1 558:1 559:1 560:1 604:1 607:2 615:1 622:2 632:4 639:2 648:1 654:1 660:1 715:2 718:1 964:1 1013:1 1077:3 1133:1 1235:2 1252:3 1257:1 1259:1 1270:1 1282:1 1341:3 1426:1 1428:1 1486:1 1543:1 1547:1 1635:1 1694:1 1794:1 1869:1 2051:7 2057:2 2061:1 2202:2 2209:1 2257:3 2321:1 2418:2 2509:2 2559:6 2617:1 2765:1 3018:1 3258:1 3311:1 3485:1 3493:1 3548:2 3748:1 3918:1 3959:5 4362:1 4413:1 4469:4 4488:2 4628:1 5006:1 5956:1 6058:4 6120:1 6269:1 6567:1 7041:1 7408:2 7587:1 8875:1 8881:1 8887:1 8899:1 10314:1 11307:1 12001:1 12348:1 13067:1 13276:1 14764:1 14975:1 15569:1 16010:1 17523:3 19433:1 19885:1 24543:1 45309:2 51066:1 52588:2 53054:6 53576:1 53578:1 55880:1 55881:1 59173:2 #
0.00054179882947949454998631813040788 1:1 8:11 10:5 13:2 14:5 19:1 21:2 23:1 25:1 27:2 28:1 40:2 42:7 43:1 48:1 51:4 56:4 68:2 75:1 82:1 89:1 92:1 123:1 124:2 128:1 133:1 160:2 164:1 170:1 232:1 273:1 285:1 306:1 337:1 363:1 364:1 403:1 408:1 409:1 411:1 482:1 491:3 520:1 548:1 563:2 568:1 572:1 576:1 611:2 688:1 727:1 744:1 871:1 874:2 877:2 1016:1 1023:1 1143:1 1173:1 1269:1 1387:1 1546:1 1883:1 2360:1 2544:2 2592:1 3387:1 3688:1 3689:1 3690:1 4733:1 5280:1 5636:1 5637:1 #
0.00054179882947949454998631813040788 1:1 8:1 10:5 14:2 19:1 21:1 23:1 40:1 48:2 51:1 54:1 68:1 82:1 83:2 88:1 91:1 94:1 111:1 115:1 117:1 123:1 137:2 227:1 286:1 367:1 489:2 514:1 673:1 787:1 1290:2 1341:1 1875:2 2398:1 2949:1 3012:1 4038:2 5600:2 5835:1 7927:2 10028:1 14975:1 33749:1 50667:1 50686:1 50705:1 52238:1 52239:1 54575:1 #
0.00054179882947949454998631813040788 1:1 8:6 10:1 14:3 27:1 28:3 33:1 34:2 42:3 43:1 50:1 54:2 68:2 86:1 109:1 110:1 111:2 117:2 129:1 132:1 140:1 164:1 186:1 232:1 254:1 306:2 336:1 407:1 518:1 718:1 865:1 1143:1 1255:1 1372:1 1588:2 1950:1 2085:1 2652:1 3258:1 6594:1 8136:1 8915:1 9943:2 10405:1 10577:1 11511:1 11512:1 11513:2 11514:1 11515:1 #
0.00054179882947949454998631813040788 1:1 8:32 10:44 13:5 14:27 19:5 20:18 21:4 23:2 25:2 27:1 28:3 31:1 34:4 40:20 41:2 42:5 43:10 47:1 48:11 54:2 68:24 70:1 80:1 81:1 82:2 83:8 88:1 109:6 111:3 112:1 115:3 117:3 118:2 123:3 124:3 127:1 128:21 133:5 134:1 137:5 140:4 141:2 148:1 150:14 151:1 160:1 161:1 162:1 163:6 167:2 210:1 215:1 224:1 226:4 227:1 232:1 242:1 252:1 254:1 263:1 285:1 290:2 291:4 292:4 294:3 306:1 311:1 327:2 333:2 334:1 347:1 363:1 364:1 365:1 367:2 369:1 403:11 407:1 408:1 460:1 491:1 494:2 495:1 497:2 514:1 523:1 533:7 541:1 544:1 549:1 558:4 560:1 568:1 572:10 575:5 576:1 610:1 613:1 614:2 622:2 623:1 639:4 643:1 647:1 654:1 657:1 660:2 664:2 665:1 669:1 680:1 686:1 712:1 713:2 729:1 736:1 739:1 746:1 753:1 766:2 780:1 785:1 837:1 839:1 876:13 877:1 887:1 914:1 915:1 920:1 930:1 952:1 966:7 981:1 990:2 995:1 998:1 999:3 1090:1 1100:1 1116:1 1143:1 1184:1 1186:1 1188:2 1201:1 1238:1 1241:1 1253:1 1262:1 1268:6 1270:2 1289:3 1296:1 1327:1 1329:1 1348:1 1355:1 1394:1 1407:2 1547:2 1548:1 1579:1 1585:2 1591:1 1594:3 1613:1 1646:1 1648:1 1672:1 1684:1 1686:1 1744:1 1797:1 1826:1 1896:1 1905:1 1999:1 2053:2 2102:1 2146:3 2172:2 2197:2 2205:1 2226:1 2271:1 2274:1 2285:3 2296:1 2402:1 2434:2 2508:1 2513:1 2551:1 2556:1 2563:1 2611:4 2743:1 2744:1 2773:1 2794:2 2795:1 2796:1 2861:1 2869:1 2883:1 2928:1 2929:1 3037:1 3072:1 3094:4 3097:3 3325:1 3471:1 3481:1 3486:3 3548:1 3549:1 3550:2 3551:2 3560:4 3564:1 3567:2 3568:1 3569:1 3570:1 3572:1 3573:1 3575:1 3576:1 3577:1 3578:1 3579:1 3617:15 3670:1 3870:2 3877:1 3878:1 3926:1 3957:1 4023:3 4037:1 4132:1 4156:4 4230:4 4248:1 4251:1 4328:1 4336:2 4354:1 4365:3 4404:1 4524:1 4552:2 4562:1 4676:1 4715:1 4758:5 4774:1 4803:1 4991:1 5027:1 5077:9 5204:1 5259:1 5397:1 5401:1 5548:4 5604:1 6019:1 6072:1 6098:2 6123:5 6309:4 6321:1 6358:1 6388:1 7062:1 7630:1 7814:2 7822:1 7956:1 8077:1 8086:3 8089:1 8334:2 8367:1 8368:1 8536:1 8827:1 9010:1 9125:1 9165:1 9190:1 9452:2 9822:1 9965:1 9980:1 10315:1 10318:1 10325:1 10440:1 10491:1 10540:2 10555:4 10593:1 11122:1 11179:2 11287:1 11837:1 11969:1 12472:1 13356:1 13374:1 14651:1 14845:6 15423:3 15682:1 15684:1 17061:1 17068:2 17069:1 17070:1 17071:4 17072:1 17073:2 17074:1 17075:1 17076:1 17077:1 17078:1 17079:2 17080:1 17081:2 17082:1 17083:1 17084:1 17085:1 17086:1 17087:1 17088:1 17089:1 17090:1 17091:1 17092:1 17093:1 #
-0.00054179882947949454998631813040788 1:1 8:1 10:5 20:9 51:1 86:1 111:11 117:11 144:1 163:32 167:3 287:2 539:3 596:1 730:1 785:1 1819:2 2812:1 3202:1 3385:1 4226:2 6640:1 6662:1 7284:1 8530:1 8665:2 8824:1 8876:1 9315:1 11036:1 12180:1 14085:2 14585:1 15204:1 22205:1 22206:3 25280:17 25281:11 25282:12 25283:9 38864:11 38865:4 45081:1 47570:1 50463:1 54146:1 62149:1 71672:1 79770:1 109205:1 109206:2 109207:1 109208:1 109209:1 #
0.00037661106949575138755359482445328 1:1 8:13 10:8 13:1 14:3 20:4 27:4 40:1 42:10 43:2 48:1 51:3 56:4 68:1 75:1 82:1 109:1 110:2 111:1 160:2 164:1 306:1 314:1 403:1 407:5 458:1 491:2 516:1 548:2 563:1 611:2 619:1 688:1 727:3 874:3 876:2 877:1 910:1 940:2 951:1 961:1 1016:1 1068:1 1119:1 1143:2 1200:2 1528:2 1883:1 2289:1 2502:1 2544:1 2865:1 3186:1 3429:1 3535:1 3688:2 4733:1 5280:1 5881:1 6011:1 #
-0.00054179882947949454998631813040788 1:1 8:13 10:4 13:1 14:6 19:2 20:2 23:1 33:1 40:1 43:1 48:1 68:4 82:7 83:6 86:1 88:1 94:3 109:1 115:2 118:1 123:1 128:2 131:1 132:2 133:1 137:1 150:1 162:1 163:1 177:1 224:1 226:1 227:1 228:1 242:1 272:1 286:1 311:3 337:1 364:1 365:1 408:1 409:1 455:1 460:2 480:1 508:1 541:2 572:3 622:1 624:1 632:1 643:1 646:1 660:1 718:1 720:1 737:1 780:1 887:1 937:1 942:2 1080:1 1083:1 1179:1 1296:1 1341:3 1352:1 1354:1 1387:1 1429:1 1669:1 1744:1 2079:1 2082:1 2115:1 2220:1 2272:1 2372:1 2524:2 2614:1 2737:1 2744:1 2751:1 2796:1 2822:1 3081:1 3500:1 3523:1 4031:1 4034:1 4775:1 5011:1 5243:1 5990:1 6597:1 6805:1 6808:1 7083:1 7241:1 8022:1 8637:1 9046:1 9137:1 9759:1 10015:1 12257:1 12854:1 13493:1 15504:1 15999:1 17574:1 20261:1 20975:1 24127:1 24967:1 28869:1 29272:1 32685:1 36710:1 36759:1 37793:1 37794:1 38729:1 39372:1 42442:1 43803:2 115546:1 117392:1 127144:1 136734:1 #
0.00054179882947949454998631813040788 1:1 8:6 10:27 13:1 14:12 19:4 20:2 21:3 23:2 25:2 28:6 31:1 32:1 33:1 40:4 43:2 48:9 51:2 56:1 68:15 78:4 81:1 82:1 83:10 84:1 86:1 88:1 92:1 99:2 109:2 111:1 115:2 117:1 123:1 124:2 127:1 128:2 131:1 134:2 137:7 139:1 157:1 159:1 161:2 162:2 164:1 169:1 226:4 227:4 228:1 236:3 242:1 254:1 270:1 272:1 285:2 287:2 290:1 291:1 297:1 302:1 306:6 309:3 311:2 332:4 333:1 334:1 337:2 363:1 364:2 365:1 403:3 409:1 430:1 437:1 450:2 460:6 491:1 525:1 527:1 548:2 558:2 581:2 613:1 614:3 622:1 624:3 632:5 665:1 687:1 711:2 718:2 835:1 952:1 954:1 966:1 981:1 983:1 1009:2 1022:1 1063:1 1067:1 1144:2 1146:1 1155:3 1268:2 1317:1 1322:1 1330:1 1341:5 1394:1 1530:1 1539:1 1543:1 1547:1 1623:1 1645:1 1694:2 1819:1 1871:3 2031:1 2073:1 2264:1 2360:1 2401:1 2405:1 2464:1 2468:1 2557:2 2576:2 2581:1 2617:1 2731:1 2884:1 3018:1 3164:1 3319:2 3375:1 3619:1 3830:2 4041:1 4329:1 4388:1 4612:1 4762:1 5277:1 5398:1 6252:2 7600:1 7856:1 7956:2 8758:1 9755:1 10568:1 10717:1 11262:2 13390:1 13978:1 14136:1 14975:1 16998:2 19723:1 20218:1 20616:1 21117:1 31698:1 32260:1 50976:7 51987:1 55880:1 56361:1 58151:1 58503:1 58504:1 #
0.00054179882947949454998631813040788 1:1 8:5 10:24 14:9 19:12 20:2 27:2 38:1 40:8 43:1 48:4 56:1 68:6 78:1 82:3 83:3 88:3 91:1 94:1 101:1 109:2 115:1 123:4 124:2 128:6 131:1 133:2 137:1 140:2 149:1 150:6 151:2 162:1 167:8 215:1 226:3 285:3 286:1 288:1 290:1 306:1 311:1 365:1 403:4 408:1 409:1 430:3 460:6 495:1 497:1 509:1 514:1 517:2 525:1 529:3 539:1 547:1 548:1 555:1 558:1 570:1 572:3 623:1 628:1 631:1 643:3 646:1 660:1 680:1 684:1 687:2 741:4 898:1 938:1 942:2 964:1 974:1 1006:1 1008:1 1047:1 1070:1 1076:1 1156:1 1187:1 1225:1 1259:1 1283:2 1367:1 1405:1 1425:3 1543:1 1642:1 1808:1 1821:1 1996:2 2001:1 2004:1 2055:1 2131:1 2302:1 2332:1 2405:1 2427:1 2438:2 2470:1 2472:1 2530:1 2567:3 2578:2 2629:1 2634:1 2810:1 2954:1 3032:2 3447:1 3561:1 3891:3 4359:4 4362:1 4715:1 5232:2 5371:2 5390:1 5443:1 5470:1 5579:1 5597:1 5806:2 5829:3 6261:1 6666:1 6991:1 7718:1 8664:1 10014:1 10142:1 13442:1 14099:2 14136:1 34095:1 126836:1 128780:1 #
0.00054179882947949454998631813040788 1:1 8:14 10:15 13:1 14:14 20:1 25:5 27:1 28:2 30:1 40:7 43:2 48:13 54:1 68:10 75:1 78:1 83:6 96:1 109:1 128:4 137:5 150:2 155:1 162:1 163:3 226:7 285:1 292:1 306:3 311:3 321:1 332:1 337:3 424:3 450:1 460:3 488:1 528:1 533:1 541:1 548:4 554:1 572:3 601:1 636:1 643:2 703:1 704:3 718:1 760:1 887:1 909:1 943:1 964:3 966:1 981:2 990:1 1034:1 1067:1 1074:1 1076:1 1083:1 1201:2 1208:1 1247:1 1281:1 1308:1 1323:1 1403:1 1407:1 1412:1 1425:6 1522:1 1626:1 1746:1 1808:1 1809:1 1821:1 2007:1 2077:1 2084:1 2113:2 2131:1 2268:1 2367:1 2405:1 2418:2 2468:1 2520:1 2521:1 2631:1 2690:1 2738:1 2844:1 2846:1 2939:1 3020:1 3036:3 3094:1 3095:1 3097:1 3106:1 3175:1 3322:1 3340:1 3788:2 3881:1 3891:1 3948:1 4109:1 4204:1 4278:1 4301:1 4467:1 4481:1 4712:1 4938:1 5007:1 5248:1 5249:1 5852:1 5965:1 6086:1 6238:1 6321:1 6896:1 7096:2 7117:3 7811:1 7988:1 8077:2 8263:1 10155:1 10500:1 10621:1 10698:1 10723:1 10731:1 11200:1 11347:1 11906:1 12451:1 12997:1 14014:2 15396:1 15525:3 15792:1 15974:1 19885:1 20227:1 22994:1 23308:1 24191:1 25237:1 28893:1 33086:2 33149:1 40482:1 42790:1 47606:1 48967:1 55309:1 56366:1 57102:3 57885:2 57984:3 59406:6 59412:1 60187:1 62380:1 62381:1 62382:1 62383:1 62384:1 62385:1 #
0.00050260092326508934608420009482188 1:1 10:17 14:1 19:8 20:19 21:10 22:3 23:4 28:28 43:3 51:2 56:11 68:1 83:1 123:1 127:1 128:7 162:1 215:7 248:1 251:1 252:3 254:1 266:5 287:2 288:2 306:7 348:6 475:6 495:1 539:24 541:1 650:1 719:1 724:9 730:2 746:10 776:1 786:1 960:3 1034:28 1049:5 1064:1 1152:8 1183:2 1200:7 1216:1 1243:1 1262:1 1312:5 1348:2 1373:2 1653:2 1694:8 1739:1 1886:1 2105:1 2130:3 2461:7 2876:3 3175:1 3584:5 3605:1 3817:1 4246:1 4318:1 4369:2 4370:1 4497:1 4555:7 4722:2 4970:1 5296:3 6153:1 7144:1 8924:1 10152:1 10394:1 11131:1 12497:5 14646:1 17188:1 19104:1 21012:1 23473:1 31526:1 32192:1 35366:1 35984:1 54420:1 56428:2 58718:1 61707:1 98164:2 98286:1 98906:1 99542:2 99545:2 99607:1 99608:2 99791:2 99800:1 99808:1 #
0.00054179882947949454998631813040788 1:1 8:3 10:3 14:3 19:1 20:1 31:1 43:1 48:1 54:1 64:1 68:1 82:2 83:1 109:1 123:1 164:1 270:1 295:1 305:2 332:1 462:1 548:1 619:1 780:1 910:1 990:1 1143:1 1235:1 2201:1 2495:1 3178:1 3326:1 3806:1 5755:1 10157:1 10733:1 11682:1 12678:1 #
